tree
version=v4
num_class=1
num_tree_per_iteration=1
label_index=0
max_feature_idx=40
objective=binary sigmoid:1
feature_names=V23 Amount_Log V6 V7 V13 V21 V14 Amount_Normalized V11 V10 Amount_Bin_nan V26 V4 V9 Time V18 V24 V5 Amount_Bin_Medium Amount_Bin_High Time_Hour_Sin V1 V19 V20 V22 V17 Time_Hour V8 V15 V27 Amount Time_Hour_Cos V2 V16 V28 V12 V25 Amount_Bin_Low V3 Time_Hours Time_Normalized
feature_infos=[-144.7438449695737:61.25569301770755] [-1.268530905386231:2.731148045536111] [-18.558452465061521:18.568848413603806] [-38.770014475905867:30.46928377748139] [-4.4074127260252531:2.9413747694424819] [-83.903733565376967:65.656021781348414] [-20.9692243918504:11.402952692875404] [-0.30741284147278691:274.35939355830368] [-3.0958069185701484:8.0232807416666301] [-24.759049439768539:15.590712947105729] [0:1] [-4.3705455856856839:6.2850111521075114] [-3.4547203715860344:10.512298598981392] [-10.790390785723735:8.4212299101693766] [0:132928] [-9.4983718667560275:5.0464387195900455] [-3.623670597655988:5.0036577247173062] [-24.577840688574081:25.289760605632686] [0:1] [0:1] [-0.99999999735575162:1] [-16.466985874063859:1.0898053486906796] [-7.8855786502951242:6.1057056975602206] [-72.977442812447734:114.52353155740064] [-10.215598745091205:9.8013529401876962] [-28.40894474823007:10.548965646146526] [0:23.99944444444445] [-136.64628702667397:37.286865496015508] [-3.6916436248833993:3.877962291569816] [-53.769211736785159:61.022221325601059] [-0.30741284147278691:274.35939355830362] [-1:1] [-45.219545972784523:15.683273604605857] [-14.320381450099584:5.4581756840488733] [-64.273857390796408:122.8161862580336] [-18.385985755729749:7.5290953531093265] [-15.44033337971425:8.2726903681349224] [0:1] [-17.6582863852014:2.09013718472153] [0:36.924444444444447] [-1.9965795183032189:0.80260325305992508]
tree_sizes=3338 3425 3423 3424 3427 3439 3432 3443 3436 3457 3458 3445 3452 3459 3451 3441 3463 3445 3447 3447 3464 3456 3461 3463 3460 3465 3455 3465 3477 3461 3474 3475 3458 3471 3467 3448

Tree=0
num_leaves=31
num_cat=0
split_feature=6 35 35 9 6 12 35 9 12 12 12 9 37 18 5 7 26 3 35 14 5 26 9 8 35 19 8 28 8 3
split_gain=76447.6 3646.46 1845.35 1099.65 866.522 890.736 499.548 277.724 240.642 186.509 166.503 418.65 379.353 145.991 133.463 125.518 163.065 124.361 115.27 100.32 100.082 94.6405 157.855 92.8945 86.5413 77.729 76.0036 74.7783 66.7382 64.7909
threshold=-2.8276989550755705 -1.4914510856059133 -4.3852061353161957 -1.5641587235307357 -1.6928227470269632 0.53109959161394638 -0.78799011106306205 1.3925156473663598 1.3132067224013395 0.60188335908038126 1.6061193532634341 -0.025192705387290647 1.0000000180025095e-35 0.99997593805284424 -0.14089575694665987 6.2418166284051386 7.4916894991950267 -0.054224178088841495 0.018135374945643202 86371.500000000015 0.029461251429297005 18.110972222222223 -0.70097879460984969 -0.25577067714113577 -0.26384350983746691 0.2871957577872179 0.16472663486210293 0.57434818502877227 0.10704247942439817 -0.97848541255823052
decision_type=2 2 2 2 2 2 2 2 2 2 2 2 2 2 2 2 2 2 2 2 2 2 2 2 2 2 2 2 2 2
left_child=1 7 -2 9 5 21 14 28 29 25 -6 12 19 18 17 -13 -17 -7 23 -12 -10 -4 26 -8 -14 -3 -23 -25 -1 -5
right_child=2 3 4 8 10 6 13 -9 20 -11 11 15 24 -15 -16 16 -18 -19 -20 -21 -22 22 -24 27 -26 -27 -28 -29 -30 -31
leaf_value=-1.534437919810175 -1.3242832937874187 -1.662090973045514 -1.6598093829890772 -1.4346553173594048 -1.6667361585780727 -1.3376732262423165 -1.669437911361217 -1.669437911361217 -1.5843470075957118 -1.3302643788693427 -1.6675024276113812 -1.6586823820142413 -1.3278994711978971 -1.6674706983695806 -1.3279588330541867 -1.3854942671599644 -1.6574379121122353 -1.6157065714404042 -1.6261045807398948 -1.4534379248795497 -1.3375629321315721 -1.6224813925608546 -1.6394379132387631 -1.3694379301366792 -1.6180093431512961 -1.3585288399103324 -1.3342655185448367 -1.6073689497285539 -1.310515306087118 -1.6632392362524715
leaf_weight=3.3333334922790518 40.416668593883514 6.8055558800697309 186.94445335865021 3.1944445967674246 10197.083819568157 7.0833336710929897 4.1666668653488186 5.4166669249534598 7.6388892531394985 50.416669070720673 25.833334565162659 483.47224527597427 21.666667699813846 25.416667878627777 43.194446504116058 9.8611115813255328 12.500000596046446 9.3055559992790204 15.000000715255736 6.944444775581359 8.8888893127441388 3.1944445967674246 26.666667938232422 18.333334207534794 2.9166668057441703 3.0555557012557983 8.0555559396743757 4.0277779698371878 1902.7778685092926 104.86111611127853
leaf_count=24 291 49 1346 23 73419 51 30 39 55 363 186 3481 156 183 311 71 90 67 108 50 64 23 192 132 21 22 58 29 13700 755
internal_value=-1.60945 -1.33243 -1.66152 -1.54448 -1.66275 -1.58549 -1.47936 -1.31192 -1.6293 -1.36916 -1.66527 -1.63881 -1.51079 -1.57309 -1.37405 -1.65333 -1.53751 -1.49554 -1.51532 -1.62215 -1.45162 -1.6452 -1.57317 -1.45268 -1.36232 -1.56803 -1.4161 -1.4123 -1.31091 -1.65648
internal_weight=13248.5 2096.39 11152.1 184.861 11111.7 351.389 126.528 1911.53 124.583 60.2778 10760.3 563.194 57.3611 66.9444 59.5833 505.833 22.3611 16.3889 41.5278 32.7778 16.5278 224.861 37.9167 26.5278 24.5833 9.86111 11.25 22.3611 1906.11 108.056
internal_count=95389 15094 80295 1331 80004 2530 911 13763 897 434 77474 4055 413 482 429 3642 161 118 299 236 119 1619 273 191 177 71 81 161 13724 778
is_linear=0
shrinkage=1


Tree=1
num_leaves=31
num_cat=0
split_feature=9 25 35 12 9 37 12 9 10 35 38 1 33 26 33 31 12 37 9 12 35 17 36 25 39 8 23 12 35 38
split_gain=57485.4 3387.81 1860.21 725.715 1050.64 1005.25 442.95 304.662 260.539 221.778 175.401 160.273 130.529 117.474 97.1773 96.0087 86.9149 92.9577 76.8522 231.985 115.548 73.8388 67.1542 63.4174 68.1759 63.2409 62.4842 121.22 275.593 133.73
threshold=-2.0570583133154425 -1.889763056827942 -0.0459949034141817 1.1047483845838324 -0.012762546073576948 1.0000000180025095e-35 -0.30015159575848699 1.2857020743542436 0.076877507988771118 0.16826933795983276 -0.49839108996887321 1.7117646726951079 -0.53866019522895725 2.3616834814663252 0.29564640573665807 0.99822036584707752 1.2682301738446453 0.99995048850461588 -1.4931380519682207 0.41942070512382962 -0.054595888818469891 0.56894288212062183 -0.66358597843326073 -0.841314375976424 35.873090478894177 0.22258416109952617 -1.8762678314406245 0.28823894724242716 -0.55385620871530616 0.091175140824932666
decision_type=2 2 2 2 2 2 2 2 2 2 2 2 2 2 2 2 2 2 2 2 2 2 2 2 2 2 2 2 2 2
left_child=2 7 6 18 5 8 -1 14 15 16 12 -8 22 25 -2 23 17 -7 19 -3 21 -21 -6 -5 -25 -14 27 -20 29 -29
right_child=1 3 -4 4 10 9 11 -9 -10 -11 -12 -13 13 -15 -16 -17 -18 -19 26 20 -22 -23 -24 24 -26 -27 -28 28 -30 -31
leaf_value=-0.042373936013766975 0.23839945381846062 -0.048837333934370564 -0.053482865284049719 0.12458072562224937 0.21379179172380627 0.25916465010309553 0.23449308839183924 -0.027954777937147082 0.1926057655125947 -0.036608300208773752 -0.051063318169916209 -0.059795826180161153 -0.059745550882758153 -0.035244105856585092 -0.059443124155474453 0.20494780565396692 0.22198786655621416 0.036980456579664714 -0.05503623256758608 0.20553231493474497 -0.05964908045363651 0.032172638603276668 -0.043925132302706921 -0.0540691465113909 0.12298623390816853 0.18865642230888449 -0.057033878292415567 0.19989671071906975 -0.048825303447090337 -0.045836359230462906
leaf_weight=14.603050321340559 113.8948922008276 192.48218801617622 58.480111286044121 5.6459162831306449 11.825267091393469 7.0009172707796106 2256.2005578577518 12.557316496968268 14.12937346100807 10.83926001191139 661.47555355727673 4.6360077559947959 3.4008626192808142 56.897317916154861 2.8060909062623969 4.1349277645349494 89.505460426211357 14.371065989136696 192.62990945577621 16.972326144576076 9.5898179113864881 9.6258489191532117 3.2149132490158072 127.3768073618412 5.6793330609798423 10.391434967517851 9265.9772427082062 22.446795761585239 56.185661658644676 7.3492857068777075
leaf_count=109 692 1437 437 38 81 45 13502 92 91 80 4923 34 25 416 21 28 552 102 1441 107 71 65 24 947 37 69 69292 157 419 55
internal_value=-0.000294505 -0.048401 0.224961 -0.0514467 -0.0114404 0.0714134 0.232117 0.206057 -0.0122094 0.179254 -0.0423421 0.23389 0.0249488 -0.00350929 0.231238 -0.0324696 0.200356 0.109762 -0.0556461 -0.0270009 0.0891463 0.142794 0.158704 -0.0395474 -0.0465118 0.127406 -0.0563324 -0.033002 0.0163627 0.139286
internal_weight=13262.3 10928.4 2333.92 10799.1 1025.89 278.683 2275.44 129.258 156.966 121.717 747.205 2260.84 85.7298 70.6896 116.701 142.837 110.877 21.372 9773.26 228.67 36.188 26.5982 15.0402 138.702 133.056 13.7923 9544.59 278.612 85.9817 29.7961
internal_count=95389 81307 14082 80502 7458 1920 13645 805 1141 779 5538 13536 615 510 713 1050 699 147 73044 1680 243 172 105 1022 984 94 71364 2072 631 212
is_linear=0
shrinkage=0.05


Tree=2
num_leaves=31
num_cat=0
split_feature=6 35 25 9 6 12 35 12 9 26 38 5 25 20 22 12 35 24 20 27 13 15 27 31 27 13 21 15 8 19
split_gain=49259.4 2255.2 1596.47 673.612 265.081 332.636 450.404 245.558 225.047 128.884 115.915 107.462 107.403 104.674 121.355 94.3789 161.089 165.954 104.704 91.6602 103.292 78.8841 74.7992 92.0828 71.1119 69.7636 68.2641 65.6295 56.2599 52.7472
threshold=-2.3439653385405657 -1.2918335459073689 -1.889763056827942 -1.5641587235307357 -1.0820173007571519 0.7367081521347264 -0.58248814006672267 1.2682301738446453 1.3407856530562177 10.990416666666667 0.56893142022688636 -0.38959294001610517 1.1108085245732175 -0.99692588570254126 1.0080761815325059 1.7292869754038869 -2.5984269070324761 -0.10788872811760208 0.94123743407240723 -5.4092736851822556 -0.58835204162475885 0.27944623058893608 -1.6415500574607782 0.39946119717710066 -4.8319202527221075 -0.7212063968214325 -0.11730474024422298 -0.57631558293346785 0.078213593964396907 0.21656958357093642
decision_type=2 2 2 2 2 2 2 2 2 2 2 2 2 2 2 2 2 2 2 2 2 2 2 2 2 2 2 2 2 2
left_child=1 8 21 9 5 13 10 29 28 -3 12 -9 -7 14 -4 -6 17 18 -17 -8 26 -2 23 -18 -25 -11 -21 -19 -1 -5
right_child=2 3 4 7 15 6 19 11 -10 25 -12 -13 -14 -15 -16 16 22 27 -20 20 -22 -23 -24 24 -26 -27 -28 -29 -30 -31
leaf_value=0.055778809706149506 0.19779617195871046 -0.060119936183360784 -0.036761127010508945 -0.052200715098206708 -0.057080269173353827 0.22166551083986838 0.18891180036183466 -0.027619264226846935 -0.053626027042024974 -0.0086188871015537034 -0.039752093305078041 0.17751713938855829 0.074932724613101437 -0.046822932516719734 0.24326748090526207 -0.027231020500687642 -0.056506156880342065 0.15587377266570618 0.18882968951819035 -0.0010491750878121194 -0.04665749970863408 -0.044964380336917506 -0.05403898014080414 -0.059039355708780689 0.16715653021554222 0.19259548536314622 0.20421198314090511 -0.057665896054830357 0.19576828199987817 0.03893441215928662
leaf_weight=7.1966212689876548 66.723766073584557 6.0648351460695258 9.0135133266448957 129.72081603109837 8941.4144932925701 34.230427667498589 4.9944911748170844 9.1598908752203005 9.1044600158929807 4.5996889322996131 7.6530549526214591 21.06850491464138 19.618503496050835 658.73919355869293 6.7785820811986914 7.6797085553407696 17.999412074685097 4.0791972726583472 20.778798028826714 9.4135868549346942 111.81512255966663 3.5230556279420844 301.97766962647438 4.7971522808074978 12.603904366493223 67.872521474957466 7.1099501848220816 30.513303905725479 2643.860578134656 18.091204360127449
leaf_count=47 368 44 70 996 69523 215 34 65 70 29 58 122 127 5092 52 57 137 24 128 71 858 27 2312 37 81 374 45 232 13965 129
internal_value=-0.00047581 0.180882 -0.051925 0.0393159 -0.0535592 -0.0271512 0.0303955 -0.0144918 0.194536 0.161296 0.14233 0.115356 0.168207 -0.0437733 0.0834381 -0.0560167 -0.0322685 0.0410904 0.130524 -0.0212358 -0.029414 0.185621 -0.0459782 0.0227829 0.104798 0.179825 0.0872731 -0.032485 0.195388 -0.0410464
internal_weight=13198.2 2916.74 10281.5 256.577 10211.2 869.366 194.835 178.04 2660.16 78.537 61.502 30.2284 53.8489 674.531 15.7921 9341.84 400.429 63.051 28.4585 133.333 128.339 70.2468 337.378 35.4005 17.4011 72.4722 16.5235 34.5925 2651.06 147.812
internal_count=95389 15841 79548 1759 79153 6622 1408 1312 14082 447 400 187 342 5214 122 72531 3008 441 185 1008 974 395 2567 255 118 403 116 256 14012 1125
is_linear=0
shrinkage=0.05


Tree=3
num_leaves=31
num_cat=0
split_feature=6 35 35 9 6 12 35 12 9 38 26 20 12 5 37 22 8 31 5 2 9 35 33 7 27 17 13 3 33 38
split_gain=41980.8 1671.04 931.606 553.288 350.202 409.547 481.471 214.884 172.941 128.56 101.03 93.5651 93.1898 158.893 127.226 88.9488 88.6419 85.1533 84.0342 76.8666 76.447 130.242 74.8346 69.6487 68.325 57.8088 52.5632 51.8111 90.1434 51.34
threshold=-2.3439653385405657 -1.2918335459073689 -4.1084332189482557 -1.5641587235307357 -1.0820173007571519 0.72719777620611559 -0.40169320412460363 1.2682301738446453 1.3407856530562177 0.56156111026791644 10.990416666666667 -0.99692588570254126 1.7292869754038869 -0.65875533308867662 0.0056476213238934011 1.0080761815325059 0.51052090975564501 -0.19444203645055244 -0.38959294001610517 -0.42043696584639573 -1.0272412047514317 -0.82661004690690676 0.17278447026305002 -0.26547595793121231 -5.4092736851822556 0.82613106804266601 -0.7212063968214325 -7.1008283939166477 -1.5587842123155387 -0.23844490432534607
decision_type=2 2 2 2 2 2 2 2 2 2 2 2 2 2 2 2 2 2 2 2 2 2 2 2 2 2 2 2 2 2
left_child=1 8 16 10 5 11 9 -5 -1 19 -3 15 27 14 -14 -4 -2 -16 -9 23 21 22 -13 -7 -8 -21 -12 28 -6 -15
right_child=2 3 4 7 12 6 24 18 -10 -11 26 20 13 29 17 -17 -18 -19 -20 25 -22 -23 -24 -25 -26 -27 -28 -29 -30 -31
leaf_value=0.16943268315244639 -0.059490345228558311 -0.059533354039426369 -0.035531021158586709 -0.040173899298501764 0.2712063503737831 -0.059820593335710381 0.16342461698949862 -0.026734487490846334 -0.05294090781185129 -0.040661454668912016 -0.0082309664750309618 0.202273526923443 -0.031832582965204657 -0.012353350417475711 -0.05897752592461776 0.19606915410648354 0.16918238775201433 0.14535940989781687 0.15341030046461196 0.17921956533717492 -0.051414892878994471 -0.030946744947813538 -0.029596201671237238 0.12833429539650296 -0.037223264852930732 -0.032429106195755411 0.16635428686957454 -0.056559487958795486 -0.058454972398823281 -0.057632966792599105
leaf_weight=2897.1170435845852 4.6122616529464713 5.8244476392865172 8.659233972430231 143.63342141360044 3.3044653385877609 7.8530787229537991 4.4062079936265937 8.9941703677177411 8.7696715891361219 10.972788691520689 4.5762612819671622 10.905871130526068 32.067609086632729 84.721771784126759 6.264303430914878 7.9537080377340308 52.211791954934597 27.397931672632694 23.101129457354546 61.315067611634731 558.63352643698454 64.776292100548744 5.1104111000895491 13.161286011338232 114.38897557556629 3.4054761677980414 74.457477316260338 8581.4787131547928 5.5673682540655118 239.77977265417576
leaf_count=14012 35 44 69 1125 22 58 27 65 70 86 29 68 242 645 49 52 256 157 122 345 4475 514 40 76 894 23 374 69460 45 1910
internal_value=-0.000602447 0.157885 -0.0512481 0.0365908 -0.0524124 -0.0221521 0.03765 -0.0140376 0.168762 0.120482 0.141435 -0.0417966 -0.0553491 -0.0314519 0.0394387 0.0753512 0.150622 0.107334 0.102928 0.141106 -0.0448402 0.000620167 0.128289 0.0580207 -0.0297811 0.168083 0.156245 -0.0564346 0.064333 -0.0458112
internal_weight=13075.4 3166.47 9908.95 260.587 9852.12 871.542 215.503 175.729 2905.89 96.7077 84.8582 656.039 8980.58 390.231 65.7298 16.6129 56.8241 33.6622 32.0953 85.7349 639.426 80.7926 16.0163 21.0144 118.795 64.7205 79.0337 8590.35 8.87183 324.502
internal_count=95389 15841 79548 1759 79257 6727 1509 1312 14082 588 447 5218 72530 3003 448 121 291 206 187 502 5097 622 108 134 921 368 403 69527 67 2555
is_linear=0
shrinkage=0.05


Tree=4
num_leaves=31
num_cat=0
split_feature=9 12 12 35 38 18 35 21 9 12 33 35 26 1 15 21 18 19 33 37 34 38 34 32 3 33 12 9 31 7
split_gain=34873.2 1461.9 1045.05 1085.55 741.906 383.875 230.904 137.455 113.647 282.957 253.364 155.162 105.522 95.3202 93.0901 120.408 85.2471 69.6283 74.7098 64.3868 66.5552 63.7624 87.809 60.5232 54.3328 52.1245 76.2078 51.0664 44.7988 43.4916
threshold=-1.8468339275995611 -0.09333967281295559 1.074768448360464 -0.75069591657275658 0.16883847723779377 0.99997593805284424 0.19469529576871067 0.8213810341524922 -1.0272412047514317 0.14428546662548211 -0.29445037982518679 -0.26384350983746691 9.7518055555555598 1.7117646726951079 0.76269312716320414 -0.30175736746076925 0.99997593805284424 0.99996241341658831 -0.98691290216809857 0.99995048850461588 0.18273029264903282 0.48672209842709607 1.7792926502385609 0.90449351419172797 0.33921116968641657 -1.3487113069718004 -0.60707885825210883 -0.24586753643323053 0.97789741986251377 0.084820625583232459
decision_type=2 2 2 2 2 2 2 2 2 2 2 2 2 2 2 2 2 2 2 2 2 2 2 2 2 2 2 2 2 2
left_child=1 25 8 4 5 7 13 17 9 -2 11 12 -11 -3 -5 -16 23 19 -19 -4 -21 22 27 -17 -22 26 -1 -6 -20 -12
right_child=2 6 3 14 21 -7 -8 -9 -10 10 29 -13 -14 -15 15 16 -18 18 28 20 24 -23 -24 -25 -26 -27 -28 -29 -30 -31
leaf_value=-0.052443454106435243 -0.052670067655094494 0.1510419670515617 0.16372222321344054 -0.050018486157919956 0.083077832877818239 -0.044204352684274112 -0.034899358274224412 -0.03896735424026504 -0.05505422272367471 -0.013315261483318897 -0.050966754678733656 -0.058116749638761789 0.17175699580969817 -0.044218006683804822 -0.054915664012245027 0.13559892515566127 -0.058458999700809672 0.1503701220387649 -0.027061475123400097 -0.00015391877002918466 0.15462731625993006 -0.052180471352494179 0.18646635378052959 -0.050132134836141831 -0.0019834392879470044 -0.055940278698296035 0.17055096157148969 -0.047344971717312286 0.16725335554493409 0.014602767817006999
leaf_weight=8.9445431977510435 496.54523982107639 3042.263159699738 150.68714445084333 563.22748339176178 10.45467736572027 37.400568403303623 16.861325323581696 11.846447117626665 7980.5551550835371 9.4052789509296399 64.980328224599361 12.478061929345129 42.528634250164032 6.263131581246852 40.806007452309132 27.021056950092316 10.519503742456434 16.757400207221508 16.619854427874092 12.638729199767111 35.985604383051395 106.60820394009352 6.6739601865410796 5.2362193912267676 6.5453928485512725 88.30590757727623 6.7021931484341613 26.604174584150314 3.6105306521058074 41.40321472287178
leaf_count=75 4156 13803 721 4621 67 286 137 89 67096 71 526 104 215 48 331 159 86 79 125 85 175 879 48 40 44 734 39 216 19 315
internal_value=-0.000693255 0.143367 -0.0475833 -0.00142873 0.0589239 0.105375 0.14962 0.127341 -0.0533967 -0.0335753 0.0219381 0.100201 0.13824 0.150641 -0.0427113 0.00652855 0.065142 0.135454 0.0722922 0.146802 0.100588 -0.0313249 0.019515 0.10545 0.130525 -0.0410367 0.043075 -0.0105514 0.00761803 -0.0254479
internal_weight=12906.5 3169.34 9737.14 1089.24 442.433 292.092 3065.39 254.691 8647.9 667.341 170.796 64.412 51.9339 3048.53 646.81 83.5828 42.7768 242.845 36.9878 205.857 55.1697 150.341 43.7328 32.2573 42.531 103.953 15.6467 37.0589 20.2304 106.384
internal_count=95389 14836 80553 8070 2833 1623 13988 1337 72483 5387 1231 390 286 13851 5237 616 285 1248 223 1025 304 1210 331 199 219 848 114 283 144 841
is_linear=0
shrinkage=0.05


Tree=5
num_leaves=31
num_cat=0
split_feature=6 35 25 9 6 12 35 12 12 20 13 4 22 12 35 38 26 5 19 19 8 5 8 27 5 23 31 19 27 31
split_gain=32391.3 1280.39 962.607 379.395 212.138 239.642 352.439 166.121 139.602 120.748 114.39 132.369 94.2717 83.0702 145.797 135.372 82.2093 74.0197 71.9134 175.265 70.3705 70.9192 66.2226 63.7603 62.9991 60.9654 54.3132 52.9555 46.3487 55.4413
threshold=-2.1513903789090452 -1.2109447495677623 -1.889763056827942 -1.5641587235307357 -1.0173425090789718 0.49526397218533053 -0.66376510477693584 1.2682301738446453 -0.30015159575848699 -0.99692588570254126 -0.34691595232214772 -0.098249978038235333 0.61663609399864994 1.7292869754038869 -2.5984269070324761 0.16883847723779377 10.990416666666667 -0.042557423037610245 0.18059432537723163 0.99996241341658831 -0.50036385481258472 -0.11816134669702609 -0.070281476569718129 -4.3968914245559949 -0.080157746430387242 0.1185193433394691 -0.9270902695487141 0.040503494979467557 -1.7925848380318088 0.39946119717710066
decision_type=2 2 2 2 2 2 2 2 2 2 2 2 2 2 2 2 2 2 2 2 2 2 2 2 2 2 2 2 2 2
left_child=1 8 -2 16 5 9 20 18 -1 12 11 25 -4 -6 15 17 -3 -15 -5 -20 -7 27 -10 -12 -9 26 -8 -22 29 -16
right_child=2 3 4 7 13 6 10 24 22 -11 23 -13 -14 14 28 -17 -18 -19 19 -21 21 -23 -24 -25 -26 -27 -28 -29 -30 -31
leaf_value=-0.053905615938550082 0.13141473879901489 -0.059306390065067695 -0.057827684352754809 -0.047342248545458245 -0.055598908449178246 -0.040161609421291301 0.306789584195158 0.0067161886448931316 -0.051301290706334983 -0.051343245730254429 0.11364370731244373 -0.036582992407195765 0.1782500915219436 0.1348431115634473 -0.058098177005888922 -0.052561917953636197 0.12724941868477704 -0.031161897798799111 0.24477477714451973 -0.042048061970151235 0.0036940072340274641 0.16574446361833828 0.13668753565016697 -0.046839778590056946 0.13817243691128342 0.020413498713553024 0.083273714503569907 0.13674810717836247 -0.052317645820720765 0.073787548387130433
leaf_weight=9.6633804813027364 72.046528451144695 6.3743861243128768 7.1367865204811123 139.06440240889788 7865.2235921993852 7.7498560473322859 7.2416407987475404 15.624773971736429 4.6914344578981391 539.22278545051813 6.4287888109683982 17.927842602133751 10.377981670200823 29.494244709610939 15.137692257761957 25.029411755502224 80.250546246767044 8.6944591552019101 7.6193477213382748 17.69574386626482 16.945985637605194 36.688442915678024 3266.5178940668702 166.02497550845146 21.872422896325588 5.4719313457608214 4.3507583364844331 13.384790629148482 272.33926786482334 16.825548902153969
leaf_count=78 339 50 61 1173 68960 61 57 102 32 4658 39 145 66 157 127 208 371 67 47 139 111 201 14160 1413 105 39 27 68 2305 105
internal_value=-0.000762074 0.126977 -0.0506267 0.0259903 -0.0520724 -0.0281206 0.0094128 -0.0115693 0.135857 -0.0471466 -0.0241324 0.0582933 0.0820549 -0.0545132 -0.0312786 0.0378146 0.113522 0.0970486 -0.0332321 0.04428 0.102484 0.118979 0.136418 -0.0408572 0.0833957 0.157971 0.222902 0.06241 -0.0456326 0.0113269
internal_weight=12713.1 3569.37 9143.74 288.502 9071.7 838.953 282.215 201.877 3280.87 556.738 207.446 34.9922 17.5148 8232.74 367.521 63.2181 86.6249 38.1887 164.379 25.3151 74.7691 67.0192 3271.21 172.454 37.4972 17.0643 11.5924 30.3308 304.303 31.9632
internal_count=95471 16257 79214 1987 78875 6946 2161 1566 14270 4785 1720 268 127 71929 2969 432 421 224 1359 186 441 380 14192 1452 207 123 84 179 2537 232
is_linear=0
shrinkage=0.05


Tree=6
num_leaves=31
num_cat=0
split_feature=6 35 35 9 6 12 35 12 9 20 13 23 12 35 37 8 22 18 26 19 19 2 1 14 27 21 11 31 8 38
split_gain=28925.4 1066.93 609.974 329.061 262.054 282.166 370.894 148.539 118.623 109.608 106.714 86.5048 83.6634 163.6 125.326 83.091 75.5907 72.3843 69.7271 66.4072 137.847 65.6136 78.8804 57.3018 56.2749 53.0468 51.0376 58.4296 49.6245 48.4373
threshold=-2.1513903789090452 -1.2109447495677623 -4.1084332189482557 -1.5641587235307357 -1.0173425090789718 0.49526397218533053 -0.66376510477693584 1.2682301738446453 2.2205745329728495 -0.99692588570254126 -0.34691595232214772 0.13576291440306368 1.1047483845838324 -2.5984269070324761 0.0056476213238934011 -0.070281476569718129 0.61663609399864994 0.99997593805284424 10.990416666666667 0.18059432537723163 0.99996241341658831 0.29815508332467083 -0.16558162407603808 47986.500000000007 -4.3968914245559949 -0.13407885429217642 2.4770993584266932 -0.99310783159956306 0.52036139164957407 0.56893142022688636
decision_type=2 2 2 2 2 2 2 2 2 2 2 2 2 2 2 2 2 2 2 2 2 2 2 2 2 2 2 2 2 2
left_child=1 8 28 18 5 9 17 19 15 16 11 23 -6 14 -14 -1 -4 29 -3 -5 -21 -16 -23 -8 -12 -9 -15 -28 -2 -7
right_child=2 3 4 7 12 6 10 25 -10 -11 24 -13 13 26 21 -17 -18 -19 -20 20 -22 22 -24 -25 -26 -27 27 -29 -30 -31
leaf_value=-0.052643929032619496 -0.058015480142855118 -0.058779409260548622 -0.057387913140831498 -0.046591733772744677 -0.055538656821922973 0.12417864583708389 0.1908307943995998 -0.018063583924341497 -0.058387861863769777 -0.050200983131933663 0.10155696408253297 -0.029700094261236515 -0.033867151564082099 -0.047497130313137646 0.14829949466905804 0.12558385246794382 0.15257233368491108 -0.026914859145489113 0.11611584882335715 0.20323228183072778 -0.041172590006822531 -0.059007725994349017 0.15713890553067797 0.018812039572127171 -0.045031794095133464 0.11288382435287694 0.25490277803239697 -0.057272318385173215 0.12504814802734537 -0.058669982349140407
leaf_weight=6.5521696656942359 3.9774047285318366 6.1164851188659659 6.8394243195652988 134.35918387770653 7196.4485378861427 76.001189112663269 12.424013346433641 10.68669857829809 8.8179603815078718 521.64001027494669 6.8231541067361823 16.714540980756283 39.298456877470016 623.4308735653758 22.539523467421532 3375.522153146565 11.485978960990904 10.050908856093882 83.45802566409111 8.6857196092605609 17.181575030088425 11.466194443404676 6.6800536364316931 7.932131625711917 161.86202349513769 27.991939157247543 3.0029772743582726 2.9926970675587645 53.456268355250359 3.8031441047787657
leaf_count=49 34 50 61 1173 65821 388 82 69 74 4673 39 133 323 5491 123 14147 66 74 371 47 139 93 31 56 1421 138 20 27 227 31
internal_value=-0.000814824 0.116908 -0.0500422 0.0245974 -0.0511093 -0.0244803 0.0147889 -0.0112386 0.124761 -0.0459787 -0.0222221 0.0545898 -0.0539237 -0.0375415 0.0298156 0.125239 0.0742108 0.0995387 0.104173 -0.0324679 0.0408937 0.0913268 0.0205608 0.123801 -0.0391024 0.0767038 -0.0461009 0.0990829 0.112371 0.115465
internal_weight=12478.2 3679.37 8798.87 288.48 8741.44 835.577 295.611 198.905 3390.89 539.965 205.756 37.0707 7905.86 709.411 79.9842 3382.07 18.3254 89.8552 89.5745 160.226 25.8673 40.6858 18.1462 20.3561 168.685 38.6786 629.427 5.99567 57.4337 79.8043
internal_count=95471 16257 79214 1987 78953 7024 2224 1566 14270 4800 1731 271 71929 6108 570 14196 127 493 421 1359 186 247 124 138 1460 207 5538 47 261 419
is_linear=0
shrinkage=0.05


Tree=7
num_leaves=31
num_cat=0
split_feature=6 35 35 9 6 35 9 19 19 33 9 20 8 8 37 37 14 20 5 26 38 14 3 37 38 31 22 35 22 37
split_gain=26047.5 907.995 560.292 288.248 254.504 217.054 171.045 111.014 119.494 110.516 102.325 97.5788 83.9485 71.6215 67.2251 346.545 84.5456 129.268 81.4492 60.0209 58.8626 55.8558 55.7164 64.5292 78.245 54.4246 51.1392 45.7438 86.5692 103.923
threshold=-2.1513903789090452 -1.2109447495677623 -3.9036628049779587 -1.5641587235307357 -1.0173425090789718 -0.84629289159142951 -0.025192705387290647 0.016009124917142552 0.99996241341658831 0.049787709406465701 2.2205745329728495 -0.99692588570254126 0.41715300562479979 -0.070281476569718129 1.0000000180025095e-35 0.99995048850461588 55118.000000000007 -0.093384295406505585 -0.14089575694665987 10.990416666666667 0.2775006626957085 129677.77759206884 0.040614074938707508 0.027463615891225705 -1.3200799808573564 -0.9270902695487141 -0.72640241817893714 -2.6647996500101874 -0.9350590038623986 0.050121936262107709
decision_type=2 2 2 2 2 2 2 2 2 2 2 2 2 2 2 2 2 2 2 2 2 2 2 2 2 2 2 2 2 2
left_child=1 10 12 19 5 6 9 22 -9 -4 13 20 -2 -1 -13 -16 17 18 -17 -3 -7 -10 23 -5 -25 -20 -11 28 29 -6
right_child=2 3 4 7 27 11 -8 8 21 26 -12 14 -14 -15 15 16 -18 -19 25 -21 -22 -23 -24 24 -26 -27 -28 -29 -30 -31
leaf_value=-0.05185780144854836 -0.057189576338629672 -0.05828628904774729 0.12773966222173869 -0.051097585310957608 -0.05212343432788992 0.10973435949052063 -0.031471483737784939 0.16131858838448723 -0.058409685347678944 0.07902337927072374 -0.057919534872364765 -0.0529608722601611 0.11374105006231666 0.11655257984290766 0.23126352412613349 -0.042551259219500197 -0.056056735908956573 -0.057164911817688881 0.17348969213823978 0.10701637207698328 -0.059193514612951727 0.10953433481986806 -0.051954939548813722 -0.057522764395167174 0.1177894033157896 0.013479904785159022 -0.028326784475784156 -0.054235370810134201 -0.049115306795598654 0.076088062868611361
leaf_weight=6.3247078359127036 8.1597632691264135 5.8661549910902968 45.871536999940872 22.928390011191368 29.027520105242729 17.605207167565826 68.625365421175957 17.434387415647507 17.29392379522324 19.403114676475525 8.4540058076381666 402.37988086044788 60.014123447239399 3453.0294364988804 13.043128825724123 10.024067252874373 144.60939682275057 35.204291567206383 17.81978565454483 85.956876814365387 7.2929333671927443 6.9366400912404051 102.08854745328426 9.4081208258867282 19.674436710774899 7.5725506767630604 25.906333111226559 7314.0095038190484 202.9770909100771 34.69753835350275
leaf_count=49 75 50 232 205 265 110 585 82 143 110 74 3689 257 14147 78 91 1336 323 124 371 61 38 907 84 107 64 216 69494 1882 222
internal_value=-0.000854806 0.10874 -0.0494796 0.0233658 -0.0506387 -0.0240951 0.0281549 -0.0109171 0.0614943 0.0730314 0.11582 -0.0368323 0.0932823 0.116245 -0.0406653 -0.0189917 -0.0341574 0.0106858 0.0781302 0.0964559 0.0602536 -0.0103313 -0.0304954 0.0116259 0.0610764 0.125771 0.0176444 -0.0534937 -0.0331539 0.0176862
internal_weight=12219.6 3755.4 8464.24 287.587 8396.07 815.358 159.806 195.764 41.665 91.181 3467.81 655.551 68.1739 3459.35 630.653 228.273 215.23 70.6207 35.4164 91.823 24.8981 24.2306 154.099 52.0109 29.0826 25.3923 45.3094 7580.71 266.702 63.7251
internal_count=95471 16257 79214 1987 78882 7019 1143 1566 263 558 14270 5876 332 14196 5705 2016 1938 602 279 421 171 181 1303 396 191 188 326 71863 2369 487
is_linear=0
shrinkage=0.05


Tree=8
num_leaves=31
num_cat=0
split_feature=6 25 9 5 6 12 12 4 13 21 20 12 37 37 9 3 12 21 38 38 22 5 20 12 9 12 25 19 19 17
split_gain=23611 754.159 689.612 387.337 203.036 204.689 182.007 160.447 134.387 102.78 96.304 85.6343 119.271 533.974 102.068 79.7079 78.9575 74.0076 70.0898 69.0736 58.9818 56.1527 55.5877 46.7084 44.7026 44.6408 44.3584 35.7037 82.6464 35.0633
threshold=-2.1513903789090452 -1.889763056827942 -1.5641587235307357 0.067659865354797358 -1.0173425090789718 0.49526397218533053 0.053506891971878606 -0.19417750337517278 0.28434683920736764 0.51277792630612073 -0.99692588570254126 1.1047483845838324 0.0056476213238934011 0.99995048850461588 -0.10174508945567264 -0.18352486158536707 1.4310349775805584 0.8213810341524922 0.47918959706460723 0.55372781393031267 0.61663609399864994 1.654691946128765 0.86571616905861537 1.7292869754038869 0.18795975082090857 -0.19529756024678921 2.2122261202388804 0.023281793594235305 0.99996241341658831 0.82613106804266601
decision_type=2 2 2 2 2 2 2 2 2 2 2 2 2 2 2 2 2 2 2 2 2 2 2 2 2 2 2 2 2 2
left_child=2 -2 25 15 5 10 -5 8 9 19 20 -6 -13 23 22 24 -9 26 -18 29 -3 -10 -15 -14 -4 -1 -8 -17 -29 -7
right_child=1 4 3 6 11 7 17 16 21 -11 -12 12 13 14 -16 27 18 -19 -20 -21 -22 -23 -24 -25 -26 -27 -28 28 -30 -31
leaf_value=-0.0096086008403942543 0.10646061680507471 -0.057123799672254741 0.084839389762954576 -0.044180590421776703 -0.054732040689190964 0.13511212028627245 0.11531539461757737 -0.049820428702392748 -0.047475903341207965 -0.037141767310985535 -0.049590733769023308 -0.050263521019236215 0.31901474565460836 -0.037241026656545773 -0.050349304670459484 -0.051866123799781963 0.073895585576820105 -0.045689858795643336 -0.054230450997073534 -0.049551060695676406 0.12672176290546375 0.12592904588088771 0.11869199457848933 0.16515906166230077 -0.057716430516645614 0.10916856251981802 0.02780798838477835 0.14340857165979731 -0.050622194527251391 -0.030237919650399736
leaf_weight=7.9288053512573233 77.342265449464321 6.6218995973467853 23.12405397742987 24.988380655646324 6620.3199839293957 60.686280637979507 153.62424006313086 106.38587325066328 35.155285649001598 14.039742961525915 483.62793365865946 454.25836363434792 6.4640085548162487 9.1892527490854281 157.23907998204231 104.50716684758663 29.966671571135521 8.3178606927394849 16.579163312911987 6.1115583926439276 12.787092328071592 5.3835423067212096 15.118347890675066 20.826716162264347 7.215094491839408 3432.0309635549784 15.989216871559618 8.306852653622629 16.173475719988346 3.3849820494651786
leaf_count=50 339 61 122 226 65824 315 653 968 326 121 4658 4321 49 79 1483 925 164 77 152 54 66 34 73 100 64 13871 99 37 133 27
internal_value=-0.00088604 -0.0489284 0.101985 0.0363658 -0.0504187 -0.0261864 0.0821794 0.00827113 0.0503499 0.0863522 -0.0452081 -0.0530162 -0.0358854 -0.00461045 -0.0356089 -0.0219828 -0.0260566 0.0999252 0.0282584 0.111057 0.0639979 -0.0244478 0.059743 0.201601 0.0509375 0.108895 0.107066 -0.0391344 0.0152178 0.126376
internal_weight=11943.7 8141.49 3802.21 362.246 8064.15 780.73 202.92 277.693 124.761 84.2226 503.037 7283.42 663.096 208.837 181.547 159.327 152.932 177.931 46.5458 70.1828 19.409 40.5388 24.3076 27.2907 30.3391 3439.96 169.613 128.987 24.4803 64.0713
internal_count=95471 79214 16257 2336 78875 6946 1055 2161 877 517 4785 71929 6105 1784 1635 1281 1284 829 316 396 127 360 152 149 186 13921 752 1095 170 342
is_linear=0
shrinkage=0.05


Tree=9
num_leaves=31
num_cat=0
split_feature=25 12 38 35 33 37 37 21 35 12 35 26 5 8 26 12 32 34 21 1 23 31 5 38 20 10 37 37 17 5
split_gain=19153.4 1898.89 1309.09 231.411 187.246 162.518 420.525 156.969 148.337 88.0182 215.078 198.239 178.228 122.288 113.743 83.9394 73.9147 70.1711 93.3752 77.1278 66.8652 62.8506 60.2156 55.4556 54.4323 73.3486 53.7829 49.969 35.7714 34.4822
threshold=-1.6222128372696356 1.1047483845838324 -0.49839108996887321 -0.0459949034141817 -0.025901387407073945 0.0056476213238934011 0.99995048850461588 0.78852031781922916 -3.9036628049779587 0.48400070795677913 -0.58248814006672267 11.828750000000003 1.5809227580021965 0.40666304557496286 13.592916666666669 -0.40717157728258607 -1.0833709314069278 0.20239438642812888 -0.13407885429217642 -0.61901592116083803 -1.0134102501722546 0.99890523636471562 1.1398270814271791 -0.91589474475229671 -0.99692588570254126 0.25202365547083139 0.12584578008834249 1.0000000180025095e-35 -0.55323332512927748 0.79242815540924927
decision_type=2 2 2 2 2 2 2 2 2 2 2 2 2 2 2 2 2 2 2 2 2 2 2 2 2 2 2 2 2 2
left_child=4 8 3 7 15 21 -7 16 23 -10 11 12 -11 14 20 -1 -3 -8 -19 -20 -13 24 -15 -2 25 -4 -14 -22 -6 -16
right_child=1 2 5 -5 28 6 17 -9 9 10 -12 13 26 22 29 -17 -18 18 19 -21 27 -23 -24 -25 -26 -27 -28 -29 -30 -31
leaf_value=-0.057727455920658081 0.10444790797473741 -0.018774969877532337 -0.056462998874521254 -0.03649582498708244 0.065607889928479254 0.15264748914245965 -0.054268723953171519 -0.037642712094585723 -0.053836990779847764 -0.052338878694749583 -0.049946704321911166 0.22350928599574998 -0.022238897923939908 0.092254284135948134 -0.049344567521541899 0.10366098577654406 0.098685222584157128 -0.037104438351166974 0.11075081579328104 -0.053708214794758694 -0.032664155697185067 0.072342789765560703 0.31306606157332256 -0.057073521979192368 -0.053070218924443496 0.13920451552208785 0.16027927292791702 0.0931911241083479 -0.057096328611531348 0.079681098358624802
leaf_weight=8.0770101174712163 21.18306435644627 13.822112567722796 10.489927232265474 40.26864492893219 8.2218470647931117 40.283485822379589 99.19269485026598 23.463998645544052 5545.1842622682452 184.30567681789398 1310.7521962448955 6.26491655409336 5.7120153903961208 40.762332491576672 51.67965430021286 3214.7209210768342 431.77720163017511 50.259506985545158 27.210049480199814 9.6600907742977125 12.690165489912031 10.920765824615954 3.3405022770166388 7.0935570895671836 403.47474134713411 8.8137863278388959 13.757299080491064 20.836022906005383 21.397437393665314 5.7548742964863768
leaf_count=76 85 116 105 363 44 188 970 189 57130 1832 13374 40 54 211 499 12897 1859 459 147 84 117 66 28 68 3983 42 73 118 203 51
internal_value=-0.000911816 -0.0408047 0.0183012 0.0785296 0.102106 -0.0281565 0.00616035 0.0884044 -0.0503675 -0.0508163 -0.0407003 -0.00558135 -0.0371408 0.0399228 0.00859784 0.103257 0.0950417 -0.0255106 0.00722898 0.067662 0.0735714 -0.0460868 0.108979 0.0639282 -0.049146 0.0328759 0.106731 0.045553 -0.0230356 -0.0364163
internal_weight=11651.4 8398.95 1169.64 509.332 3252.42 660.305 226.606 469.063 7229.32 7201.04 1655.86 345.103 203.775 141.328 97.2256 3222.8 445.599 186.322 87.1296 36.8701 39.7911 433.699 44.1028 28.2766 422.778 19.3037 19.4693 33.5262 29.6193 57.4345
internal_count=95471 82251 8571 2527 13220 6044 1848 2164 73680 73527 16397 3023 1959 1064 825 12973 1975 1660 690 231 275 4196 239 153 4130 147 127 235 247 550
is_linear=0
shrinkage=0.05


Tree=10
num_leaves=31
num_cat=0
split_feature=9 12 12 35 18 38 35 23 12 35 9 12 35 20 38 8 15 21 9 18 21 34 1 21 12 4 26 35 12 20
split_gain=18545 864.73 721.808 587.837 363.881 215.909 119.938 84.0396 137.026 178.251 72.0603 144.939 104.492 117.994 78.9952 65.4442 63.0606 77.0849 78.1915 61.2965 51.567 49.8686 40.781 40.3083 40.3058 40.3 39.9331 37.0515 34.2806 49.5532
threshold=-1.6436181477238339 -0.08311660796806343 1.1047483845838324 -0.78799011106306205 0.99997593805284424 0.48672209842709607 0.08983929445129471 -1.7346990046055042 0.20881555346054501 -0.64697792619610051 -1.0272412047514317 0.061694199942077262 -0.35982987192309374 -0.0093565497896480974 -0.85526074618451242 -0.8361873166525241 0.57333502179328766 -0.28993346447349616 0.24550511183202969 0.99997593805284424 0.80702744186292552 -1.3169259885772504 1.7117646726951079 -0.41404582858141198 1.3132067224013395 1.8596866148768314 0.87138888888888899 -1.2109447495677623 -0.47797077099780949 -0.093384295406505585
decision_type=2 2 2 2 2 2 2 2 2 2 2 2 2 2 2 2 2 2 2 2 2 2 2 2 2 2 2 2 2 2
left_child=1 28 7 4 5 15 22 8 -2 19 11 -9 13 14 -13 -4 -5 -18 24 21 25 -10 -3 -8 -19 -17 -20 -23 -1 -30
right_child=2 6 3 16 -6 -7 23 10 9 -11 -12 12 -14 -15 -16 20 17 18 26 -21 -22 27 -24 -25 -26 -27 -28 -29 29 -31
leaf_value=-0.053276826241241117 -0.051501520876152618 0.097497882856457177 -0.056949544785244222 -0.047327635715020112 -0.051667170365555362 -0.041626857182351699 -0.056401647320352126 -0.05101418440079071 -0.04778797729513147 -0.034168467403749014 -0.05317789755848306 -0.030317655055329792 -0.041341375072739016 -0.040930505708454079 0.11810618199580257 0.094591373286182667 -0.049902003426234853 -0.014436785454996015 0.084619332517500187 -0.056999834169022559 -0.022995279000268033 0.11506411077733739 -0.029244835613777411 0.11036195439206209 0.12550221598012792 -0.058765916982328616 -0.057043068625499294 0.2361298220883831 0.074517047588421245 -0.057839441629007254
leaf_weight=93.943768948316574 150.06396329402924 3478.8527775406837 8.0756421834230405 407.18239187449217 80.809221789240837 39.647193968296051 17.01052234321833 326.50700841099024 3.6040804907679549 53.697918400168419 6097.7624060809612 11.259380735456942 58.15932435542345 26.228903539478779 43.986179694533348 249.69898226857185 49.12732220441103 6.6920683756470707 6.4800129458308247 5.1030537709593764 10.145096823573111 22.869314134120941 6.3583500757813445 4.6043288335204116 22.265326775610447 4.3586489036679259 21.414255067706108 8.7331560999155062 14.396186932921411 13.899174898862837
leaf_count=1003 1608 13976 78 4131 791 393 174 3493 30 554 65481 95 574 251 223 1169 483 57 35 49 79 112 56 24 104 38 207 64 102 136
internal_value=-0.00122772 0.0919816 -0.045079 -0.00314995 0.0428902 0.0673867 0.0965385 -0.0506582 -0.0218494 0.0254843 -0.0517294 -0.0327814 0.00985244 0.0463964 0.0878565 0.0832605 -0.0383856 -0.00402926 0.0356108 0.10495 0.0875462 0.128424 0.0972667 -0.0208782 0.0931622 0.0919604 -0.024134 0.14852 -0.0387452 0.00950123
internal_weight=11342.9 3629.07 7713.87 905.896 392.735 311.926 3506.83 6807.97 244.071 94.0075 6563.9 466.141 139.634 81.4745 55.2456 272.278 513.161 105.979 56.8517 40.3096 264.203 35.2066 3485.21 21.6149 28.9574 254.058 27.8943 31.6025 122.239 28.2954
internal_count=95570 15471 80099 7565 2548 1757 14230 72534 2417 809 70117 4636 1143 569 318 1364 5017 886 403 255 1286 206 14032 198 161 1207 242 176 1241 238
is_linear=0
shrinkage=0.05


Tree=11
num_leaves=31
num_cat=0
split_feature=6 35 35 6 9 12 35 12 12 12 35 37 37 9 4 8 9 27 21 40 14 26 26 31 9 35 7 19 15 2
split_gain=17999.7 652.94 422.232 199.127 196.957 161.74 186.9 138.62 87.4208 87.2593 114.344 130.886 155.786 77.6117 53.0662 52.289 47.1274 45.233 58.7211 47.7179 61.04 44.7355 41.7066 78.9098 65.2151 96.5313 41.0789 97.9471 39.754 38.0747
threshold=-2.0021013412256998 -0.93588934413971503 -3.9036628049779587 -1.0499364141729608 -1.5641587235307357 0.47214390323748801 -0.64697792619610051 -0.30015159575848699 1.3694424188888632 1.074768448360464 -0.75069591657275658 0.0056476213238934011 0.99995048850461588 -0.058303970068420245 -0.047757015257349496 0.41715300562479979 1.4756209482982119 0.36148660585961806 0.51277792630612073 -1.0435037955718831 47986.500000000007 10.990416666666667 18.004027777777782 0.070783617764331619 -0.77227846625914298 -0.48828665534167598 2.1657313211393681 0.99996241341658831 0.38327062324145827 0.067448934314338557
decision_type=2 2 2 2 2 2 2 2 2 2 2 2 2 2 2 2 2 2 2 2 2 2 2 2 2 2 2 2 2 2
left_child=1 7 15 5 21 22 28 -1 -6 -5 11 26 -13 -14 17 -2 -9 18 19 -8 -21 -3 -4 -24 25 -25 -11 -28 -7 -22
right_child=2 4 3 9 8 6 14 16 -10 10 -12 12 13 -15 -16 -17 -18 -19 -20 20 29 -23 23 24 -26 -27 27 -29 -30 -31
leaf_value=-0.056466766795531247 -0.05574629586577861 -0.058061392767456511 -0.05140479775000073 -0.053465395787172743 -0.036247538313435662 0.095057443142545217 -0.056318801229443084 0.09296890506121587 0.055303842247791835 -0.053837101905267706 -0.048695682424218477 0.14434291443391933 0.08324032798634301 -0.039404189736977749 -0.047321874097170855 0.090582967753599794 -0.030843610637943292 -0.044926617489591217 -0.049339993779018154 0.19636092380069514 -0.057257109702001076 0.083818522236801793 0.11025732031419398 0.19784404234964489 -0.04965407283721654 -0.055798422130014791 0.20611429804216086 -0.029965072939403082 0.02009756357188407 0.088202422511496542
leaf_weight=15.643474847078322 6.7782851606607428 5.9884535670280448 304.18299939483404 5859.3047837764025 145.28024796396494 55.469218291342258 6.4335710257291749 3540.2399570643902 31.778717078268528 90.353768162429333 424.85357041656971 26.550335302948952 18.757969312369823 41.301814936101437 89.939718350768089 61.465291611850262 7.7024355903267852 26.2603355422616 14.795691408216952 9.8614433035254532 6.2925989255309132 76.908727146685123 11.308293387293814 7.146488644182682 72.787774793803692 7.8953924253582937 5.4280587881803539 23.052912205457687 25.967607289552689 15.781135655939577
leaf_count=162 74 54 3299 66036 1436 263 66 14300 166 953 4542 120 103 393 920 257 60 258 155 56 61 323 69 54 790 85 30 214 158 113
internal_value=-0.00123542 0.0864647 -0.0477311 -0.0489135 0.00996365 -0.0226197 0.00890918 0.0920453 -0.0198158 -0.0515638 -0.0338865 -0.0032615 0.0434858 -0.00109965 -0.021021 0.0760488 0.0927001 0.00876178 0.0352809 0.0679123 0.0929395 0.0735692 -0.0422257 -0.0140617 -0.0300681 0.0647086 -0.0373322 0.0150282 0.0711551 0.046736
internal_weight=11035.5 3823.54 7211.97 7143.73 259.956 654.122 250.801 3563.59 177.059 6489.6 630.298 205.445 86.6101 60.0598 169.364 68.2436 3547.94 79.4248 53.1644 38.3687 31.9352 82.8972 403.321 99.1379 87.8297 15.0419 118.835 28.481 81.4368 22.0737
internal_count=95570 16501 79069 78738 1979 6347 2050 14522 1602 72391 6355 1813 616 496 1629 331 14360 709 451 296 230 377 4297 998 929 139 1197 244 421 174
is_linear=0
shrinkage=0.05


Tree=12
num_leaves=31
num_cat=0
split_feature=6 35 35 6 9 12 35 12 20 12 37 37 12 35 8 11 2 16 35 27 8 21 3 9 19 5 26 8 19 19
split_gain=16587.3 590.669 394.25 195.748 177.941 170.272 185.805 125.108 84.9852 80.3142 106.563 362.794 79.7779 76.985 74.0501 83.4865 64.5528 60.4264 59.8201 50.3809 47.0946 45.6779 43.2264 57.8739 47.0748 40.4407 40.0263 38.3756 37.4877 81.0156
threshold=-2.0021013412256998 -0.93588934413971503 -3.9036628049779587 -0.9328600646932329 -1.5641587235307357 0.47214390323748801 -0.64697792619610051 -0.30015159575848699 -0.99692588570254126 1.0505464529352644 0.0056476213238934011 0.99995048850461588 1.3694424188888632 -2.5984269070324761 0.6549002232832285 -0.37622824324261345 0.17465014079476279 -0.37050237279513637 0.51630959768991935 -4.8319202527221075 0.41715300562479979 0.52531198049872996 0.30828822986546645 -1.8468339275995611 0.055437336044424856 -0.11816134669702609 10.990416666666667 -0.50036385481258472 0.22020217970602754 0.99996241341658831
decision_type=2 2 2 2 2 2 2 2 2 2 2 2 2 2 2 2 2 2 2 2 2 2 2 2 2 2 2 2 2 2
left_child=1 7 20 5 26 8 21 -1 17 -5 -11 -12 28 16 19 -16 -13 -4 25 -8 -2 27 -9 -24 -25 -17 -3 -7 -6 -30
right_child=2 4 3 9 12 6 14 22 -10 10 11 13 -14 -15 15 18 -18 -19 -20 -21 -22 -23 23 24 -26 -27 -28 -29 29 -31
leaf_value=-0.0561196898160524 -0.055435490591449713 -0.057620035668253314 0.12975814413443507 -0.053367071842843394 -0.047674726023829828 -0.049089539217006532 0.08871485150593611 0.089816043268844181 -0.047032697790761323 -0.048875186351622808 0.15367986078724372 0.10069713390628876 0.051735019539279128 -0.04771431917763503 -0.056192883135053419 -0.021721026051868361 -0.057796928938358777 -0.059565759944465793 -0.056060595317277098 -0.044967362434667341 0.086272854092245915 -0.042570416157056833 0.084581020009476537 -0.029955997096960559 0.073680442441666605 0.14858042464717047 0.079242401207305621 0.086747443058431642 0.14952293986027437 -0.040479291604026107
leaf_weight=14.970232389867304 6.4829385653138152 5.7389199733734122 11.868629060685636 5478.6717298477888 115.22527674585581 5.585873767733573 7.413151152431964 3391.7090822011232 462.65399731695652 411.86622792482376 30.721319459378719 17.713885091245178 32.259392030537128 143.23791344463825 16.690466061234474 4.2285684645175996 10.080151304602621 6.5352996811270705 6.1491009742021552 143.036138035357 61.312237679958344 8.8066277801990491 85.477447390556335 25.601140610873699 19.156112179160118 19.849715560674667 77.271901197731495 75.162887647747993 8.1421190947294253 18.042953550815582
leaf_count=162 74 54 71 64488 1222 51 42 13756 5241 4540 145 91 166 1553 177 42 93 58 65 1525 257 71 347 172 85 133 323 352 37 177
internal_value=-0.00124149 0.0828025 -0.0472614 -0.0484471 0.00956523 -0.0246588 0.00582596 0.0881175 -0.0428412 -0.0514458 -0.0342919 -0.00452095 -0.0192165 -0.0329375 -0.0212775 0.0335655 0.0432156 0.0625286 0.0831269 -0.0383804 0.0727219 0.0655581 0.0887306 0.0604623 0.0144004 0.118673 0.0697805 0.0773508 -0.0354024 0.018601
internal_weight=10721.7 3793.59 6928.07 6860.27 256.681 767.98 286.923 3536.91 481.058 6092.29 613.619 201.753 173.67 171.032 197.367 46.9179 27.794 18.4039 30.2274 150.449 67.7952 89.5554 3521.94 130.235 44.7573 24.0783 83.0108 80.7488 141.41 26.1851
internal_count=95570 16501 79069 78738 1979 7828 2458 14522 5370 70910 6422 1882 1602 1737 1984 417 184 129 240 1567 331 474 14360 604 257 175 377 403 1436 214
is_linear=0
shrinkage=0.05


Tree=13
num_leaves=31
num_cat=0
split_feature=6 35 25 12 35 18 9 6 12 38 36 12 6 20 14 37 27 38 20 16 19 9 35 13 31 1 8 9 20 5
split_gain=15330.9 537.049 527.634 167.375 189.17 192.078 161.353 128.03 113.544 73.3753 86.9769 73.1779 73.1141 81.7797 132.35 142.852 72.4347 63.1519 52.1865 55.1918 47.8742 43.0215 135.473 41.9614 41.0654 70.9506 41.0468 41.0062 39.8927 39.5841
threshold=-2.0021013412256998 -0.93588934413971503 -1.889763056827942 0.94316177824225356 -0.64697792619610051 0.99997593805284424 -1.5641587235307357 -0.27530032326099468 -0.30015159575848699 -0.23844490432534607 -0.13264746940120156 1.3694424188888632 -0.88139193080805611 -0.084655400155484589 48731.363632078093 0.078729091523682973 -0.36890950019664487 0.56893142022688636 -0.99692588570254126 -0.37050237279513637 0.99996241341658831 -0.77227846625914298 -0.52626680709872109 -0.63346132607853511 0.99653230122075509 1.0384790140618121 -0.14927744046191582 1.4756209482982119 -0.62051872114069495 1.729940311264029
decision_type=2 2 2 2 2 2 2 2 2 2 2 2 2 2 2 2 2 2 2 2 2 2 2 2 2 2 2 2 2 2
left_child=1 8 -2 12 5 7 23 17 -1 10 20 -8 13 14 15 -4 -17 -5 19 26 -9 22 28 -3 -6 -26 -16 -10 -20 -23
right_child=2 6 3 4 24 -7 11 9 27 -11 -12 -13 -14 -15 18 16 -18 -19 21 -21 -22 29 -24 -25 25 -27 -28 -29 -30 -31
leaf_value=-0.055793009910715341 0.085378170584372221 -0.043568893015205737 -0.055136563516473586 0.095739045574300574 -0.047618961591061632 -0.055459504545003729 -0.034772209880734616 0.12789612865895272 0.085535937846725738 -0.029005119126885068 -0.05358724157688987 0.048491757132269143 -0.053374857801866599 -0.05305702128366388 -0.060775113676690598 -0.056432952241607874 0.16249802057047455 -0.055794270589290554 0.18287678177227962 -0.058100941009957101 -0.02174687030254862 -0.050804033224438327 -0.053472985075533802 0.077892258335975684 -0.055454875819335225 0.14171337899444136 0.14580493700856298 -0.03073600284830956 -0.037466969623009994 0.056495680703350495
leaf_weight=14.321393229067324 74.644113376736641 7.8551666513085356 16.693172387778759 71.89789667725563 522.39912061393261 91.676535710692406 136.97284718602896 25.097532629966739 3474.5141009539366 79.295966856181622 13.969101801514624 32.684689037501812 5088.9300903305411 330.72273205220699 3.057052120566369 4.470072656869891 24.405660606920719 7.6026389077305785 10.761166982352732 8.6734315529465658 6.7909632325172415 203.35533063858747 27.572388030588627 75.033026866614819 10.807896673679354 7.8961771577596656 11.266656078398228 7.5995614826679221 2.5387597456574431 8.9746981486678106
leaf_count=162 325 43 198 344 6020 1056 1436 126 14300 805 141 166 62595 3872 25 47 161 84 69 85 62 2396 321 334 123 43 62 60 25 84
internal_value=-0.00124538 0.0796183 -0.0468088 -0.0483086 -0.0274265 0.00468584 0.00920364 0.0316285 0.0847043 0.00010899 0.0504525 -0.0187313 -0.0513545 -0.035597 -0.0176511 0.0612964 0.128607 0.0812479 -0.0306762 0.0414402 0.0960282 -0.0372262 0.00974914 0.0663816 -0.0450126 0.0277824 0.101715 0.0852822 0.140816 -0.0462687
internal_weight=10402.5 3748.98 6653.5 6578.86 837.434 296.331 252.546 204.654 3496.44 125.154 45.8576 169.658 5741.42 652.491 321.768 45.5689 28.8757 79.5005 276.199 22.9971 31.8885 253.202 40.8723 82.8882 541.103 18.7041 14.3237 3482.11 13.2999 212.33
internal_count=95570 16501 79069 78744 8804 2618 1979 1562 14522 1134 329 1602 69940 7345 3473 406 208 428 3067 172 188 2895 415 377 6186 166 87 14360 94 2480
is_linear=0
shrinkage=0.05


Tree=14
num_leaves=31
num_cat=0
split_feature=6 35 25 12 37 37 9 12 20 6 20 39 37 12 31 27 31 1 20 22 3 9 13 20 10 9 35 13 5 33
split_gain=14196.9 492.974 491.693 164.365 179.287 462.593 146.175 103.453 76.9575 72.8078 79.2829 119.794 121.087 67.2123 64.157 54.6696 53.9774 75.1257 48.332 50.934 42.1225 53.6719 49.909 41.4462 76.613 40.8176 116.975 37.7595 37.0083 51.5775
threshold=-2.0021013412256998 -0.93588934413971503 -1.889763056827942 0.94316177824225356 1.0000000180025095e-35 0.99995048850461588 -1.5641587235307357 -0.30015159575848699 0.86571616905861537 -0.88139193080805611 -0.084655400155484589 13.53648989779947 0.078729091523682973 1.2184747796280317 0.30406770027245805 -0.35176153666812232 0.99424489723563625 1.0705893645455962 -0.99692588570254126 1.0804128167355815 0.30828822986546645 -1.8468339275995611 -0.22881943581310402 -0.99582154592276184 0.068673202704528105 -0.77227846625914298 -0.52626680709872109 -0.63346132607853511 1.729940311264029 -1.2512850101535113
decision_type=2 2 2 2 2 2 2 2 2 2 2 2 2 2 2 2 2 2 2 2 2 2 2 2 2 2 2 2 2 2
left_child=1 7 -2 9 16 -6 27 -1 -7 10 11 12 -4 -8 -10 -14 23 -18 19 -13 -9 -22 -23 24 -5 26 -20 -3 -27 -30
right_child=2 6 3 4 5 8 13 20 14 -11 -12 18 15 -15 -16 -17 17 -19 25 -21 21 22 -24 -25 -26 28 -28 -29 29 -31
leaf_value=-0.0554853342276624 0.081522484065722156 -0.042086139867382244 -0.054861146707246282 -0.051778447289501019 0.13008290778932471 -0.04345714560548234 -0.034597840412180114 0.083297003321158178 -0.024519680641798047 -0.053050832187789637 -0.052663022329585689 -0.032913034189399115 -0.04522699397217772 0.043222587350918641 0.10033522688202522 0.14290609122010869 -0.055275140846312701 0.12532194448997144 0.12474357692240182 0.11543809712040826 0.077849185500151991 0.057170249585335425 -0.048714088285764616 -0.049661272408343421 0.13868512180156986 -0.050358806194901851 -0.053117581779222545 0.073983212343045585 0.1802875878862249 -0.055854212946523998
leaf_weight=13.696559652686117 74.27445650100708 7.7285816669464102 15.956735573709009 14.073047749698164 59.10855420678854 167.40915609896183 131.31197136640549 3304.3961654901505 22.474648930132389 4869.5606993883848 316.88751320540905 11.944674126803877 4.5330654233694103 35.179434761404991 18.976542800664902 26.065076999366283 11.986491531133654 11.08278541266918 14.225687518715857 11.221247106790541 83.620667949318886 25.070223264396191 20.013008564710617 499.27212455868721 8.4500248804688436 195.10471865534782 26.398725315928459 75.046485811471939 4.2432758286595345 5.0814891234040243
leaf_count=162 325 43 198 171 266 1890 1420 13756 205 62595 3872 117 49 182 101 159 141 58 94 55 347 120 137 5930 42 2396 321 334 28 56
internal_value=-0.00124864 0.0767462 -0.0463737 -0.0478782 -0.0268912 0.00659343 0.00884335 0.0816568 -0.0283547 -0.0509791 -0.0350081 -0.0172348 0.0568026 -0.0181545 0.0326395 0.115034 -0.0433593 0.0314861 -0.0300854 0.0389462 0.082204 0.054141 0.0101669 -0.0466683 0.0196781 -0.0366112 0.0091651 0.063146 -0.045708 0.0516032
internal_weight=10084.4 3696.06 6388.33 6314.06 812.833 267.969 249.266 3446.8 208.86 5501.22 631.662 314.775 46.5549 166.491 41.4512 30.5981 544.864 23.0693 268.22 23.1659 3433.1 128.704 45.0832 521.795 22.5231 245.054 40.6244 82.7751 204.429 9.32476
internal_count=95570 16501 79069 78744 8804 2462 1979 14522 2196 69940 7345 3473 406 1602 306 208 6342 199 3067 172 14360 604 257 6143 213 2895 415 377 2480 84
is_linear=0
shrinkage=0.05


Tree=15
num_leaves=31
num_cat=0
split_feature=6 25 35 6 26 32 8 35 19 8 18 34 27 35 31 26 25 36 3 19 28 20 3 13 14 1 14 21 23 7
split_gain=13260.9 480.302 445.92 154.884 126.43 118.266 94.4779 108.809 77.451 57.3056 56.6847 51.4979 50.6178 58.8192 81.0669 68.4159 62.3426 58.3487 51.9035 50.5189 49.5539 46.4481 38.9034 44.3029 38.844 96.5565 73.6601 52.4053 44.0385 34.4338
threshold=-2.0021013412256998 -1.889763056827942 -1.0161351520000548 -0.95996310079445923 12.032260687379035 1.0745482112494282 -0.23731289571721992 -0.51303405651978795 1.0000000180025095e-35 -0.29125627741078691 0.99997593805284424 0.36165832984008406 -1.097196311402052 -0.66376510477693584 -0.99854256280863696 19.57374053532034 0.65228730899052245 -0.88828620457960372 -6.3136115933241657 0.99996241341658831 0.69754501399573909 -0.99692588570254126 0.30828822986546645 1.2869567522616694 55118.000000000007 -0.48183232655590663 44333.970218252107 0.515286674562076 0.44499415659510816 4.4787788141045217
decision_type=2 2 2 2 2 2 2 2 2 2 2 2 2 2 2 2 2 2 2 2 2 2 2 2 2 2 2 2 2 2
left_child=2 -2 9 6 -4 10 -3 8 11 -1 20 -8 13 14 17 18 -17 -5 -16 -10 -6 -9 -11 -24 25 26 -23 28 -28 -20
right_child=1 3 4 12 5 -7 7 21 19 22 -12 -13 -14 -15 15 16 -18 -19 29 -21 -22 24 23 -25 -26 -27 27 -29 -30 -31
leaf_value=-0.054317272362094382 0.08023220045408265 -0.048411375840490087 -0.0310390097511569 0.26599495355915698 0.078771128148054634 -0.04363161260506123 -0.034111844812808934 0.063411310453398428 0.12528244974351124 0.080645229481560693 -0.051835405093470316 0.043609009124128961 -0.051800124993704691 -0.04689685942309129 0.13340644255044515 0.049847981855649454 0.36410705499636842 -0.054619634441946022 -0.048736446388848706 0.013843199622621625 -0.041752228259996318 -0.037636843461257487 0.060437205478379254 -0.05803682888917594 -0.047526129684294011 -0.052616599259519926 0.15946010802173791 -0.046390142138168111 -0.032863440157865513 0.021160582230949375
leaf_weight=8.0109804123640043 74.299083217978477 256.43019443750381 102.84705441445112 4.5297255888581276 114.84148424118757 34.261878103017807 47.432334430515766 13.331559777259825 26.729666024446487 3242.9872310236096 10.375852957367895 38.705682963132858 5004.6806257665157 249.75248872488737 4.8572374507784835 9.0693987980484945 1.9106163606047619 2.0664506033062926 82.370546251535416 16.41562382131815 9.2127349078655225 16.120724752545357 121.47362717986107 8.4390774667263013 159.20473501086235 53.405462048947811 19.126386590301998 5.2063696980476371 3.5250994116067877 22.414916999638081
leaf_count=75 325 3129 985 32 588 335 492 93 122 13747 115 275 66474 3274 24 69 25 27 1058 140 93 194 551 87 1987 663 120 57 36 211
internal_value=-0.00107289 -0.046119 0.0743021 -0.047674 0.0126558 0.0392953 -0.0247294 -0.00951725 0.028201 0.0792532 0.0604307 0.000811628 -0.0504693 -0.0328008 -0.00512796 -0.0144615 0.104532 0.165553 -0.0263779 0.0828828 0.0698206 -0.0275831 0.0795705 0.0527412 -0.0323109 -0.00743677 0.0474274 0.0966523 0.12953 -0.0337846
internal_weight=9764.03 6111.58 3652.45 6037.29 271.539 168.692 655.634 399.204 129.283 3380.91 134.43 86.138 5381.65 376.971 127.219 120.623 10.98 6.59618 109.643 43.1453 124.054 269.92 3372.9 129.913 256.589 97.384 43.9786 27.8579 22.6515 104.785
internal_count=95403 78827 16576 78502 2116 1131 7308 4179 1029 14460 796 767 71194 4720 1446 1387 94 59 1293 262 681 3150 14385 638 3057 1070 407 213 156 1269
is_linear=0
shrinkage=0.05


Tree=16
num_leaves=31
num_cat=0
split_feature=9 25 12 12 35 37 37 33 19 19 35 2 25 23 12 35 37 22 38 34 15 25 32 9 21 27 5 27 8 14
split_gain=11670.3 612.784 574.915 281.682 254.549 182.986 151.481 99.5525 73.5028 93.8058 73.4357 57.6896 54.0894 51.4372 81.4189 99.3489 82.247 46.3711 46.1919 46.1223 45.9574 45.4534 70.7603 44.404 35.5176 32.1798 31.0247 30.5378 29.6067 42.743
threshold=-1.5641587235307357 -1.6222128372696356 -0.08311660796806343 0.94316177824225356 -0.66376510477693584 1.0000000180025095e-35 0.99995048850461588 -0.025901387407073945 0.027151785984455903 0.99996241341658831 0.17689054316577763 0.19151543612865204 -1.3017596677514927 -1.8762678314406245 0.20881555346054501 -0.096010314199799093 1.0000000180025095e-35 -1.4984637877334761 -1.8547977272397804 -0.20084133176555555 0.53611570878082493 0.54342562381380566 0.67209944172051683 1.5093236215002339 -0.28364513229447025 -1.3962030002581172 6.1714642949215843 -2.9699018435827607 0.068688395484386308 122485.50000000001
decision_type=2 2 2 2 2 2 2 2 2 2 2 2 2 2 2 2 2 2 2 2 2 2 2 2 2 2 2 2 2 2
left_child=2 7 12 13 5 8 -7 23 -5 -10 28 17 -1 14 -3 16 18 -8 -16 -18 -6 -22 24 -2 -23 -11 -21 -13 29 -4
right_child=1 3 10 4 20 6 11 -9 9 25 -12 27 -14 -15 15 -17 19 -19 -20 26 21 22 -24 -25 -26 -27 -28 -29 -30 -31
leaf_value=0.083007007991586029 0.08535940296476606 -0.048392102467848114 -0.062052943028996832 -0.051571380556585868 -0.048744254558539118 0.099703779782053178 0.090868584705394995 -0.037172321351111079 0.11827314795905725 0.057340122923460614 -0.025170261024437708 0.086647080647708083 -0.045103701224963988 -0.050723044928925015 0.14981643433205352 -0.054540647471747784 0.041430087607981475 -0.00032061458457338231 -0.051667172007882414 0.28330667925733644 -0.048376786591720795 -0.030051048055703862 -0.038759752158434087 -0.055415228773878847 0.093505568164586939 -0.04324400270833504 0.11971055988942506 -0.051613458888932942 0.077608968130052178 0.082400557722680803
leaf_weight=8.9096601381897909 112.81637002527714 100.35591410845518 9.2836809381842631 96.407488122582436 404.08462134003639 81.752810016274452 25.297027409076691 22.116104744374752 17.005293264985085 10.368997253477572 17.602239735424519 4.4708981513977042 109.47628902643919 4884.2639882788062 3.7642108723521224 22.268612198531628 5.9054589271545437 31.056504383683205 11.644299328327177 6.7027593776583654 50.987091481685638 7.5120285972952834 31.710522837936878 5.8942778855562201 25.767444655299187 34.110546618700027 5.1053953990340233 37.422180496156216 3258.482081502676 11.420600943267344
leaf_count=49 487 1376 82 1185 5260 350 136 236 76 72 196 24 1458 67396 23 296 41 229 136 54 642 89 330 71 137 383 25 393 14110 61
internal_value=-0.00107474 -0.0428516 0.072796 -0.0453127 -0.0188288 0.0149592 0.0494208 0.0602243 -0.0243274 0.0183908 0.0766835 0.0075794 -0.0354622 -0.0498211 -0.0215343 0.0271262 0.0820323 0.0406141 -0.00244588 0.155517 -0.0407814 -0.0130373 0.0146878 0.0783696 0.0656157 -0.019796 0.212574 -0.0368581 0.0772303 0.0176284
internal_weight=9453.97 6038.79 3415.17 5897.96 857.953 337.892 179.999 140.827 157.892 61.4848 3296.79 98.2466 118.386 5040.01 155.747 55.3907 33.1221 56.3535 15.4085 17.7136 520.062 115.977 64.99 118.711 33.2795 44.4795 11.8082 41.8931 3279.19 20.7043
internal_count=95403 79447 15956 78653 9306 2848 1132 794 1716 531 14449 782 1507 69347 1951 575 279 365 159 120 6458 1198 556 558 226 455 79 417 14253 143
is_linear=0
shrinkage=0.05


Tree=17
num_leaves=31
num_cat=0
split_feature=6 25 35 6 9 12 35 19 12 35 18 27 19 12 20 1 4 8 25 14 0 33 16 13 9 25 8 15 12 9
split_gain=11483.5 422.278 381.55 155.223 128.669 120.423 107.63 74.8434 70.0713 91.0863 84.531 71.1329 69.6623 66.0932 58.6561 54.3087 43.914 41.662 51.0225 39.7043 38.8278 61.0899 37.5748 35.993 33.0313 85.8646 38.1666 32.5929 31.9764 31.9624
threshold=-2.0021013412256998 -1.889763056827942 -1.0161351520000548 -0.9328600646932329 -1.5641587235307357 0.49526397218533053 -0.23328862173933426 0.016009124917142552 1.1047483845838324 -0.75069591657275658 0.99997593805284424 0.10453001745875022 0.99996241341658831 -0.2542151433693422 -0.99692588570254126 -0.99011174676964775 -0.18625589688099986 -0.50036385481258472 0.99043014012835029 16752.545415080163 -10.901940904054321 -1.5113821597552712 -0.37050237279513637 -0.63346132607853511 -0.93789490910261131 -0.45298139280534944 0.9403976557048046 1.248728420065859 1.3694424188888632 0.37015013134503322
decision_type=2 2 2 2 2 2 2 2 2 2 2 2 2 2 2 2 2 2 2 2 2 2 2 2 2 2 2 2 2 2
left_child=2 -2 13 5 23 14 17 28 20 10 11 19 -9 -1 22 16 -8 -7 -19 -10 21 -5 -3 -4 25 -16 -27 -28 -6 -21
right_child=1 3 4 8 7 6 15 12 9 -11 -12 -13 -14 -15 24 -17 -18 18 -20 29 -22 -23 -24 -25 -26 26 27 -29 -30 -31
leaf_value=-0.042294006889680262 0.074835255758022426 0.095714866328775947 -0.043973378687981797 0.21281172667449724 -0.045374561680201431 -0.040036169624043702 0.14555341714873918 0.11772572364675354 -0.055894854478357861 -0.047898418907939638 -0.053413994654419206 -0.040415100033841488 -0.014268893193804911 0.075139427023829836 0.14341733677105392 -0.038091465138700799 -0.044842345443769735 0.081829820282444635 0.0099821134187730795 0.090575329273979377 -0.051996018358216989 -0.054095984490909604 -0.057960257299716912 0.066878944882335242 -0.051030204055611421 -0.048280199783419742 -0.054224022198356515 0.21465054521525107 0.021844995524453709 0.025279904374449731
leaf_weight=12.026167169213293 72.277919948101044 12.48697289824486 7.9790940284728995 3.5646752566099167 103.68202772736549 14.524756073951719 7.7134222611784935 17.971279472112656 8.5472664907574636 310.15326063334942 55.344306237995625 33.091697715222836 22.524603143334389 3229.7276828363538 7.8793237656354895 116.43300849199295 4.986247815191744 56.76885424554348 43.756217837333679 37.391489036381245 4432.6633333489299 5.3784221485257131 5.8370466604828826 89.007610462605953 323.57892914116383 45.089484088122845 1.9349046424031247 2.6997083649039268 21.332120887935162 37.576596312224865
leaf_count=142 325 67 46 20 1272 164 42 76 97 4182 762 376 206 14318 58 1449 64 309 319 205 64798 77 60 402 4515 590 27 18 114 303
internal_value=-0.00107492 -0.0452433 0.0700089 -0.0468022 0.0120292 -0.0237119 0.00395059 -0.014768 -0.0498209 -0.0317161 -0.00252766 0.0216241 0.0443077 0.0747038 -0.0406195 -0.0273826 0.0707987 0.0391191 0.0505562 0.0462062 -0.051786 0.0522921 0.0467622 0.0577591 -0.0448201 -0.00993556 -0.034236 0.102398 -0.0339044 0.057847
internal_weight=9143.93 5639.68 3504.25 5567.4 262.497 643.689 244.183 165.51 4923.71 482.105 171.951 116.607 40.4959 3241.75 399.506 129.133 12.6997 115.05 100.525 83.5154 4441.61 8.9431 18.324 96.9867 381.182 57.6034 49.7241 4.63461 125.014 74.9681
internal_count=95403 78827 16576 78502 2116 7682 2347 1668 70820 5925 1743 981 282 14460 5335 1555 106 792 628 605 64895 97 127 448 5208 693 635 45 1386 508
is_linear=0
shrinkage=0.05


Tree=18
num_leaves=31
num_cat=0
split_feature=9 25 12 12 35 18 33 2 27 35 31 23 12 35 34 29 25 15 20 18 25 12 9 21 23 36 31 8 14 13
split_gain=10129.8 540.078 488.484 265.38 223.651 200.352 87.9133 72.2491 62.2087 61.7558 51.5122 51.4294 75.8583 86.1365 56.7731 58.9293 47.3911 44.2933 43.4859 42.7474 42.2383 64.688 38.454 35.3198 32.4019 30.8176 29.4105 27.7682 37.3137 26.843
threshold=-1.5641587235307357 -1.6222128372696356 -0.08311660796806343 0.94316177824225356 -0.66376510477693584 0.99997593805284424 -0.025901387407073945 0.32842661059346584 -1.097196311402052 0.17689054316577763 0.51500690674655869 -1.8762678314406245 0.20881555346054501 -0.096010314199799093 -0.20084133176555555 0.11523307255953506 -1.3017596677514927 0.53611570878082493 -0.99582154592276184 0.26345753130237476 0.54342562381380566 1.3694424188888632 1.5093236215002339 -0.28364513229447025 2.2360066678859183 0.98464447600851979 0.99890523636471562 0.068688395484386308 122485.50000000001 -0.89237787148076275
decision_type=2 2 2 2 2 2 2 2 2 2 2 2 2 2 2 2 2 2 2 2 2 2 2 2 2 2 2 2 2 2
left_child=2 6 16 11 5 7 22 10 -9 27 25 12 -3 14 -14 -16 -1 -6 -10 -20 -19 -22 -2 -23 -12 -5 -11 28 -4 -25
right_child=1 3 9 4 17 -7 -8 8 18 26 24 -13 13 -15 15 -17 -18 20 19 -21 21 23 -24 29 -26 -27 -28 -29 -30 -31
leaf_value=0.076170608693043151 0.080578203732209933 -0.047488302808885635 -0.062110021622693939 0.07589435297129625 -0.047862159375054884 -0.054701713458425186 -0.036650528716142702 0.062834688692242097 0.15484349318161381 -0.055183504959520305 -0.048709041686602422 -0.050025374666443738 -0.01062200473397361 -0.054102119603693266 -0.056234061912153216 0.16206067086238665 -0.04407887081319329 -0.04755430274266953 -0.04697328365401704 0.11169247775172937 -0.041752085495778274 -0.036746498063415206 -0.055065965391166316 -0.062686947883035526 0.065843591073078855 -0.044066349863685766 0.11371501713556076 0.073462913235793945 0.073875710698965424 0.10224792029757089
leaf_weight=8.9122343435883504 108.60221298784018 92.359154403209686 8.8771084025502223 121.23802304267883 373.51086601614952 80.248931750655174 21.27882431447506 28.632016204297543 3.1696561947464934 13.584667041897776 16.60828268527985 4485.2041108384728 12.134145528078077 20.407869227230549 3.7351772114634541 17.943350911140442 101.59997341781855 47.32307405769825 56.664212927222252 4.5888302102684966 28.034176483750343 7.4322318062186232 5.488996483385562 2.7367593646049526 9.8248084485530836 5.6011172458529463 3.1809872686862937 3112.2590653374791 11.684330798685549 25.014673568308353
leaf_count=49 487 1376 82 649 5260 1094 236 166 18 183 154 67396 120 296 43 116 1458 642 649 21 338 89 71 19 51 46 13 14110 61 110
internal_value=-0.00107581 -0.0420002 0.0689427 -0.0444539 -0.018062 0.0139121 0.0566509 0.0362652 0.00151221 0.0725681 0.0573645 -0.0490729 -0.0199285 0.0270169 0.0759768 0.124449 -0.0343814 -0.039634 -0.0257419 -0.0350867 -0.0118315 0.0149095 0.0740523 0.0600572 -0.00613144 0.070597 -0.023138 0.0730803 0.0151658 0.0859826
internal_weight=8837.88 5577.78 3260.1 5442.41 810.628 326.576 135.37 246.327 93.0547 3149.59 153.272 4631.78 146.58 54.2205 33.8127 21.6785 110.512 484.052 64.4227 61.253 110.541 63.2178 114.091 35.1837 26.4331 126.839 16.7657 3132.82 20.5614 27.7514
internal_count=95403 79447 15956 78653 9306 2848 794 1754 854 14449 900 69347 1951 575 279 159 1507 6458 688 670 1198 556 558 218 205 695 196 14253 143 129
is_linear=0
shrinkage=0.05


Tree=19
num_leaves=31
num_cat=0
split_feature=6 25 35 6 12 26 4 32 12 35 37 37 27 12 9 20 12 9 18 2 20 38 36 7 19 16 9 25 26 4
split_gain=10002 372.687 331.954 155.02 111.39 110.516 94.6364 87.7978 68.7421 93.1496 88.8645 109.476 62.2023 58.4098 57.2722 57.2642 53.8517 45.2887 41.8311 40.512 39.8954 39.0915 39.0699 36.6091 68.5352 33.6546 33.2071 72.7197 44.0151 37.1799
threshold=-2.0021013412256998 -1.889763056827942 -1.2109447495677623 -0.9328600646932329 0.49526397218533053 12.032260687379035 -0.19417750337517278 1.1040100314677526 0.94316177824225356 -0.66376510477693584 0.0056476213238934011 0.99995048850461588 0.56458218587970399 1.1374353244451398 0.18795975082090857 -0.99692588570254126 1.4310349775805584 1.1860397479300666 0.99997593805284424 0.15008863730151448 0.86571616905861537 0.48672209842709607 1.0371373063337483 2.1657313211393681 0.99996241341658831 -0.37050237279513637 -0.93789490910261131 -0.45298139280534944 20.702000905311472 -0.52677727479231262
decision_type=2 2 2 2 2 2 2 2 2 2 2 2 2 2 2 2 2 2 2 2 2 2 2 2 2 2 2 2 2 2
left_child=2 -2 17 4 15 13 12 14 -5 10 23 -12 18 -4 22 25 -8 -1 -6 20 -13 -18 -7 -10 -25 -3 27 -17 -29 -30
right_child=1 3 5 8 6 7 16 -9 9 -11 11 19 -14 -15 -16 26 21 -19 -20 -21 -22 -23 -24 24 -26 -27 -28 28 29 -31
leaf_value=0.071619610784288065 0.070348668867917089 0.091992294520735582 -0.049118977793325955 -0.05149329087389018 0.065795356287474294 0.07338831136625662 -0.051067396445130267 -0.036308519382562736 -0.052771504817903096 -0.048156829589815507 0.1099136513788681 -0.046801377005123511 -0.050788917536657957 0.03261426698067578 -0.05623007425072505 0.12700386548147766 0.051787378176835687 -0.046800608914892787 -0.025492245875990978 -0.047950961443500945 0.073351841626311046 -0.05439347919259313 -0.012478346494812933 0.16219935525189838 -0.025578153274389788 -0.057203127291874968 -0.050355719375681632 -0.052989325368166952 0.1805143762881028 -0.054484349693559475
leaf_weight=3043.9550537765026 69.780158773064613 12.679482556879522 75.584532640874386 3959.8677832521498 83.976320073008537 121.15215417742729 77.847621314227581 31.87644162774086 82.804232206195593 360.73737347871065 29.569739371538162 10.38431763648987 17.236096851527691 30.752440437674522 10.683151245117186 8.4384036064147931 28.668565161526203 8.0952683426439744 14.754002071917055 30.592270962893963 20.640895985066891 12.42505022883415 14.873867623507975 6.0303807556629208 25.020364485681057 5.385213501751422 297.28220006078482 39.463713996112347 4.0778984129428864 2.8660920187830916
leaf_count=14170 325 67 914 63180 553 632 1051 339 1232 5371 129 116 230 162 124 58 169 91 173 374 109 171 144 29 280 60 4515 569 26 40
internal_value=-0.00107386 -0.0444251 0.0664871 -0.045986 -0.0222176 0.0148735 0.00471287 0.0389026 -0.049164 -0.0328614 -0.00595155 0.0308293 0.0368532 -0.0254819 0.0552442 -0.0393065 -0.0266236 0.0713055 0.0521536 -0.00712268 0.0331359 0.0196826 0.0639992 -0.0354096 0.0108902 0.0475161 -0.0437606 -0.00801303 -0.0325634 0.08352
internal_weight=8537.5 5200.53 3336.97 5130.75 605.101 284.923 234.908 178.586 4525.65 565.78 205.042 91.1872 115.966 106.337 146.709 370.193 118.941 3052.05 98.7303 61.6175 31.0252 41.0936 136.026 113.855 31.0507 18.0647 352.128 54.8461 46.4077 6.94399
internal_count=95403 78827 16576 78502 7682 2315 2347 1239 70820 7640 2269 728 956 1076 900 5335 1391 14261 726 599 225 340 776 1541 309 127 5208 693 635 66
is_linear=0
shrinkage=0.05


Tree=20
num_leaves=31
num_cat=0
split_feature=6 25 35 12 37 37 18 37 6 19 33 6 34 27 20 14 31 1 14 12 8 3 20 10 3 31 20 25 12 38
split_gain=9314.22 328.617 325.337 146.677 138.53 304.451 104.474 101.487 110.259 73.823 67.7916 64.5954 62.3689 67.1315 60.7774 88.502 60.3334 60.7753 51.8073 50.3958 39.8205 38.594 36.9589 53.4394 36.2674 69.9971 35.5671 33.6499 66.1946 41.6141
threshold=-2.0021013412256998 -1.6222128372696356 -1.3884849694116377 0.94316177824225356 1.0000000180025095e-35 0.99995048850461588 0.99997593805284424 0.99995048850461588 -4.783047527033113 0.99996241341658831 -0.025901387407073945 -0.9328600646932329 0.19551844315665776 0.10453001745875022 -0.24441119194204947 48731.363632078093 0.99424489723563625 1.0705893645455962 129677.77759206884 0.48400070795677913 -0.10935832733630053 -0.068297710835142925 -0.99582154592276184 0.068673202704528105 2.0050194366018252 -0.99815913558497327 -0.97450892865137206 -0.081254174780463789 -0.05644839251476854 0.34187233274466428
decision_type=2 2 2 2 2 2 2 2 2 2 2 2 2 2 2 2 2 2 2 2 2 2 2 2 2 2 2 2 2 2
left_child=2 10 -1 11 16 -6 7 9 -9 -4 -2 14 -7 20 15 19 22 -18 -11 -3 -14 -10 23 -5 -13 -26 -27 28 -17 -30
right_child=1 3 6 4 5 12 -8 8 21 18 -12 24 13 -15 -16 27 17 -19 -20 -21 -22 -23 -24 -25 25 26 -28 -29 29 -31
leaf_value=0.069920121522925774 0.07675255100815967 -0.054114915710221347 0.089658559731505827 -0.053889845524967388 0.1145480309021672 -0.05099932346202013 -0.05081651189790596 0.065472760531489232 0.025755264245065503 -0.048492318240833249 -0.031923575517250911 -0.051712420405919141 -0.02739525159538669 -0.044134713742684212 -0.047946220016152813 -0.043500508223719037 -0.053892308110700421 0.12096510753678634 0.082512123082392599 0.11129586993663212 0.074898170618047308 -0.04871500830344664 -0.047889345633355555 0.10650191738841873 0.16191548754778637 0.15318975135137253 -0.046626292679838241 -0.034930509488857966 0.14329511948406126 -0.012368187008088035
leaf_weight=2950.8459343649447 66.912154641002417 5.9472296610474613 79.703943155705929 11.21851444989443 51.619559332728386 95.10812808200717 49.858909219503403 43.669717490673065 22.991997390985489 20.348062478005886 18.26746679469943 3725.3889225870371 13.10385939106345 35.159508645534515 256.90576139464974 21.103510290384293 8.8681966811418551 11.303117610514162 11.995734274387358 20.399304881691933 34.724991377443075 71.504514183849096 394.52640354260802 9.6692947596311551 5.5498709566891185 2.4163621775805977 28.424243677407503 147.26607507839799 11.687628228217365 6.7864870354533187
leaf_count=14153 319 89 350 174 238 1333 618 226 167 211 208 62229 161 479 3907 310 134 58 62 111 232 790 5886 46 42 38 454 2049 78 93
internal_value=-0.000961062 -0.0439189 0.0648761 -0.0456125 -0.0237884 0.00762928 0.0152748 0.0284445 -0.000231613 0.063805 0.0534461 -0.0490435 -0.0233601 0.00831562 -0.0315688 -0.0118332 -0.0403572 0.0440901 9.48801e-05 0.0739575 0.0468724 -0.0305956 -0.0444577 0.020358 -0.0512272 -0.00155384 -0.0309707 -0.0239304 0.0170003 0.086112
internal_weight=8233.28 4982.36 3250.92 4897.18 665.302 229.716 300.073 250.214 138.166 112.048 85.1796 4231.88 178.096 82.9884 470.096 213.19 435.586 20.1713 32.3438 26.3465 47.8289 94.4965 415.414 20.8878 3761.78 36.3905 30.8406 186.844 39.5776 18.4741
internal_count=95245 78668 16577 78141 8741 2443 2424 1806 1183 623 527 69400 2205 872 6637 2730 6298 192 273 200 393 957 6106 220 62763 534 492 2530 481 171
is_linear=0
shrinkage=0.05


Tree=21
num_leaves=31
num_cat=0
split_feature=9 25 12 12 18 35 18 2 12 35 27 23 12 35 34 20 36 18 29 27 31 31 23 9 12 25 19 2 19 15
split_gain=8261.89 477.636 333.84 260.862 205.143 178.854 101.143 70.3495 64.9362 51.5718 50.9866 50.7237 76.7033 72.0627 48.2164 47.3185 40.116 37.8873 36.6467 35.6596 51.4043 34.4942 36.3643 26.7371 51.7504 43.6576 40.6468 34.6628 26.0098 25.8544
threshold=-1.6436181477238339 -1.6222128372696356 -0.17208603074190756 0.94316177824225356 0.99997593805284424 -0.40169320412460363 0.0041204394574440003 0.2592511457321941 -0.05644839251476854 0.17689054316577763 -0.75645403233512665 -1.8762678314406245 0.20881555346054501 -0.07848075749657589 -1.3169259885772504 -0.99427983752195148 0.96874276434900197 0.13610855712327408 -1.5099165308269373 -0.69990835878937718 0.80873369960179009 0.51500690674655869 2.4205911741683233 -1.0272412047514317 0.16166268781932905 0.22916172247305597 0.075233307210812311 0.36896007108612955 0.99996241341658831 0.28793023998566053
decision_type=2 2 2 2 2 2 2 2 2 2 2 2 2 2 2 2 2 2 2 2 2 2 2 2 2 2 2 2 2 2
left_child=2 8 -1 11 5 7 19 16 -2 -4 -9 12 -3 14 -14 -12 21 -17 -16 20 -7 -5 -23 24 -13 27 -27 -26 -28 -10
right_child=1 3 9 4 -6 6 -8 10 29 -11 15 23 13 -15 18 17 -18 -19 -20 -21 -22 22 -24 -25 25 26 28 -29 -30 -31
leaf_value=-0.037848716436914578 -0.043741103792230299 -0.048010408632628343 0.068401598510145573 0.063877474597138426 -0.053897987218667287 -0.029180576173767715 0.19064283246403343 0.046166249137974957 0.06985004241087539 -0.022657953774840166 0.12377803529795246 -0.045911334573700863 -0.051665587668142825 -0.053554743350218315 -0.056065223263498359 -0.043458328100381055 -0.048954204819243514 0.10623408873780914 0.11834332791226576 -0.045779545320414838 0.098516061853329423 -0.051167469982796011 0.079179486295898799 -0.050030351804786613 0.12382478696710655 -0.052361809398776354 0.10456695007510475 -0.039287882488035525 -0.016309759852380087 -0.040531995663429771
leaf_weight=76.602493636310101 15.588631600141523 82.555056791752577 2869.1101980730891 138.4429626762867 241.45635276660323 27.784196004271507 5.013596460223197 37.657333895564079 114.44703220576048 15.633668206632136 5.0447360686957827 212.01299949735403 6.6332642026245585 17.68431456387043 3.4144377745687988 70.178456615656614 9.951948191970585 4.4979370534420005 25.546940445899963 181.39456977695227 11.001582451164721 14.308787852525713 8.5467760264873487 3675.750671710819 11.349149182438849 31.501875314861536 8.6151507645845413 4.5680619552731505 9.2057373002171516 5.5627626776695243
leaf_count=1196 208 1394 14164 814 3823 372 27 244 571 204 33 3545 85 292 41 912 96 21 155 2793 81 157 45 63171 74 442 36 65 118 66
internal_value=-0.00096207 -0.0402911 0.0651724 -0.0428819 -0.015885 0.00197816 -0.0314186 0.028035 0.0522631 0.0679081 -0.00178124 -0.0478687 -0.0178263 0.0289437 0.069931 -0.0244299 0.0484716 -0.034442 0.0977812 -0.036475 0.00704056 0.0544827 -0.00242458 -0.048901 -0.0339284 0.00501315 -0.0182224 0.0770133 0.0421257 0.0647336
internal_weight=7941.06 4979.72 2961.35 4844.12 755.279 513.823 225.194 288.629 135.598 2884.74 117.378 4088.84 135.834 53.279 35.5946 79.7211 171.25 74.6764 28.9614 220.18 38.7858 161.299 22.8556 3953 277.253 65.24 49.3228 15.9172 17.8209 120.01
internal_count=95245 79681 15564 78836 9418 5595 3273 2322 845 14368 1210 69418 1967 573 281 966 1112 933 196 3246 453 1016 202 67451 4280 735 596 139 154 637
is_linear=0
shrinkage=0.05


Tree=22
num_leaves=31
num_cat=0
split_feature=6 35 25 12 37 37 18 37 6 19 6 34 27 20 14 37 31 0 14 3 3 33 8 32 13 12 20 22 5 33
split_gain=8163.8 331.919 269.304 139.574 129.085 264.501 110.797 88.2969 91.9436 77.2151 61.6754 57.9962 61.3201 54.9643 81.4218 70.0029 53.4269 48.75 44.2178 37.8255 35.257 56.7598 57.8705 35.0551 33.5009 32.8242 31.1873 38.0509 32.8564 32.5335
threshold=-1.874905964948574 -1.3884849694116377 -1.889763056827942 0.94316177824225356 1.0000000180025095e-35 0.99995048850461588 0.99997593805284424 0.99995048850461588 -4.783047527033113 0.99996241341658831 -0.9328600646932329 0.19551844315665776 0.10453001745875022 -0.084655400155484589 48731.363632078093 0.078729091523682973 0.99424489723563625 1.1569017069483205 129677.77759206884 -0.22802131856670232 2.0050194366018252 -0.71956046999598533 -0.37997470981807974 0.95770378315850502 0.09634695841007497 -0.34932531051245946 -0.99692588570254126 1.118565935039844 1.729940311264029 -1.1945794492680053
decision_type=2 2 2 2 2 2 2 2 2 2 2 2 2 2 2 2 2 2 2 2 2 2 2 2 2 2 2 2 2 2
left_child=1 25 -2 10 16 -6 7 9 -9 -3 13 -7 23 14 15 -4 -5 -18 -11 -10 -12 22 24 -13 -22 -1 27 -16 -28 -30
right_child=2 6 3 4 5 11 -8 8 19 18 20 12 -14 -15 26 -17 17 -19 -20 -21 21 -23 -24 -25 -26 -27 28 -29 29 -31
leaf_value=-0.055047407478760205 0.062189969464665311 0.085476708397187837 -0.053432260463666892 -0.043932112118068564 0.10672867046167678 -0.050412876280237884 -0.050060483283679048 0.062014986546325528 0.028626079054926003 -0.043864887868838458 -0.051218417854786161 0.065538277085411198 -0.045111446114921211 -0.049738615574611081 -0.037528689812231564 0.097502123074626856 -0.053919398414984665 0.10480476225079816 0.073070661940519768 -0.044206662958228338 0.10871044518346545 -0.053533716274839299 -0.037709328982769824 -0.040205101609772316 0.35175919940571965 0.067306732081411969 -0.03905314236903968 0.099779817201906443 0.15166140506492423 -0.053844469462869707
leaf_weight=5.492279887199401 59.421163275837898 81.950647491961718 10.806424662470816 386.02050352841616 51.653128407895565 88.737952884286642 57.248413324356079 41.753474947065115 23.484718538820744 23.028790947049856 3414.8538390435278 38.34331589192152 32.298307288438082 196.2341080494225 10.005126912146808 26.570751886814833 8.1878758296370524 11.822686791419981 12.457621488720177 73.993883483111858 6.2899553403258306 21.107772022485733 6.3828511498868457 9.8513099290430528 1.8303488008677957 2784.4145214483142 158.63941396772861 10.178619831800459 4.5871031880378723 3.3195123970508567
leaf_count=76 299 371 183 6125 239 1335 795 226 177 259 62311 272 476 3275 112 169 130 64 69 864 52 353 110 124 22 14122 2509 48 27 51
internal_value=-0.000960864 0.0615812 -0.0435576 -0.0449547 -0.0230684 0.00769269 0.0128369 0.0268657 -6.75568e-05 0.0587975 -0.0484994 -0.0225353 0.00819772 -0.0304167 -0.0134979 0.0538642 -0.0398026 0.0398584 -0.00281428 -0.0266597 -0.0507023 -0.00120875 0.0749446 0.0439236 0.163495 0.0670659 -0.0269816 0.0317157 -0.0340952 0.0653818
internal_weight=7660.97 3103.82 4557.14 4497.72 626.915 220.884 313.918 256.669 139.232 117.437 3870.81 169.231 80.4929 420.341 224.107 37.3772 406.031 20.0106 35.4864 97.4786 3450.46 35.6109 14.5032 48.1946 8.1203 2789.91 186.73 20.1837 166.546 7.90662
internal_count=95245 16959 78286 77987 8765 2446 2761 1966 1267 699 69222 2207 872 6374 3099 352 6319 194 328 1041 62848 537 184 396 74 14198 2747 160 2587 78
is_linear=0
shrinkage=0.05


Tree=23
num_leaves=31
num_cat=0
split_feature=6 35 25 6 18 37 6 19 8 27 20 4 27 33 9 35 4 34 26 33 21 14 20 29 9 5 7 38 20 14
split_gain=7646.52 313.11 253.895 112.282 103.152 81.1789 84.8057 71.3999 63.848 55.5299 63.4137 66.1217 55.2291 55.1404 53.4496 52.3701 57.2033 73.7605 85.5505 47.4151 45.7019 40.1924 38.8751 30.6824 30.4755 29.5542 29.4112 25.5729 31.3174 27.9713
threshold=-1.874905964948574 -1.3884849694116377 -1.6222128372696356 -0.9328600646932329 0.99997593805284424 0.99995048850461588 -4.783047527033113 0.99996241341658831 -0.19353340086792256 0.56458218587970399 -0.26138204010581007 -0.14177783907646196 -1.097196311402052 -0.025901387407073945 0.20479495296931827 -0.54073516021269874 0.069817109328691077 0.3206932794081454 20.799583333333338 -0.68802074235329425 0.51277792630612073 129677.77759206884 -0.99788972672103282 7.1950790789132659 1.6815829226152108 0.84603753356735445 4.4787788141045217 -0.62455509598558889 -0.077879099487985132 58279.710273614568
decision_type=2 2 2 2 2 2 2 2 2 2 2 2 2 2 2 2 2 2 2 2 2 2 2 2 2 2 2 2 2 2
left_child=1 24 13 8 5 7 -7 -3 -4 10 11 14 15 -2 20 16 17 -5 19 -19 -10 -9 -13 -24 -1 26 -12 -8 29 -29
right_child=2 4 3 12 -6 6 27 21 9 -11 25 22 -14 -15 -16 -17 -18 18 -20 -21 -22 -23 23 -25 -26 -27 -28 28 -30 -31
leaf_value=0.066038932126460503 0.071701594829794366 0.082878675133461338 -0.044032004404231315 -0.037587504418242268 -0.049538741856052441 0.060127563940094275 -0.048343336803255484 -0.042899260765328566 0.094912138419796482 -0.050916152921622493 -0.042170139193034903 0.083480901702000149 -0.049417068667456619 -0.030937627131100567 -0.037089118977156894 -0.043816674706783673 -0.034766792655640526 0.11984765775634117 0.37472550825633744 -0.0031679675053251383 -0.040343905775915671 0.068870689000524413 -0.048314141114317213 0.16315823258930917 -0.049852070307069875 0.036492918914787363 0.043813210768353754 0.07829803714255329 -0.052971818338507962 -0.029180021057082468
leaf_weight=2698.0921746715903 57.525862749665976 80.334445558488369 205.19323529675603 20.579266451299191 55.015493612736464 40.931980170309544 54.478840533643961 22.386280603706837 52.292205352336168 59.674513839185238 91.451454780995846 7.9007501713931552 3513.6356992870569 16.938177384436131 11.962285548448561 170.33823477104306 56.806014571338892 16.326313547790054 2.3318949043750754 15.057578928768633 7.0924849100410929 12.55383589491248 36.42009985819459 1.7999987974762905 5.6846819035708895 18.090867325663567 11.159004669636486 15.978170566260816 15.185747079551218 9.7460550926625711
leaf_count=14127 293 371 3350 350 795 226 676 259 334 986 1431 53 65808 205 178 3083 878 106 34 198 101 69 605 17 71 189 87 92 181 92
internal_value=-0.000960842 0.0603651 -0.0431819 -0.0447678 0.0124802 0.0260416 -7.55279e-05 0.0569271 -0.0225707 -0.00778536 0.00302128 0.0291739 -0.04771 0.0483545 0.0593348 -0.0263977 0.000308753 0.0370064 0.0825367 0.0608264 0.0787581 -0.00274079 -0.0174836 -0.0383547 0.0657953 -0.0224307 -0.0328194 -0.0259091 0.00396609 0.0375782
internal_weight=7382.96 3010.39 4372.58 4298.11 306.611 251.595 136.321 115.275 503.037 297.844 238.169 117.468 3795.08 74.464 71.347 281.439 111.101 54.2951 33.7158 31.3839 59.3847 34.9401 46.1208 38.2201 2703.78 120.701 102.61 95.3888 40.91 25.7242
internal_count=95245 16959 78286 77788 2761 1966 1267 699 7331 3981 2995 1288 70457 498 613 4649 1566 688 338 304 435 328 675 622 14198 1707 1518 1041 365 184
is_linear=0
shrinkage=0.05


Tree=24
num_leaves=31
num_cat=0
split_feature=6 35 25 12 37 37 12 20 32 6 20 14 37 34 27 33 31 36 1 35 37 8 33 6 20 22 5 9 35 33
split_gain=7162.68 295.326 238.816 130.441 119.224 234.815 94.1887 64.1544 62.8812 60.2056 53.8656 83.3709 68.9512 53.642 54.2451 51.2122 48.5345 44.9041 43.4249 36.704 36.5879 31.7536 30.7152 75.3213 26.8447 33.2403 28.3897 27.3818 45.3018 27.0549
threshold=-1.874905964948574 -1.3884849694116377 -1.6222128372696356 0.94316177824225356 1.0000000180025095e-35 0.99995048850461588 -0.018980853553777998 0.29518698236980295 1.237904615946402 -0.85915363590441418 -0.084655400155484589 48731.363632078093 0.078729091523682973 0.19551844315665776 0.10453001745875022 -0.025901387407073945 0.99424489723563625 1.0371373063337483 1.0705893645455962 0.19469529576871067 0.96579552744680808 -0.10935832733630053 0.43524134662991604 -3.6836096520874615 -0.99692588570254126 1.118565935039844 1.729940311264029 -0.93789490910261131 -0.48828665534167598 -1.1945794492680053
decision_type=2 2 2 2 2 2 2 2 2 2 2 2 2 2 2 2 2 2 2 2 2 2 2 2 2 2 2 2 2 2
left_child=1 22 15 9 16 -6 -3 8 17 10 11 12 -4 -7 21 -2 -5 19 -18 -8 -14 -15 -1 -24 25 -13 27 28 -26 -28
right_child=2 6 3 4 5 13 7 -9 -10 -11 -12 24 20 14 -16 -17 18 -19 -20 -21 -22 -23 23 -25 26 -27 29 -29 -30 -31
leaf_value=0.065553836821897624 0.069979569800331903 -0.045411842374849999 -0.053117362468777421 -0.04335020112339516 0.10460073095717792 -0.049618832935529364 0.061371434242520562 -0.03667938692501177 -0.036165522217207702 -0.050381781631550097 -0.049339313587691169 -0.037782753037748078 0.24980573913009799 -0.02626028456762218 -0.044000048946320723 -0.029992696468422498 -0.053238949916938498 -0.028225664696045601 0.10234674977747996 -0.036741789189280998 0.072963089842558074 0.066830469320288924 0.059159713954604926 -0.062669475977328956 0.087131741174974242 0.088164762926685805 0.13004398701835707 -0.046523659308834231 -0.053347813287831683 -0.053506778429651847
leaf_weight=2541.7813321128488 56.032377071678638 57.405336912721395 11.151159740984438 354.39633139967918 48.324630305171013 81.377077147364616 152.30149574205279 35.071906924247742 26.040642160922289 3105.8448059298098 206.51535084843636 10.367578037083151 3.3152883276343372 12.469578839838503 29.924511522054672 16.606796454638243 7.5270805023610619 17.892919685691595 11.09585317224264 10.16876260563731 24.835369657725096 34.519747797399759 59.646332737058401 16.114469062536955 10.749657064676287 10.58966328576207 4.9785159528255463 144.91605372726917 12.311812683939932 3.3641863875091058
leaf_count=13786 293 870 206 6085 228 1330 877 415 271 61790 3770 125 22 160 475 205 134 193 55 135 163 229 316 96 78 50 28 2589 215 56
internal_value=-0.000958487 0.0592423 -0.042749 -0.0443302 -0.022339 0.00813004 0.0121561 0.0258416 0.0364651 -0.047922 -0.0306803 -0.0143924 0.0521076 -0.0213215 0.00861791 0.0471239 -0.0392158 0.0469514 0.0394616 0.0552307 0.0937898 0.0421269 0.0646187 0.0332464 -0.0276406 0.0258583 -0.0339994 -0.0384706 0.012134 0.0560273
internal_weight=7117.64 2916.42 4201.21 4128.57 579.635 206.616 298.881 241.476 206.404 3548.94 443.095 236.579 39.3018 158.291 76.9138 72.6392 373.019 180.363 18.6229 162.47 28.1507 46.9893 2617.54 75.7608 197.277 20.9572 176.32 167.978 23.0615 8.3427
internal_count=95245 16959 78286 77788 8696 2422 2761 1891 1476 69092 7302 3532 391 2194 864 498 6274 1205 189 1012 185 389 14198 412 3141 175 2966 2882 293 84
is_linear=0
shrinkage=0.05


Tree=25
num_leaves=31
num_cat=0
split_feature=6 35 25 12 18 35 18 9 18 6 6 20 14 37 37 38 18 3 27 21 37 20 27 31 0 8 3 19 38 5
split_gain=6727.3 281.049 226.125 134.502 119.061 119.019 94.5524 67.4014 65.9821 65.6011 61.976 57.081 93.4621 60.8456 55.8297 70.0749 44.747 43.1219 38.5473 46.4336 38.0248 33.9965 33.8223 31.8848 30.3622 29.2389 27.3356 44.8005 26.6169 26.3356
threshold=-1.874905964948574 -1.4435986147542093 -1.889763056827942 0.94316177824225356 0.99997593805284424 -0.51303405651978795 0.99997593805284424 0.18795975082090857 0.013671520581639552 -0.39045312536883797 -0.85915363590441418 -0.084655400155484589 48731.363632078093 0.078729091523682973 0.99995048850461588 -0.87164855255912488 0.013671520581639552 0.75871067091955036 -1.7925848380318088 -0.53158351174460505 0.99995048850461588 -0.99692588570254126 0.11851863332771422 0.49788871666083107 -0.54362496962896789 -0.053635939399552891 2.0050194366018252 0.99996241341658831 0.56893142022688636 -0.11816134669702609
decision_type=2 2 2 2 2 2 2 2 2 2 2 2 2 2 2 2 2 2 2 2 2 2 2 2 2 2 2 2 2 2
left_child=1 25 -2 10 5 9 7 14 18 28 11 12 13 -4 -3 -16 22 -17 19 -7 -15 24 23 -11 -14 -1 -12 -28 -5 -22
right_child=2 6 3 4 -6 8 -8 -9 -10 16 26 -13 21 20 15 17 -18 -19 -20 -21 29 -23 -24 -25 -26 -27 27 -29 -30 -31
leaf_value=-0.047563521085983329 0.056926973572306465 0.064873216361983774 -0.052954513477143396 0.071972656356745962 -0.052983525960556679 -0.050957376365027313 -0.049212505456880211 -0.033357179244007683 0.16723781452137132 0.029168779904742231 -0.050645691104101144 -0.049511344127378114 0.073452048916226753 0.25175398351979111 -0.040060665075391584 0.058710854481701984 0.11354011585589729 -0.06368913132217649 -0.044304538091004 0.091981094034605221 -0.055273096128881288 -0.035547657094310778 -0.050134885397809539 -0.054690107058393493 -0.056250054196143956 0.063839082223771076 0.13424137957471863 -0.029198639730956363 -0.044777491866621243 0.087627328594175213
leaf_weight=5.9037276357412329 56.463667556643486 94.889821339398623 10.127214994281529 63.543498557060957 194.92430230602622 10.697629343718292 52.00153836607933 40.994375310838223 4.0778929442167273 54.179121509194374 2953.6690524704754 197.54377901926637 14.19516307860613 3.1761811301112166 40.100402049720287 58.337312322109938 8.1328764483332616 8.2081906720995885 168.02809614688158 12.117283351719378 3.6895913369953623 167.01352737471461 32.773165803402662 14.333990842103956 6.6146651022136203 2520.7371309585869 4.9138706512749186 28.573493741452694 5.288101725280284 25.558382622897629
leaf_count=52 306 529 196 334 3745 167 804 501 20 488 61615 3771 88 21 520 351 39 74 3042 97 47 2928 537 207 86 14118 39 522 84 137
internal_value=-0.00105536 0.0581906 -0.0424312 -0.0438396 -0.0213123 -0.00476897 0.0119683 0.0250862 -0.0317718 0.0247592 -0.047587 -0.0297907 -0.0128805 0.0540291 0.0369742 0.0121506 0.000701342 0.0436132 -0.0360242 0.024959 0.0874439 -0.0280389 -0.00835915 0.0116242 0.0322246 0.0635788 -0.0501364 -0.00521577 0.0630031 0.0696006
internal_weight=6860.81 2821.17 4039.63 3983.17 568.096 373.172 294.532 242.53 194.921 178.251 3415.07 427.919 230.375 42.5514 201.536 106.646 109.419 66.5455 190.843 22.8149 32.4242 187.823 101.286 68.5131 20.8098 2526.64 2987.16 33.4874 68.8316 29.248
internal_count=95465 16949 78516 78210 8760 5015 2779 1975 3326 1689 69450 7274 3503 401 1474 945 1271 425 3306 264 205 3102 1232 695 174 14170 62176 561 418 184
is_linear=0
shrinkage=0.05


Tree=26
num_leaves=31
num_cat=0
split_feature=6 35 25 6 18 18 18 13 37 6 4 28 21 25 34 27 35 26 14 36 38 23 19 30 31 1 8 8 35 19
split_gain=6310.48 268.207 212.477 115.557 89.8452 70.5585 155.609 66.6439 62.0088 65.909 60.0411 80.8434 57.0234 54.0367 52.3531 44.3725 36.001 66.3038 87.6555 46.4144 46.313 35.2243 35.0043 34.2547 28.9609 25.7877 38.9143 24.862 21.9586 21.7391
threshold=-1.874905964948574 -1.4914510856059133 -1.889763056827942 -0.69845498408346862 0.99997593805284424 0.99997593805284424 0.0041204394574440003 0.91710805644483073 0.99995048850461588 -4.783047527033113 -0.20195014013454096 -0.016334929873331395 0.515286674562076 0.19211663642959101 -1.0568396401479501 -1.097196311402052 -0.66376510477693584 20.799583333333338 76598.500000000015 -0.56219123053136377 -0.32695849359369333 0.25780365166782188 0.99996241341658831 3.4551806050443656 0.99424489723563625 -1.0540305835962716 0.84175421099353298 -0.053635939399552891 -2.6647996500101874 0.21291468237009734
decision_type=2 2 2 2 2 2 2 2 2 2 2 2 2 2 2 2 2 2 2 2 2 2 2 2 2 2 2 2 2 2
left_child=1 27 -2 5 7 6 10 8 22 -10 11 24 14 -11 -13 16 17 19 -19 20 -5 -16 -3 -24 -4 26 -18 -1 -12 -23
right_child=2 4 3 15 -6 -7 -8 -9 9 13 28 12 -14 -15 21 -17 25 18 -20 -21 -22 29 23 -25 -26 -27 -28 -29 -30 -31
leaf_value=-0.048573150850332869 0.055206318194923866 0.077527548780219377 -0.044303243223935342 0.076294157092547388 -0.048726493811896567 -0.045752250184563276 0.12451049700171189 -0.053889258127807538 0.063937959969007363 0.074921605723820242 0.031552649439660151 -0.053945135483935563 -0.044357091763140517 -0.035762668096131253 0.092749055263524269 -0.049149397440930803 -0.05308972904005365 0.43998215532097495 -0.053860503973768736 -0.040523431776411933 -0.046746059465618536 -0.042511847212735272 -0.063014853106037896 0.056230161598117771 0.067969674066184135 -0.045545599168350215 0.24436889828055761 0.062866346252570468 -0.039229801950374926 0.062437546232825075
leaf_weight=5.0152506045997134 55.341178864240646 79.421525314450264 69.455715902149677 22.640850309282541 50.252997126430273 246.70089055597782 19.872125066816807 24.318952959030867 36.305952802300453 13.225734263658522 11.541374444961546 9.9192258492112142 18.595911547541618 66.328714992851019 46.960894111543894 2919.9680342935026 2.5260133557021609 1.9165768176317208 1.6916431747376917 51.129047375172377 11.54933789744973 9.2859699092805403 9.8248120509088057 15.561851173639296 6.2616532333195201 141.95082902908325 1.9469612091779707 2429.6045919172466 216.42357249557972 10.52901793643832
leaf_count=47 306 391 1277 180 808 4864 93 360 196 72 72 180 313 780 314 62446 48 21 27 910 214 138 113 100 47 2920 13 14082 4050 83
internal_value=-0.00105305 0.0571791 -0.0420637 -0.0434725 0.0121739 -0.0245395 -0.0120451 0.0246661 0.0333234 0.00811433 -0.0188467 0.0035481 0.0341928 -0.0173617 0.0532384 -0.047466 -0.026581 -0.00148772 0.208454 -0.0103663 0.0347316 0.06916 0.0611908 0.0100815 -0.0350185 -0.0418208 0.0763857 0.0626368 -0.0356462 0.0132547
internal_weight=6606.07 2729.86 3876.21 3820.87 295.241 665.546 418.845 244.988 220.669 115.86 398.973 171.008 95.291 79.5544 76.6951 3155.32 235.351 88.9275 3.60822 85.3192 34.1902 66.7759 104.808 25.3867 75.7174 146.424 4.47297 2434.62 227.965 19.815
internal_count=95465 16949 78516 78210 2820 11431 6567 2012 1652 1048 6474 2352 1028 852 715 66779 4333 1352 48 1304 394 535 604 213 1324 2981 61 14129 4122 221
is_linear=0
shrinkage=0.05


Tree=27
num_leaves=31
num_cat=0
split_feature=6 9 12 37 37 5 12 9 6 27 26 14 37 27 19 19 27 25 31 33 3 33 4 9 8 23 22 38 13 25
split_gain=5922.2 272.326 200.412 153.231 182.044 137.69 91.405 74.5994 56.9834 54.2461 48.4567 81.0444 53.5282 47.4023 44.3705 70.1581 40.6517 40.4725 40.4082 39.2545 29.8674 40.7002 38.9762 43.8551 28.936 28.2112 25.5767 44.1682 42.453 24.7272
threshold=-1.7750797990314355 -1.7430897138012884 0.94316177824225356 1.0000000180025095e-35 0.99995048850461588 0.014536147601108251 -0.038932089070955495 1.0000000180025095e-35 -0.81492316395874165 -0.63502288681921304 12.344305555555556 48731.363632078093 0.16979382224331332 0.40315590401454254 1.0000000180025095e-35 0.99996241341658831 -1.7925848380318088 2.0479176346990284 0.99424489723563625 -0.65710700749287376 2.0050194366018252 -0.71956046999598533 -0.041079266541269345 -1.0015432826392188 -0.31735699640628479 0.44499415659510816 1.1866693548951821 0.29797946840145895 -1.5133716727984898 0.29406063131785121
decision_type=2 2 2 2 2 2 2 2 2 2 2 2 2 2 2 2 2 2 2 2 2 2 2 2 2 2 2 2 2 2
left_child=1 -1 8 9 -5 14 -7 13 10 18 -2 12 -12 -6 -3 -16 -9 24 19 29 -10 22 23 -22 -8 -14 -13 28 -28 -4
right_child=2 5 3 4 7 6 17 16 20 -11 11 26 25 -15 15 -17 -18 -19 -20 -21 21 -23 -24 -25 -26 -27 27 -29 -30 -31
leaf_value=0.062099612898826623 -0.048638514780775272 -0.036925440815560116 0.080346081205320982 0.088538626233666554 0.056821161185970685 -0.044851886174777075 -0.058539008255923591 0.049529865251699362 -0.050254251298718626 -0.04575132915545696 -0.053004832318052232 -0.035924497349649989 0.096645750716147241 -0.05429936248796996 0.080292262899644307 -0.052161574333437204 -0.049254029855034021 -0.0069069586933286136 0.090654212132703249 -0.043361624859583357 0.34492005404337361 -0.052933757961679345 -0.052978270354966342 0.068301006560849073 0.065934605559403101 -0.056786076094253859 0.46374790366462648 -0.053247939063375688 0.056823986490213731 -0.031046385810905658
leaf_weight=2299.0313226394355 188.00508819147944 111.43925691023469 14.00433833897114 64.363340772688389 46.1373968757689 26.918580457568169 4.8077599480748168 11.817268036305903 2676.2010361813009 272.75331688672304 9.8516658060252649 160.77760538458824 28.34904890879989 12.118098590523003 23.507898524403572 17.395338870584965 87.747468292713165 24.15956899151206 11.150539003312586 38.411795195192099 1.7512899935245503 17.734056945890188 5.0429355092346659 7.8795989230275145 161.77361366152763 3.3499462604522696 0.67188438773155112 12.235784053802488 13.919673949480059 7.7329541258513919
leaf_count=13794 3888 1492 113 326 332 465 67 108 60987 5430 204 2973 165 205 117 229 1595 209 60 635 25 359 98 74 959 41 7 246 127 135
internal_value=-0.00104916 0.0556924 -0.0420689 -0.0146986 0.0176683 0.015881 0.0413987 -0.0112345 -0.0470271 -0.0356005 -0.0298248 -0.0143895 0.0487934 0.0337063 -0.0205774 0.0239623 -0.0375294 0.0535709 0.00323086 -0.0129758 -0.0496765 -0.00196424 0.059635 0.118602 0.0623421 0.0804311 -0.0283832 0.0168122 0.0755612 0.0407187
internal_weight=6361.04 2669.03 3692.01 566.237 222.184 370.002 217.66 157.82 3125.77 344.053 417.161 229.156 41.5507 58.2555 152.342 40.9032 99.5647 190.741 71.2996 60.1491 2708.61 32.4079 14.6738 9.63089 166.581 31.699 187.605 26.8273 14.5916 21.7373
internal_count=95465 17332 78133 8939 2566 3538 1700 2240 69194 6373 7651 3763 410 537 1838 346 1703 1235 943 883 61543 556 197 99 1026 206 3353 380 134 248
is_linear=0
shrinkage=0.05


Tree=28
num_leaves=31
num_cat=0
split_feature=6 35 12 35 18 12 6 38 20 14 35 6 28 28 38 8 26 27 31 7 37 18 14 23 25 12 38 4 15 33
split_gain=5562.01 244.593 203.925 156.757 129.039 87.3258 66.1065 60.1918 55.7623 70.0484 51.5193 47.7956 47.5361 45.1999 43.8152 40.4435 32.0072 31.062 46.7219 30.6066 216.734 74.7108 30.1054 28.2206 27.9663 53.4401 44.0946 36.3075 24.5273 24.0201
threshold=-1.874905964948574 -1.6039959028361837 0.94316177824225356 -0.51303405651978795 0.99997593805284424 -0.018980853553777998 -0.85915363590441418 0.54655950052804025 -0.084655400155484589 48731.363632078093 0.13344062006593452 0.72135251655261901 0.15758761045284606 0.55830318823628833 -0.79422015386728073 -0.85535281626421722 12.519027777777778 -1.7925848380318088 0.86185053152238345 4.0600558749047915 1.0000000180025095e-35 0.0095072730002796531 58978.500000000007 0.3710129215639239 0.33308767042086856 -0.18317055492885145 0.30483329882652638 -0.98806280542949831 -0.049013875912685592 1.1560908750610641
decision_type=2 2 2 2 2 2 2 2 2 2 2 2 2 2 2 2 2 2 2 2 2 2 2 2 2 2 2 2 2 2
left_child=1 -1 6 4 7 -3 8 11 9 12 13 15 -2 16 -15 -4 -7 18 -5 -8 21 -21 -16 -14 25 -11 -27 -28 -13 -26
right_child=2 5 3 17 -6 10 19 -9 -10 24 -12 28 23 14 22 -17 -18 -19 -20 20 -22 -23 -24 -25 29 26 27 -29 -30 -31
