tree
version=v4
num_class=1
num_tree_per_iteration=1
label_index=0
max_feature_idx=71
objective=binary sigmoid:1
feature_names=amt_ratio_3 V10 V23 tx_count_10 Time_Normalized amt_mean_3 amt_std_5 Time_Hour amt_min_3 amt_max_5 V9 Time_Hour_Sin amt_V4_interaction V13 Time_Hours amt_zscore_3 V3 V28 V17 V1_squared V11 amt_max_3 amt_min_5 Amount_Normalized amt_cumcount V24 amt_max_10 amt_mean_5 V19 V8 amt_extremely_low amt_std_10 V22 V7 V16 V12 amt_deviation_10 avg_time_diff amt_V11_interaction Amount amt_overall_zscore V26 amt_deviation_3 V15 V4_squared Time_Hour_Cos amt_V1_interaction amt_cummean V6 V25 V2 V11_squared V27 Amount_Log amt_deviation_5 amt_mean_10 V5 amt_V7_interaction V21 time_since_last amt_zscore_10 amt_cumsum V4 amt_min_10 V14 V20 V18 amt_zscore_5 amt_V12_interaction amt_extremely_high amt_std_3 V1
feature_infos=[-29343953.484052889:53098580.136902161] [-24.759049439768539:15.590712947105729] [-144.7438449695737:71.391164145616059] none [-1.9965795183032189:1.6419706193524659] [-0.30741284147278691:120.05831528447332] [0:160.48152426958893] [0:23.99944444444445] [-0.30741284147278691:24.784371376767016] [-0.30727310836302663:358.68315517361839] [-10.790390785723735:8.4033052330370754] [-1:1] [-72.844856762906417:3452.5978726595617] [-4.4074127260252531:5.4463844136364123] [0:47.99666666666667] [-1.2121874429918087:1.2261691430379482] [-25.295388972449569:2.045239291387265] [-117.65740180784412:121.3878220571174] [-28.40894474823007:10.548965646146526] [0:327.87520100039848] [-3.1720627354270725:8.0232807416666301] [-0.30741284147278691:358.68315517361839] [-0.30741284147278691:24.754589751831929] [-0.30741284147278691:358.68315517361845] [1:119412] [-3.623670597655988:5.7215718519034393] [-0.2967931251309997:358.68315517361839] [-0.30727310836302663:72.982435548103098] [-7.8855786502951242:6.0840087427458744] [-136.64628702667397:37.286865496015508] [0:1] [0:113.24279518748166] [-10.215598745091205:9.8013529401876962] [-38.770014475905867:107.20152031932322] [-14.320381450099584:17.399498270720148] [-18.385985755729749:7.5290953531093265] [-37.354800078893135:322.15062412080869] [0:61.200000000000003] [-114.5985926948094:1644.4625483749544] [-0.30741284147278691:358.68315517361839] [-0.3836033793043529:106.31385930956191] [-4.4941877204283713:6.2850111521075114] [-119.65988961084329:238.62483988914505] [-3.6916436248833993:7.168655997371169] [0:112.62899461317308] [-1:1] [-5705.3092581132778:14.979863807498154] [0.061981615115130097:4.9837210927129192] [-19.901716406979464:63.054505931740159] [-15.44033337971425:9.0651503157158384] [-45.219545972784523:15.683273604605857] [1.9234908836668571e-14:64.373033859598635] [-61.133567977344335:195.26777960309519] [-1.268530905386231:2.8394620595120892] [-72.364507790120854:285.70071962551526] [-0.2983022427164122:37.508506499629526] [-87.216663111880948:26.201019691615432] [-705.35430916314442:38451.379547543613] [-83.903733565376967:65.656021781348414] [0:189] [-2.8460523313540969:2.8605945719527277] [0.86774261161182187:117412.27574793369] [-3.5574062913400191:10.612680840069256] [-0.30741284147278691:24.419607917777803] [-20.9692243918504:11.402952692875404] [-157.89213117646753:114.52353155740064] [-9.4983718667560275:5.0464387195900455] [-1.7888569679090227:1.7922836919544431] [-3268.4954264911025:466.26982087586038] [0:1] [0:207.25712944649845] [-18.107324512483849:1.0884451157981645]
tree_sizes=5328 5440 5468 5474 5453 5463 5502 5461 5489 5461 5495 5460 5487 5502 5485 5518 5484 5511 5537 5474 5509 5485 5494 5541 5528 5531 5479 5554 5533 5516 5549 5497 5494 5450 5493 5488 5524 5520 5526 5488 5534 5522 5518 5547 5425 5440 5412 5529 5401 5514 5415 5377 5496 5489 5394 5446 5512 5395 5507 5487 5540 5462 5542 5532 5375 5243 5496 5550 5440 5507 5435 5297 5532 5567 5344 5427 5431 5357 5277 5441 5317 5423 5395 5468 5512 5240 5146 5383 5458 5281 5459 5472 5481 5456 5465 5366 5258 5386 5446 5364 5487 5379 5454 5443 5360 5452 5442 5375 5321 5462 5331 5359 5427 5312 5339 5393 5278 5381 5340 5319 5389 5393 5450 5375 5350 5468 5317 5292 5163 5258 5393 5344 5272 5277 5274 5241 5232 5267 5325 5295 5351 5226 5216 5259 5262 5298 5298 5204 5171 5296 5183 5236 5221 5255 5197 5226 5241 5195 5226 5126 5196 5132 5141 5099 5145 5175 5128 5277 5156 5193 5128 5093 5242 5113 5076 5057 5164 5094 5131 5175 5088 5135 5084 5065 5200 5071 5097 5106 5082 5106 5103 5038 5091 5007 5013 5096 4992 5157 5096 5191 5085 5030 5077 5056 5020 5055 5073 5044 5066 4968 5045 5055 5026 5066 5061 5032 4999 5080 5031 5029 5000 5037 5042 5037 5062 5001 4987 4975 5007 5039 5016 5014 5027 4942 5034 4986 5029 5019 5003 4992 4955 4996 4979 4982 4994 4978 4993 4990 5032 4951 5046 4907 4989 4929 5007 4957 4980 4970 4947 4938 5011 4950 5012 4973 4939 5014 4952 4949 4956 4956 4930 4934 5007 4930 4971 4906 4953 4884 4998 4899 5012 4945 4933 4981 4942 4885 4937 4956 4952 4915 4946 4959 4916 4968 4917 4953 4888 4955 4989 4910 4948 4944 4911 4883 4917 4930 4898 4905 4911 4949 4919 4930 4960 4915 4896 4909 4916 4964 4947 5003 4952 4930 4986 4927 4937 4957 4928 4920 4924 4923 4925 4870 4905 4920 4919 4933 4970 4916 4972 4929 4964 4924 4949 4970 4916 4656 4922 4944 4920 4892 4908 4948 4937 4944 4958 4898 4933 4952 4706 4973 4937 4948 4736 4929 4928 4953 4964 5007 4929 4917 4936 4987 4919 4934 4758 4942 4915 4915 4309 4971 4923 4915 4928 4494 4826 4750 4961 4834 4659 4933 4969 4388 4958 4931 4287 4957 4450 4922 3886 4266 4736 4641 4860 4643 4933 4747 4910 3963 4466 4917 4196 4927 4665 4573 3726 4912 4480 3699 4943 4932 3925 4646 4177 4453 4261 4687 3683 4239 4476 4069 4531 4906 4921 4076 4344 4664 4940 4168 3347 4069 3784 4486 4072 4474 4947 4066 3707 4752 4350 4391 3983 3663 3970 4339 4743 4648 4918 4159 4274 3400 4103 3303 4196 3988 4430 4257 4005 3700 3904 3973 4165 4808 4264 4308 4473 3807 4195 4257 4457 3838 3985 4453 4113 3793 2764 4250 4299 3682 3963 3782 4534 3762 3001 3469 3688 3884 4154 3298 3391 4172 3793 3871 4374 2893 4089 3394 4022 3616 4555 3701 3590 3590 3753 3981 3786 2809 4084 3591 3598 2916 3682 3665 3725 3528 3274 3166 3795 2816 4170 3408 3371 3231 3030 3125 3524 3096 3410 3286 3233 3693 3807 3609 3489 3083 3586 2627 3202 3985 3049 3116 3142 3126 3993 3403 3395 3498 3144 3140 3108 3791 3378 3800 3234 3516 3401 2351 3111 3580 2931 3233 3210 2928 2928 3398 3116 2817 3564 3035 3122 3391 2243 3148 3032 3598 3423 3529 2843 2809 3712 3385 3707 3122 3608 2150 3057 3803 2446 2839 2843 2823 3058 3805 2737 2829 2341 2342 3709 3311 2843 3687 2554 3684 2813 3424 2836 3011 2820 1689 2828 3298 3216 3496 3121 3587 3797 2932 3394 3305 3777 3029 3477 2814 1870 2548 3108 3218 2426 3015 3299 3469 2716 2435 2916 2537 2449 2986 2717 2455 1868 1950 2237 2811 2244 3486 3306 2463 2147 3130 2555 2548 3114 3622 1876 1580 2441 3326 2083 2731 1804 2433 2913 2426 2627 3036 1780 2450 3217 2532 2662 2844 2352 1399 2819 2444 2758 3216 1201 1422 2370 2626 2150 2803 2362 1195 2605 2641 2538 2432 2834 2637 2440 1615 2430 2054 3614 1188 2466 2455 2554 2620 3122 1189 1971 2233 2729 2159 2750 2421 2041 2726 2625 2839 1949 2366 2245 2365 2716 2443 1764 2145 3391 2726 2459 2545 1691 2726 2082 2806 2233 1811 2541 2352 2146 2382 1694 1194 2363 2261 1584 2459 2365 1419 2152 1581 2060 1581 2653 1867 2149 1943 2041 1852 2440 2379 1196 2548 2171 2247 2342 2437 1952 1780 1245 1587 1671 2649 1396 2051 2814 1388 1863 1935 1675 2532 1578 1954 2645 2761 1590 1397 2041 2353 2348 1697 2068 1399 2262 2436 2529 1497 1240 1608 1967 1191 1865 1198 2533 2171 1397 2044 2284 2448 1794 1780 2357 2744 1695 1667 2248 1851 2264 2080 2162 2459 1191 2070 2532 2071 1584 2061 1669 1201 2264 1673 1918 1014 1200 2447 1769 2344 2259 2260 1196 2251 1987 1959 2068 921 1894 1975 818 1592 1966 1772 2078 1104 1785 1320 1207 1761 1394 920 1304 1890 1668 1877 1514 1211 1210 914 1586 2379 1407 1674 1973 1621 1202 1962 1150 1339 1189 1193 1770 1113 1872 1121 827 1683 1593 1305 1872 1128 1196 2289 925 1109 1484 1022 1482 1196 1308 1582 1199 916 1900 823 1974 1200 1777 1946 1201 1207 1586 1785 1872 2177 1021 1422 1199 1118 1325 1019 823 1300 1202 1978 1571 1204 1604 1389 1219 1394 1393 1196 1392 1676 1127 923 1187 1765 1009 1770 1488 1195 826 1999 1795 1580 1393 821 1412 917 1017 910 1600 1585 1189 1197 1479 1194 1687 1487 1669 731 1027 823 1487 1786 1394 928 1306 1210 2255 1767 1604 1032 1491 1482 1214 1493 1665 826 1100 1305 1396 1188 1206 926 1684 1695 819 1668 1193 1508 822 823 1580 1584 1014 736

Tree=0
num_leaves=50
num_cat=0
split_feature=64 35 35 64 35 24 1 43 20 47 59 59 59 59 12 64 35 59 59 35 64 20 13 59 64 13 28 29 29 29 45 41 59 51 1 32 65 16 47 48 45 43 40 35 12 12 24 1 56
split_gain=126923 5190.57 2737.07 1873.23 1792.01 1370.68 637.644 449.156 360.12 344.603 306.904 250.139 697.3 235.452 212.01 437.97 304.819 190.527 223.709 147.829 318.263 158.441 139.78 96.7598 88.8289 102.5 124.226 115.668 107.384 153.973 71.6291 68.4322 63.9909 62.08 50.7259 47.5744 90.457 45.3632 43.3375 41.5391 30.5627 30.4799 30.1071 27.8552 27.7455 19.4187 18.3807 35.5502 15.3184
threshold=-3.0767705645151326 -1.2905986610776552 -4.1707535303766434 -1.842292716686633 -1.4890224262528255 52423.500000000007 1.3468019329472054 0.55727875259681159 -0.24571331685337522 0.98755527205660421 1.0000000180025095e-35 1.0000000180025095e-35 0.99954014038212347 0.99954014038212347 1.7781851192803517 -1.1999051754953671 -0.85647004828940521 1.0000017270376704 1.9901232371557855 -0.49209105530033154 -0.25317741763968188 -0.67381057550026735 0.9207540753535961 1.0000017270376704 -1.1707860407355499 -0.22124081670408816 -0.68892927542622606 -4.530611751458653 0.24232049040282114 -0.12831212773865597 0.93227301494290227 0.96259798963424703 2.0000824542294144 1.3318516805021561 0.29287718045038719 1.7319564508529413 -1.4299394221683628 -1.778390068914119 1.0775158202409481 1.1961401027426843 0.99532272148202916 -0.43315361002337577 -0.37949217833667859 -1.3379184306039191 0.80734841759403808 1.6302962131414138 104739.50000000001 -0.51927058567257955 3.5340215944185918
decision_type=2 2 2 2 2 2 2 2 2 2 2 2 2 2 2 2 2 2 2 2 2 2 2 2 2 2 2 2 2 2 2 2 2 2 2 2 2 2 2 2 2 2 2 2 2 2 2 2 2
left_child=1 6 33 4 8 41 -1 10 -4 45 -7 -11 31 -12 24 16 -16 -14 -19 20 21 -17 -10 -15 25 26 28 -28 29 -5 -18 34 -20 -2 -13 48 -37 -22 43 -23 46 -3 -29 -27 -44 -6 -21 -48 -26
right_child=2 5 3 14 9 7 -8 -9 22 11 13 12 17 23 15 19 30 18 32 40 37 39 -24 -25 35 38 27 42 -30 -31 -32 -33 -34 -35 -36 36 -38 -39 -40 -41 -42 -43 44 -45 -46 -47 47 -49 -50
leaf_value=-1.3529655892332459 -1.8733267695045757 -1.9165902121795464 -1.9889083494312931 -1.9785819047677831 -2.0389362583309198 -1.9914332094493448 -1.9963941246609556 -2.0089317179851012 -1.4872911881895177 -2.0367012610407453 -1.4407093395828219 -1.5734280915362415 -2.0370057985858594 -1.9876234669115094 -1.5985937037431543 -2.008166823860527 -2.0137136416215364 -1.6818469996005725 -2.022620918553887 -2.0467066023740554 -1.9068719247511614 -1.6652804427730663 -1.913892467216918 -1.7203090568790893 -2.0468628282623929 -1.948641726780812 -1.8193550576373463 -1.9219541443587373 -2.009906628564043 -1.6955883136235284 -1.81851989580663 -1.9135468970429104 -1.8931304507901119 -1.4633688842500527 -1.9023557154992445 -1.826140760427341 -2.0258936345287397 -2.0278570007338508 -1.9033584911571479 -1.9237677695955582 -1.9340909948103788 -2.0380969615901448 -2.0315382358203289 -2.0439391708421919 -1.9355041043097425 -1.9423932557383592 -1.8818521748192005 -2.0229060453765495 -1.9921667665672755
leaf_weight=1806.6503385603428 7.0217813923954955 7.5619184225797644 9.6144391372799856 17.716494590044022 184.40278210490942 7.777973234653472 7.8860006406903258 13.071316130459307 59.199018508195877 56.174251139163971 58.118744447827339 35.108906961977482 70.541896142065525 7.9940280467271831 15.988056093454359 10.802740603685377 26.79079669713974 16.204110905528069 30.139646284282207 448.09768024086952 13.395398348569868 19.877042710781101 7.2378362044692031 22.577727861702442 13215.424690112472 15.015809439122675 9.6144391372799856 11.234850227832792 21.38942639529705 16.312138311564922 6.9137539863586417 8.3181102648377401 42.130688354372978 39.32197579741478 7.0217813923954955 9.8304939493536931 35.649043992161751 129.7409146502614 7.1298087984323493 7.8860006406903258 10.694713197648523 71.514142796397209 220.05182609707117 574.59777271002531 13.611453160643576 8.6421924829483014 6.9137539863586452 21.821536019444466 44.075181663036346
leaf_count=16724 65 70 89 164 1707 72 73 121 548 520 538 325 653 74 148 100 248 150 279 4148 124 184 67 209 122334 139 89 104 198 151 64 77 390 364 65 91 330 1201 66 73 99 662 2037 5319 126 80 64 202 408
internal_value=-1.9624 -1.39533 -2.03591 -2.03777 -1.89907 -1.78459 -1.35593 -1.62057 -1.57842 -1.95846 -1.56803 -1.90308 -1.86551 -1.53117 -2.04277 -2.00176 -1.80149 -1.94925 -1.87842 -2.01856 -1.96033 -1.78818 -1.52222 -1.78147 -2.04482 -2.02047 -1.98405 -2.00671 -1.88873 -1.81735 -1.95348 -1.64291 -1.94834 -1.50087 -1.60779 -2.04644 -1.96701 -2.01372 -2.03873 -1.71085 -2.04 -2.0226 -2.01888 -2.04127 -2.025 -2.03372 -2.04293 -1.97699 -2.0467
internal_weight=17514.8 2003.15 15511.7 15465.3 534.736 188.616 1814.54 109.54 76.0513 458.684 96.4685 265.639 209.465 88.6905 14930.6 718.922 49.6926 159.016 88.4744 669.23 181.702 38.5658 66.4369 30.5718 14211.7 906.674 309.931 254.513 55.4181 34.0286 33.7046 50.4488 72.2703 46.3438 42.1307 13305 45.4795 143.136 596.743 27.763 487.528 79.0761 244.898 589.614 233.663 193.045 476.833 28.7353 13259.5
internal_count=162133 18543 143590 143161 4950 1746 16797 1014 704 4246 893 2459 1939 821 138211 6655 460 1472 819 6195 1682 357 615 283 131556 8393 2869 2356 513 315 312 467 669 429 390 123163 421 1325 5524 257 4513 732 2267 5458 2163 1787 4414 266 122742
is_linear=0
shrinkage=1


Tree=1
num_leaves=50
num_cat=0
split_feature=64 18 1 62 64 62 33 20 62 62 64 16 34 33 18 7 17 58 1 20 20 47 7 16 49 45 12 1 65 34 64 62 13 37 52 10 65 25 47 41 62 41 33 1 57 47 57 16 12
split_gain=75993.3 3899.34 2331.04 1269.63 781.302 874.175 325.938 203.083 194.109 190.335 382.216 252.444 161.968 153.413 131.291 99.9425 94.2565 153.351 120.407 81.1727 63.3062 63.0379 56.8779 142.998 80.2858 69.8467 50.41 55.8322 49.0828 45.3375 38.8559 117.365 180.799 84.7546 69.8985 37.2708 36.1051 34.8889 33.8452 32.081 24.9386 23.8246 23.4405 22.0643 28.1364 20.6071 19.6063 19.2712 46.412
threshold=-2.8327058710171351 -1.9372777336900142 -1.5982864296281174 1.2068983903688693 -1.842292716686633 0.59633865621395554 -0.84556456393646584 -0.22693706922633858 -0.018921310626719246 0.99641419696837896 -1.1999051754953671 0.54942281532150083 -0.30710683271309097 0.90813489325797281 1.8532992176395371 20.634583333333339 1.4797251802598714 -0.46687337916428157 0.45505380787442495 0.8017980326989842 0.10318469216917926 0.98156630289251756 4.8781944444444463 -0.5161844166445817 0.076344480981937066 0.37288656887570826 0.3048339045702308 -0.89847063424906104 -1.6612264084646686 1.0664421805334356 -1.1421907062873038 0.49190488961282286 -0.19847814509972567 1.5998962643861889 -0.10988011013366374 0.37991086887489584 2.6390699543008056 -0.81895706446613137 1.0057563327561414 -0.16968226514886406 0.099875111397984412 -0.46143793011150686 0.28149049431906842 -1.3642829991886578 0.0039603238868935508 1.0760228610413953 3.3144099066634198 -1.4423520216735688 1.2666577580406091
decision_type=2 2 2 2 2 2 2 2 2 2 2 2 2 2 2 2 2 2 2 2 2 2 2 2 2 2 2 2 2 2 2 2 2 2 2 2 2 2 2 2 2 2 2 2 2 2 2 2 2
left_child=2 12 8 6 5 15 -4 -7 -1 30 11 21 -2 20 35 26 22 18 36 39 -5 -11 23 24 -12 -25 -3 -28 -19 -21 31 45 33 34 -33 41 -18 -16 -36 40 -17 -9 -39 44 -8 -6 -32 48 -48
right_child=1 4 3 13 9 7 43 14 -10 10 16 -13 -14 -15 37 19 17 28 -20 29 -22 -23 -24 25 -26 -27 27 -29 -30 -31 46 32 -34 -35 38 -37 -38 42 -40 -41 -42 -43 -44 -45 -46 -47 47 -49 -50
leaf_value=0.028817107118195667 0.38337835329329578 -0.073600303813620524 0.22235766510327976 0.05787326808214803 -0.079078105459355549 -0.019337920796971157 -0.044420384965827162 0.10459086417426934 0.36749877409711701 0.030628814373878013 0.2092372371671487 -0.065217571435414207 0.019024244637450914 0.022263762156239136 -0.036717657288849681 -0.026758455320594253 0.25888686020046575 0.079670728246361275 -0.027571372304986921 -0.0018270750739754259 0.33310890506340501 0.23582320565295414 -0.076850852715378726 0.098464015978114064 -0.037964429343235129 -0.074392550844163102 0.10860815221788639 -0.055939790324873458 -0.06622806487910872 0.20745359648202263 -0.084626028072314799 -0.018834601525635094 -0.070860068772352347 -0.025705343406060368 0.23912416108923346 0.074806805487818512 0.019195076480594764 0.14796027268940615 0.041892724107351904 -0.059802251157989005 0.11196266479042513 0.3542349414235671 0 -0.074523741707356567 0.079552532014242644 0.022535588285361785 -0.072898699029891517 -0.072776649008113384 0.025062297881903669
leaf_weight=11.604588411748407 102.34022178500891 238.14047123491764 19.504200652241707 9.6536711826920492 723.65801311284304 20.081979915499687 20.774729087948803 12.745013497769831 2718.4617781713605 14.815998204052446 12.683680772781374 29.158368788659573 8.7681724578142148 12.745261132717131 7.2621124386787441 8.4227595552802068 13.131139121949674 7.4565652236342421 17.860735528171062 7.8540107682347324 118.90437360107899 37.10954275727272 915.83776566386223 7.4819727838039389 7.7559038251638404 107.39955376088619 13.468066342175009 17.308759346604347 101.01035561412573 10.397658459842203 11424.001402489841 9.8230719119310361 89.664520293474197 21.937907434999943 18.827085748314861 11.11851993203163 6.6184365078806868 16.222439959645275 12.219274096190928 29.926986463367939 7.0392000228166571 41.782512813806534 7.9486873596906653 107.39149570465088 7.7585533559322348 7.5321663841605178 52.644532218575478 339.02035236358643 43.973129354417324
leaf_count=95 709 2262 136 77 7060 188 193 107 16731 137 115 280 81 102 68 79 120 70 174 73 778 315 9003 73 75 1055 113 163 985 81 112746 93 877 208 163 96 62 139 116 286 58 313 70 1008 62 69 518 3335 416
internal_value=-0.00128966 -0.073153 0.344138 0.136647 -0.0766822 0.0213231 -0.0142789 0.192011 0.366171 -0.0798399 -0.0511979 0.100801 0.358448 0.294189 0.234151 -0.0420294 -0.0621788 -0.00444056 0.112464 0.0391231 0.31772 0.190751 -0.0700591 -0.0219295 0.13054 -0.0566639 -0.0620149 0.0229882 -0.050672 0.144155 -0.0826729 -0.0652226 -0.00405952 0.0877191 0.143341 0.291705 0.210454 0.0758042 0.188679 -0.0186293 0.0520936 0.318917 0.111721 -0.0598259 0 -0.0777202 -0.0839209 -0.0640404 -0.0295017
internal_weight=17609.2 14582.4 3026.8 296.732 14471.3 449.719 155.429 117.161 2730.07 14021.6 1278.32 81.0839 111.108 141.303 97.0793 332.558 1197.24 146.077 37.6103 63.6406 128.558 51.9255 1051.16 135.321 20.4396 114.882 268.917 30.7768 108.467 18.2517 12743.3 883.662 152.472 62.8073 40.8694 65.646 19.7496 31.4332 31.0464 45.3889 15.462 54.5275 24.1711 135.925 28.5333 731.19 11859.6 435.638 96.6177
internal_count=162133 142951 19182 2356 142161 4096 1399 981 16826 138065 12464 732 790 957 793 3115 11732 1411 356 577 855 452 10321 1318 190 1128 2538 276 1055 154 125601 8586 1457 580 372 516 182 277 279 423 137 420 209 1263 255 7129 117015 4269 934
is_linear=0
shrinkage=0.0758795


Tree=2
num_leaves=50
num_cat=0
split_feature=64 1 62 1 64 62 62 58 62 64 68 58 20 38 25 1 62 1 61 39 1 17 13 25 1 58 48 28 58 13 62 48 7 28 7 50 53 57 62 64 13 61 25 64 62 2 65 12 12
split_gain=56165.7 2028.17 1073.35 988.626 761.363 917.573 262.993 197.748 190.49 307.981 244.423 174.184 161.928 129.85 98.177 95.9022 126.979 86.5973 83.4346 82.087 85.0988 80.2618 127.887 73.3992 65.7193 60.8677 53.6082 53.5418 48.8616 229.508 143.376 47.7621 44.7024 114.073 65.1124 39.5094 37.5909 33.1769 30.574 29.4153 25.5465 23.1779 21.2794 17.2763 69.4007 16.9157 16.4685 36.4362 34.2686
threshold=-2.4590264207191863 -1.5194799869636664 1.1173463866096371 -4.4860614748699685 -1.6250275070113747 0.71174174232803933 -0.039357902196531395 0.85299972591541195 0.99641419696837896 -0.83766517895411075 -0.40964490246129009 -0.36190708481500306 -0.22693706922633858 -0.841648699920027 -0.88757709254911277 -0.93744553002520614 -0.018921310626719246 -0.59522485412642245 114122.62600466098 0.26947530217284993 -0.97310464611157199 1.4797251802598714 -0.5705326605104889 -0.016608653054510699 0.35638311174907927 -0.46687337916428157 0.24758649108903052 0.42572612811539773 1.6909813284362014 -0.99129738611068008 -0.086052559154411692 -0.5669224062599868 4.8781944444444463 -1.6693577434381517 2.2224051781058751 0.24484407448669637 -0.8966127705356558 2.5762590305783926 0.04771059690392631 0.69784293181014345 0.31596893751598421 64885.269924682019 0.46549169647290584 -1.1421907062873038 0.48001955467507912 0.99200618428235232 -0.14853683674977952 -0.15251822008675944 -0.24281458687700538
decision_type=2 2 2 2 2 2 2 2 2 2 2 2 2 2 2 2 2 2 2 2 2 2 2 2 2 2 2 2 2 2 2 2 2 2 2 2 2 2 2 2 2 2 2 2 2 2 2 2 2
left_child=1 6 7 -2 5 15 -1 19 28 10 13 24 -7 -10 -14 16 45 -12 -17 -3 -21 32 25 -18 -4 -23 35 -20 43 30 -30 40 33 34 -11 -19 -24 -35 -9 -32 -16 -27 -25 44 -6 -5 47 48 -46
right_child=3 2 11 4 8 12 -8 38 9 21 17 -13 14 -15 31 18 23 26 27 20 -22 22 36 42 -26 41 -28 -29 29 -31 39 -33 -34 37 -36 -37 -38 -39 -40 -41 -42 -43 -44 -45 46 -47 -48 -49 -50
leaf_value=-0.0034479346695312917 0.23679602642812622 -0.073054699222833128 0.12325782355806694 -0.066874979771207085 -0.079038030577393406 -0.0062242690588076412 0.27746552806791802 0.0059104086417051576 -0.029673081231923044 -0.041537604950320488 0.12490562208197699 0.25844980770323966 0 0.25989102318367663 0.12552730356457242 -0.076484952116926824 -0.0055959601886470638 -0.042858737248729975 -0.043991068020710823 0.13406556642804884 -0.049868875962025862 0.18287224511248745 0.0450459757044726 0.21563506647686867 -0.046438779462923095 -0.048741534531683131 -0.063526241855139276 0.14364243007267974 -0.054061662397426706 -0.07439391864631438 0.22049998762325856 0.25994104440142629 -0.078838760315493472 -0.076723424245731392 0.1614317984390474 0.11288404730335865 -0.072248757347402645 0.050646405972314956 0.18034596616074219 0.022653503567353708 -0.013353065838886737 0.065237943304844753 0.023820316222401335 -0.083574152057752663 -0.032709205925871745 0.030715319588414735 -0.035367472186385009 -0.03876078197761619 0.12090362977165553
leaf_weight=18.774820141494274 50.53697757422924 151.61831425130367 26.950447797775269 50.140649892389774 533.45098298043013 22.984427765011787 3351.3301144316792 8.6736077591776866 9.2430530264973623 9.2437453046441096 14.587067276239393 152.74385039508343 11.851056493818758 28.392129883170128 15.220281295478346 288.68027731031179 18.82295335829258 9.6298975348472613 10.157170146703722 18.543652400374413 23.480884604156017 14.633862242102621 12.296792536973951 15.480618454515936 14.560774840414522 12.777772173285486 82.373854234814644 10.049149595201014 19.050430938601494 349.28691823780537 19.730379574000839 80.890671700239182 795.0816914960742 92.246594436466694 16.465776473283768 13.387894123792647 85.54032688587904 6.8988009616732588 20.007786832749844 8.2826240062713605 8.1837873384356481 10.997701428830622 7.260914407670497 10740.548353977501 7.5490477606654194 6.4275780022144309 74.686994567513466 25.393585592508316 15.716095969080923
leaf_count=166 288 1492 170 511 5532 218 17050 79 87 95 123 876 104 204 105 2917 175 94 100 141 227 118 118 113 130 131 834 78 200 3639 175 531 8304 948 151 115 867 60 130 82 71 105 65 113165 73 62 743 244 127
internal_value=-0.00179303 0.256331 0.0956597 -0.0737618 -0.0750735 0.0124418 0.275883 -0.0186322 -0.0787573 -0.0494111 0.047394 0.221895 0.174724 0.195577 0.208832 -0.0454094 0.0183763 -0.00878472 -0.0657612 -0.0477736 0.0394647 -0.0641667 -0.00880604 0.108139 0.0651144 0.0955506 -0.0357556 0.0628979 -0.0817353 -0.0529342 0.0923487 0.230631 -0.0721598 -0.0269423 0.0950956 0.052432 -0.0546279 -0.0640948 0.142381 0.18237 0.085101 0.00596455 0.179258 -0.0826921 -0.0673016 -0.0525044 -0.0143537 0.0176023 0.0743278
internal_weight=17390.9 3786.68 416.579 13604.2 13553.6 546.15 3370.1 222.324 13007.5 1213.8 157.614 194.255 139.13 37.6352 116.146 407.019 98.1327 119.979 308.887 193.643 42.0245 1056.18 136.246 41.5645 41.5112 38.4093 105.392 20.2063 11793.7 396.35 47.0634 104.295 919.937 124.855 25.7095 23.0178 97.8371 99.1454 28.6814 28.013 23.4041 23.7755 22.7415 11397.3 656.797 56.5682 123.346 48.6587 23.2651
internal_count=162133 20461 3245 141672 141384 5050 17216 2069 136334 12354 1457 1176 1029 291 811 4021 926 1166 3095 1860 368 10897 1339 353 300 354 1043 178 123980 4096 457 707 9558 1254 246 209 985 1008 209 257 176 236 178 119884 6719 573 1187 444 200
is_linear=0
shrinkage=0.0758795


Tree=3
num_leaves=50
num_cat=0
split_feature=64 18 35 62 64 62 35 43 1 62 1 13 43 10 62 35 17 13 64 1 48 62 20 58 66 59 33 18 20 28 35 64 33 62 7 20 13 28 38 1 33 68 35 12 68 18 48 47 1
split_gain=44760.9 2103.98 1552.3 543.32 435.912 675.667 357.286 170.832 164.822 148.096 143.888 106.335 105.872 98.1601 83.5792 88.3666 141.078 107.414 83.6357 79.2498 77.0864 67.9131 78.866 77.0584 92.8685 65.8191 65.0938 50.8072 49.5376 46.6917 47.0763 48.9297 44.096 42.7093 38.1462 132.212 39.1228 37.7655 29.9165 24.453 27.1549 22.5269 20.1539 19.977 37.786 62.6196 57.7961 17.3043 16.8766
threshold=-2.4590264207191863 -1.9372777336900142 -1.2106752333347528 1.1173463866096371 -1.1999051754953671 0.74446723039582807 -0.51634928038039174 0.079622801775641558 -1.0382634177061665 0.099875111397984412 0.66556597868979883 1.0000000180025095e-35 0.55727875259681159 0.42109631931216557 1.0518058413449671 -0.34153920764519902 1.6842632221900093 -0.14111799841310116 -0.51520490690619192 0.35638311174907927 -0.4201594070105909 0.45735436844607791 1.0000000180025095e-35 -0.10337132734992874 0.61369700488190759 0.030430112383328354 0.50483216918917895 2.7595639660682534 0.13025074844108053 -1.7871439935635063 -2.074581812385786 1.4190927840975005 -0.66593536542512999 2.0020297568585579 21.408611111111117 0.8017980326989842 -0.21435417762105097 -1.864375542616121 -0.011469651236433847 -1.4082504138321035 0.51426382526740577 -4.7017737175083489 -0.89623692032073909 1.6302962131414138 -1.8439147014992023 -0.24571653878680053 0.24758649108903052 1.0760228610413953 -0.014351230876486548
decision_type=2 2 2 2 2 2 2 2 2 2 2 2 2 2 2 2 2 2 2 2 2 2 2 2 2 2 2 2 2 2 2 2 2 2 2 2 2 2 2 2 2 2 2 2 2 2 2 2 2
left_child=2 42 10 7 5 21 25 8 9 -4 28 13 19 20 43 16 18 33 26 37 -8 34 -23 -24 -25 -7 -16 48 -1 30 31 -20 -10 -18 41 -36 -37 -5 -28 40 -9 -3 -2 -6 45 46 -45 -43 -27
right_child=1 4 3 12 14 6 11 39 32 -11 -12 -13 -14 -15 15 -17 17 -19 29 -21 -22 22 23 24 -26 27 38 -29 -30 -31 -32 -33 -34 -35 35 36 -38 -39 -40 -41 -42 47 -44 44 -46 -47 -48 -49 -50
leaf_value=0.054632236199974329 0.24580632782882561 0.017871879624479357 -0.037004891426660323 0.047249158599407724 -0.082620876385781458 -0.0025635789404482444 -0.033990464797551252 0.058132096431808673 0.068362211603218009 0.20579679958467545 -0.0001032837580083323 -0.061865473983789686 -0.030468479237658705 -0.051191744993580493 -0.034850132436610025 -0.077419280269949278 0.18747827312704907 -0.055957515392897124 0.14261680090530512 0.023360141509737239 0.18068204413706473 -0.061043876072229185 -0.043619020314912507 0.18447441842471099 -0.041856509236553381 0.25604799063713529 -0.0010550011042832306 0.03239969099928143 0.22918127521343371 -0.07303688400176446 -0.048814037287925188 -0.037630805027928441 -0.068902549895535167 0.0079940355832591268 -0.066286986152431532 0.16717586383568228 -0.013761701047500503 0.22918076406306678 0.16553341922036022 -0.073542625343433449 -0.051735515389993283 -0.07729815142851576 0.047318970836390015 0.14749812897231845 -0.073990073762570857 -0.056356757599554927 -0.031495647507227033 0.021147949227369886 0.085082736481429791
leaf_weight=16.342443257570267 109.23613721877337 11.23991561681032 16.350901566445827 13.120516739785669 10257.959221534431 8.5843348130583745 9.2373496294021589 15.628011621534823 10.667744323611258 43.769792430102825 15.51548161357641 66.015188202261925 10.394324392080305 20.13535949587822 26.328430645167828 566.04418940842152 23.736756846308708 18.187119260430336 12.221924915909769 16.890657216310501 29.300072029232979 60.726119056344032 22.43860924243927 23.160518817603588 11.076147668063639 57.751277975738049 7.7938663288950947 12.122408598661421 3769.070214137435 278.78852051496506 34.438906818628311 9.3392905667424184 39.296709731221199 11.723814450204371 82.491477370262146 14.111594304442407 7.4904252141714087 109.96454524993896 13.166327849030493 103.70510019361973 19.085152946412563 644.4229864180088 8.4147909209132177 13.171018481254579 247.77526164799929 58.345640003681183 14.45667554438114 6.3697622418403617 16.609414547681808
leaf_count=106 550 113 154 82 115436 72 84 111 83 241 134 631 85 189 273 6231 188 191 107 128 210 623 220 180 113 356 78 94 17129 3067 380 96 408 116 885 104 76 560 103 1081 159 7005 75 128 2738 617 154 61 128
internal_value=-0.00205116 -0.072524 0.212671 0.0682805 -0.075547 -0.0296035 0.0871069 -0.00157734 0.066002 0.142777 0.227623 0.000182244 0.177804 0.069627 -0.07989 -0.0576663 -0.0308974 0.075985 -0.0473694 0.19444 0.131497 -0.0592455 -0.00469693 0.0550916 0.116558 0.191155 0.0408998 0.209329 0.228566 -0.0606827 0.00168423 0.0746749 -0.0330736 0.142355 -0.0674017 -0.0217941 0.116998 0.214503 0.119906 -0.0563451 0 -0.0741329 0.236177 -0.081939 -0.0592915 -0.0135696 0.0674601 -0.0760026 0.231252
internal_weight=17014.2 12814.4 4199.8 398.873 12696.8 1103.28 219.755 248.503 110.085 60.1207 3800.93 124.688 150.37 58.6728 11593.5 1001.77 435.725 53.6477 382.077 139.976 38.5374 883.528 117.401 56.6753 34.2367 95.0674 47.2886 86.4831 3785.41 334.789 56.0001 21.5612 49.9645 35.4606 766.126 104.093 21.602 123.085 20.9602 138.418 34.7132 662.033 117.651 10591.7 333.749 85.9733 27.6277 650.793 74.3607
internal_count=162133 141672 20461 3092 141047 11144 1764 2237 886 395 17369 1114 855 483 129903 10830 4599 495 4104 770 294 9380 1136 513 293 650 454 578 17235 3650 583 203 491 304 8244 1065 180 642 181 1351 270 7179 625 119073 3637 899 282 7066 484
is_linear=0
shrinkage=0.0758795


Tree=4
num_leaves=50
num_cat=0
split_feature=64 1 1 64 44 68 33 29 58 20 41 46 47 45 43 33 1 56 20 29 44 24 24 1 44 1 44 47 16 38 71 44 32 58 48 47 38 16 28 33 20 38 33 2 53 58 58 29 16
split_gain=37086.2 1176.88 676.456 551.644 530.694 404.324 298.129 204.596 180.345 155.761 99.9559 94.3999 82.9136 117.146 101.448 82.2248 79.3984 132.479 74.3804 69.4083 95.3782 106.397 113.542 69.3171 68.3707 63.6308 60.8173 58.4478 56.4227 55.1851 44.3079 38.5866 34.5506 61.2247 30.7073 30.6419 27.2148 57.2481 58.8006 23.929 23.7167 21.9924 21.5395 20.3017 24.6802 16.2523 15.3099 15.2091 13.9123
threshold=-2.3092823991209523 -1.5982864296281174 -4.4860614748699685 -1.1707860407355499 1.9544177902704367 -4.7017737175083489 -0.93335874974404509 -4.0527210596217804 -0.55804148873513792 0.81401860966736128 -0.28685061954416752 0.07851867478524216 0.98980268319555709 -0.92051905962016056 -0.22060521731627647 0.59608721154195676 -1.1713688638340773 0.43538721406656128 0.041267253148953402 -1.3027766414077722 2.8515884993454383 46681.500000000007 67097.500000000015 0.5439529079083153 0.4731230606078593 0.33462216354086671 2.7540534147584119 1.0786117944235967 -0.16504306405535421 -0.9739693887217028 0.53394195892038743 0.33777634281188534 1.2897278364589362 0.089779498460186763 -1.7049299376481759 1.057745699694723 4.2283709106011607 -1.4423520216735688 0.18693582778984566 0.61857079590510711 0.059235649967468655 -0.049770077772686494 0.13291226345364246 2.2681460948919652 1.2649820764945372 0.43426465234872497 2.684033667113173 -1.7250087935954663 -1.856683879360171
decision_type=2 2 2 2 2 2 2 2 2 2 2 2 2 2 2 2 2 2 2 2 2 2 2 2 2 2 2 2 2 2 2 2 2 2 2 2 2 2 2 2 2 2 2 2 2 2 2 2 2
left_child=1 18 -2 5 6 29 45 23 25 12 -11 15 -9 14 -14 30 17 -8 -1 20 32 -22 -23 31 -16 -6 27 -15 -28 -4 -12 -7 34 -34 -5 48 46 38 -38 -20 -10 -35 -19 -39 -45 -3 -21 -24 -36
right_child=2 4 3 19 8 7 16 9 40 10 11 -13 13 26 24 -17 -18 42 39 36 21 22 47 -25 -26 -27 28 -29 -30 -31 -32 -33 33 41 35 -37 37 43 -40 -41 -42 -43 -44 44 -46 -47 -48 -49 -50
leaf_value=0.025172533838946722 0.17071443785333348 0.03577782116438117 0 0.031910092302952255 0.091591300893348312 0.0088947241853992304 0.14492684734835093 -0.079916294892380058 0.042251023051192237 -0.056191955279149629 0.18365832266488907 -0.029850299445637225 -0.060083533778996764 -0.059767595727328454 -0.012471904254368778 -0.043596850130499194 -0.060720891641130759 0.040327886310965719 0.19809187449670695 -0.080975653503613465 -0.066029085969828621 0.18336901366015834 -0.05546504240333254 -0.033266691712590002 0.16601680018812745 -0.057908216033382871 0.12156800777555316 0.094490961469404014 -0.046216155874442402 0.18957346088863011 0.0012200571763822667 0.18769268746825843 -0.063381751125667588 0.12776014833816646 -0.015233366512935737 0.00891780294205184 -0.044743799766615862 -0.075831648859981407 0.15425874695033473 0.1195487273405354 0.19332574598718696 -0.013001511282459808 -0.061516155423702326 0.066071343897295937 -0.051131782932308627 0.18512551772858216 -0.023055921494874922 0.042836864723977651 -0.080124930473926173
leaf_weight=17.895092971622944 57.661978647112846 10.866471938788889 10.421535946428774 11.462531410157679 24.166787177324295 10.424873322248457 26.196346394717693 373.5580328181386 12.743413992226122 42.568748608231544 43.718970365822315 30.166082322597504 23.151376731693745 384.46499549597502 15.660701170563696 10.285235412418841 162.98475797474384 8.3979761078953725 3922.1092344075441 10005.156684592366 38.115733094513416 23.386570006608963 18.298386916518215 11.954846322536467 30.967807032167912 24.279669381678104 15.555917352437975 6.9526690915226927 14.956240415573118 47.258197821676731 9.6872631907463056 26.713501252233982 28.990188047289848 11.270433537662031 26.413507707417011 22.449343778192997 10.927941523492338 98.511693179607391 8.1681915521621686 72.459748670458794 183.28232204914093 6.4782357811927787 43.908500976860523 9.7699796184897441 14.914196304976938 36.327302493155003 36.778201147913933 5.6314489319920531 445.19817703962326
leaf_count=133 273 87 97 121 130 99 160 4226 81 430 310 311 259 4240 171 114 1701 69 16662 119922 435 194 209 120 200 234 113 63 153 252 97 168 340 111 283 266 123 1166 63 362 857 75 435 96 175 189 404 59 5295
internal_value=-0.00220899 0.182138 -0.0721942 -0.0734949 0.0744798 -0.0222468 0.00388367 -0.0334997 0.154683 -0.0412319 0.0323293 0.0742633 -0.0530861 -0.0315843 0.0545148 0.121854 -0.0314713 0.0287495 0.196241 -0.0787181 -0.0527759 0.0197766 0.0892062 0.106027 0.11271 0.0184764 -0.0467361 -0.054931 0.0461656 0.159697 0.156065 0.14964 -0.06421 -0.000663335 -0.0698894 -0.072848 -0.0802919 -0.042365 0.060364 0.19694 0.185923 0.0872997 -0.0410355 -0.0615422 0 0.162408 -0.080788 -0.0257427 -0.0769226
internal_weight=16533.7 4545.62 11988.1 11930.4 533.154 1108.47 288.681 1050.79 244.472 1001.69 136.426 93.8576 865.268 491.71 69.7799 63.6915 241.488 78.5028 4012.46 10821.9 637.695 85.4321 47.3164 49.0932 46.6285 48.4465 421.93 391.418 30.5122 57.6797 53.4062 37.1384 552.262 46.7389 505.524 494.061 10184.2 142.292 19.0961 3994.57 196.026 17.7487 52.3065 123.196 24.6842 47.1938 10041.9 23.9298 471.612
internal_count=162133 21100 141033 140760 3943 11423 2641 11074 1302 10687 1262 832 9425 5199 630 521 2365 664 17157 129337 7388 897 462 387 371 364 4569 4303 266 349 407 267 6491 526 5965 5844 121949 1623 186 17024 938 186 504 1437 271 276 120326 268 5578
is_linear=0
shrinkage=0.0758795


Tree=5
num_leaves=50
num_cat=0
split_feature=64 35 18 19 61 64 29 35 43 20 20 20 12 35 64 35 7 28 10 1 56 47 1 1 48 10 29 17 45 7 18 35 28 17 29 47 56 40 35 35 34 24 34 24 38 44 41 35 48
split_gain=31489.7 1327.54 1323.01 334.286 296.235 287.837 247.144 162.426 131.205 117.519 105.994 90.7944 73.9391 115.778 179.06 73.3583 71.2004 64.7767 60.5183 58.5372 56.3994 54.4602 53.5536 53.4984 53.3702 47.6777 40.6807 40.0999 37.7165 44.2831 35.1082 31.0786 49.5496 27.8914 27.6186 63.3897 66.2763 57.7452 57.6511 39.698 24.6225 24.3523 23.124 21.1609 37.0443 20.3128 18.0569 17.9698 17.855
threshold=-2.1590733653924539 -1.2106752333347528 -1.9372777336900142 0.69572359695160302 44073.4361776972 -1.1707860407355499 -4.0527210596217804 -1.4375173743237994 0.53858554858879293 0.059235649967468655 -0.29943460372447878 0.83859035668739146 1.7781851192803517 -0.49209105530033154 -0.16307062813002651 -0.29199942894840097 12.305416666666668 -1.7229466200305017 0.66901814561216455 -0.45043226588448076 -0.10619143721160983 1.0786117944235967 0.64918073262596054 0.30449153062718698 1.1630700580970574 -0.55470437380291926 -8.9846071990513767 -0.32082250174501542 -0.94079451984770845 13.02513888888889 1.7583158081995343 -0.76638834111193987 -0.70464469947177666 2.0477507313150691 -1.3027766414077722 1.0538236824494904 2.5998683290649418 -0.38048561703807221 0.0086228316321252507 -0.35151460431418263 0.24374196388447672 74753.500000000015 1.5929997668641291 104739.50000000001 3.6205203355419973 3.7530874072950384 0.70758191142176108 -1.0176233831353982 0.9131403026652456
decision_type=2 2 2 2 2 2 2 2 2 2 2 2 2 2 2 2 2 2 2 2 2 2 2 2 2 2 2 2 2 2 2 2 2 2 2 2 2 2 2 2 2 2 2 2 2 2 2 2 2
left_child=1 9 -2 4 20 6 18 19 10 40 -6 17 34 14 24 23 45 25 -4 -8 -3 31 42 -13 -14 -9 -5 -18 29 -17 43 32 -19 -16 35 36 37 -7 48 -38 -1 -35 -11 -15 -45 -12 -29 -28 -37
right_child=2 3 5 26 8 12 7 11 -10 22 16 15 13 30 33 28 27 21 -20 -21 -22 -23 -24 -25 -26 -27 47 46 -30 -31 -32 -33 -34 41 -36 38 39 -39 -40 -41 -42 -43 -44 44 -46 -47 -48 -49 -50
leaf_value=0.067838189322906084 0.18387002265011829 0.063909081994674904 0.1457025539020545 0.062717092231841395 -0.02623509406530011 0.069056739548794946 0.13317182265818225 0.12526044157945987 -0.049058572904190925 0.17640094348674626 -0.047179355501234213 0.14937993946698008 0.16579879846256379 -0.080129062726012446 -0.06111390610594887 -0.043143191554371622 0.036363497034712124 0.068035240729257596 -0.029619664406165119 -0.01804374395116437 -0.063003587775789377 0.081017847042939045 0.020702220290362189 -0.026464602823270972 -0.00071157861098805836 -0.043205307402591445 0.018817423050092055 0.17628356053264074 -0.05958019983664091 0.1317723019900387 0.051292049367720353 -0.074331656969167728 -0.049602646483663942 -0.038306344924699191 -0.080869097896196993 0 0.13628359333762977 -0.076072153781607921 -0.052858006568978246 -0.038044218326559555 -0.049283186214693561 0.096398021553631294 0.057199469208212075 -0.05554555744296865 0.095193863273797641 0.066647420694531292 0.039322725449169205 -0.07187532985072187 0.14883849617754319
leaf_weight=10.419648572802545 107.28442026674747 18.734143182635307 43.878132373094559 8.9668187573552114 18.922145061194897 9.5790966525673849 30.520530857145786 11.305906474590303 19.879296846687794 4207.210104174912 11.522694669663908 21.206141576170921 30.919276759028435 333.18475156277418 95.400338903069496 10.057418964803221 20.551954418420792 17.510190568864346 10.662673644721506 19.918253891170025 73.537461340427399 7.2643132656812659 15.952021911740301 10.96120762079954 14.563276477158068 11.906473994255064 9.5857984945178014 186.30219837278128 53.853042013943195 7.7617591321468344 6.9220179840922347 618.02268493175507 94.812133960425854 8.0140751600265485 9074.8854371830821 6.2625814452767399 7.3452162966132155 479.60573276877403 16.357167609035969 8.1306088566780073 13.808720640838144 6.7604361474513999 20.834534168243408 18.702971339225773 5.6048278808593741 7.6171123608946791 12.512375287711619 122.83312878757715 9.9990514144301397
leaf_count=64 510 142 291 60 182 102 192 64 197 17243 116 142 234 4145 1130 111 161 157 109 197 729 62 129 116 146 134 84 919 576 51 71 7329 1081 85 116493 74 63 6012 197 94 128 59 95 224 50 45 102 1343 93
internal_value=-0.00227836 0.160633 -0.0718123 0.0440441 0.0815477 -0.0744285 -0.0344191 -0.0441186 0.119847 0.174462 0.134229 -0.0520511 -0.0782203 -0.0486449 0.00575741 0.0132098 0.147611 -0.0610638 0.111368 0.0788184 -0.0335263 -0.0651239 0.175412 0.0954779 0.120084 0.0492069 -0.052744 0.159419 -0.029478 0.0495634 -0.0715948 -0.0675697 -0.0273415 -0.046381 -0.0797707 -0.0601482 -0.0668141 -0.0719897 0.0342951 0.0620842 0.00434653 0.0342975 0.175942 -0.0752517 -0.00357372 0.00318622 0.169878 -0.0642455 0.111632
internal_weight=15988.4 4779.19 11209.2 510.965 369.579 11101.9 969.641 915.1 277.308 4268.23 257.428 864.661 10132.2 520.072 155.657 103.84 238.506 760.822 54.5408 50.4388 92.2716 737.609 4244 32.1673 45.4826 23.2124 141.386 219.367 71.6722 17.8192 364.415 730.345 112.322 110.175 9612.16 537.279 504.661 489.185 32.6188 15.4758 24.2284 14.7745 4228.04 357.493 24.3078 19.1398 198.815 132.419 16.2616
internal_count=162133 21739 140394 4080 2593 139884 10612 10212 1722 17659 1525 9823 129272 6144 1654 996 1343 8827 400 389 871 8629 17467 258 380 198 1487 1182 738 162 4490 8567 1238 1274 123128 6635 6271 6114 364 157 192 144 17338 4419 274 161 1021 1427 167
is_linear=0
shrinkage=0.0758795


Tree=6
num_leaves=50
num_cat=0
split_feature=64 18 1 33 10 64 29 34 71 28 10 13 1 33 34 18 1 12 64 29 13 39 1 10 58 29 13 18 40 12 20 29 47 40 28 56 7 47 17 34 13 49 37 1 10 33 2 47 1
split_gain=27164.8 1182.61 873.205 325.934 274.058 265.469 217.352 207.886 156.504 141.877 122.819 80.1803 76.6227 75.9705 126.912 68.5265 96.3327 68.2034 81.8555 94.5173 107.982 67.4224 69.2087 57.3155 56.8695 47.8164 45.6454 33.4501 33.1821 35.6666 28.9863 28.0076 60.541 63.881 34.2581 33.9171 26.9808 22.1031 21.0564 32.9374 21.1525 17.9365 17.7435 20.0776 17.5883 16.5412 24.1074 15.4115 15.1276
threshold=-2.1590733653924539 -1.6635033092423186 -1.5194799869636664 -0.063801399891944638 -0.65016236268447869 -1.1707860407355499 -3.1402367093723798 -0.024608678149581547 0.77393448064737513 -0.97815990198795721 -0.035115032445221288 -0.22124081670408816 0.73519475387346989 0.50483216918917895 0.23513577331809651 -0.52339591039627509 -0.37287803465895591 1.7781851192803517 -0.28995866656328356 0.030557866232203953 -0.24502275436678148 0.26947530217284993 -0.91875266199155448 0.73294350037410416 -0.6496186161482137 1.1043779053114273 -0.0069432664365905493 1.9735640313874001 -0.37949217833667859 -0.1429009359078254 -0.32488132674492293 -1.3027766414077722 1.0538236824494904 -0.37949217833667859 0.25414552515031424 2.0462992090992196 7.8581944444444458 1.0786117944235967 2.1893734261349258 -0.60070000661024681 -0.13398808757360292 -0.75115796320174033 0.59803613205913286 -0.7877627157187268 -0.069520178853270886 0.13291226345364246 0.81737723511808791 0.85484311519278189 -2.1301530651679497
decision_type=2 2 2 2 2 2 2 2 2 2 2 2 2 2 2 2 2 2 2 2 2 2 2 2 2 2 2 2 2 2 2 2 2 2 2 2 2 2 2 2 2 2 2 2 2 2 2 2 2
left_child=2 7 13 8 24 6 23 -2 12 10 11 -8 25 -1 -15 16 -11 31 19 20 -19 -6 27 26 -5 30 -3 -23 29 -17 -4 32 33 45 -34 -35 -13 42 -20 40 -40 -37 43 -30 -18 46 -7 -12 -16
right_child=1 5 3 4 21 17 9 -9 -10 15 47 36 -14 14 48 28 44 18 38 -21 -22 22 -24 -25 -26 -27 -28 -29 37 -31 -32 -33 34 35 -36 41 -38 -39 39 -41 -42 -43 -44 -45 -46 -47 -48 -49 -50
leaf_value=0.15957471809179991 0.18266736563481381 0.15201131755334171 0.028225289826786751 -0.016530345073382951 -0.070267669408086153 0.1083224776113943 0.15842365350570947 -0.042631828234967591 -0.039926411385152412 0.14174341539192289 0.025558127819060542 0.07309618427970091 -0.019405105216027532 0.13912654119254322 0.030251164116962402 0.07548300853556611 0.037209703915298313 0.14783565760968942 -0.071501175860908178 -0.062915128087218483 -0.027574587537775634 0.13545933515597616 -0.048438484144255264 -0.035022581544060898 0.12322247189546118 0.014805488736831717 -0.0021547172267471584 -0.01177168360388021 0.062305401818396819 -0.052251485979190819 0.1690128070765789 -0.080251882593451243 -0.035045527559184678 -0.077258783999361272 0.091955378943426883 0.059416664769526062 -0.047108628838988371 0.036247345431950635 0.10503669034515456 -0.058898903951498327 -0.028980318498152979 -0.042744346258647953 -0.071222487437486187 -0.045041357161679771 -0.064769435859397123 -0.033287391453408637 -0.02987972500333877 -0.068932860967128889 -0.050565910762505877
leaf_weight=4170.914608374238 115.4825973585248 41.923784136772156 13.651043877005575 17.305980876088142 150.63465847820044 13.262940034270292 36.271570391952991 25.184192925691605 27.374206975102425 15.845594570040701 6.8045003414154044 8.4184381961822528 13.858133949339388 71.978016436100006 13.664100572466849 14.820120915770529 5.958980329334735 31.757491610944271 335.57850377261639 55.148555532097816 35.180457882583141 19.375930353999141 34.369851686060429 12.951222240924833 88.96923154592514 16.43777073174715 13.129376776516436 10.360648617148398 7.7149869948625591 18.411277957260609 182.16841725260019 8469.1310180127621 16.594859674572945 426.56441234052181 16.319665722548962 12.200609967112543 20.276522442698479 6.1846297904849044 9.1290988400578481 21.843392804265022 5.4360649511218062 10.212450027465819 624.6287303045392 17.121493890881538 32.451585076749325 6.6850067302584639 5.6632188558578482 42.345075152814388 26.156949490308762
leaf_count=16804 521 243 114 133 1722 138 219 288 296 122 59 49 132 323 70 125 55 237 4354 708 414 117 350 142 443 127 112 83 78 229 825 116323 203 5706 160 122 236 49 80 253 68 128 7702 211 405 86 71 498 200
internal_value=-0.00231526 -0.070749 0.145989 0.0569091 0.00535408 -0.0737464 -0.0344117 0.141903 0.119696 -0.0450152 0.0316262 0.0951232 0.139968 0.157789 0.0841259 -0.0570716 0.0215344 -0.0775496 -0.0483087 0.00507612 0.0624659 -0.0436333 0.0192599 0.0886641 0.100551 0.150925 0.119259 0.0919302 -0.0635163 0.00749056 0.161025 -0.079106 -0.0588731 -0.0658049 0.0329027 -0.0725293 -0.00189181 -0.0672324 -0.0656622 -0.00746803 0.0609663 0.0125096 -0.0687489 -0.00289207 -0.0440765 0.0393287 0.0689736 -0.0532194 -0.0214753
internal_weight=15393.9 10536.6 4857.22 574.506 321.016 10396 925.258 140.667 253.49 857.254 114.116 64.9665 226.115 4282.71 111.799 743.137 54.2562 9470.71 494.074 122.087 66.9379 214.741 64.1064 68.0044 106.275 212.257 55.0532 29.7366 688.881 33.2314 195.819 8976.63 507.503 474.589 32.9145 448.977 28.695 655.65 371.987 36.4086 14.5652 22.4131 649.465 24.8365 38.4106 25.6112 18.9262 49.1496 39.8211
internal_count=162133 140394 21739 4342 2848 139585 10534 809 1494 10037 1061 504 1198 17397 593 8976 582 129051 6114 1359 651 2272 550 497 576 1066 355 200 8394 354 939 122937 6614 6251 363 5956 285 8040 4755 401 148 250 7991 289 460 295 209 557 270
is_linear=0
shrinkage=0.0758795


Tree=7
num_leaves=50
num_cat=0
split_feature=64 35 18 59 59 64 12 66 13 14 16 24 59 59 20 12 35 64 61 16 47 61 59 19 64 38 44 58 16 59 18 34 16 2 48 35 24 38 35 24 59 16 44 58 28 28 44 8 28
split_gain=23709.4 1093.31 951.947 275.882 513.934 218.686 173.023 169.241 150.812 179.83 166.446 107.44 98.611 186.537 90.615 67.5397 95.1747 126.166 52.1425 51.8734 46.7425 45.4293 50.0591 40.8132 37.9318 37.8551 33.2534 33.0521 31.5554 31.0606 28.6296 25.5643 35.6838 25.2903 24.9727 24.9221 22.7615 41.2455 20.4116 20.2873 19.1549 15.1015 14.6104 61.4329 25.3735 24.5918 10.2417 7.47292 7.22019
threshold=-2.0430568232683624 -1.2106752333347528 -1.6635033092423186 0.99954014038212347 1.0000000180025095e-35 -1.1421907062873038 4.3467430745015134 0.040684579148598458 -0.19847814509972567 21.462083333333336 0.54942281532150083 23966.500000000004 1.0000017270376704 1.9901232371557855 -0.24571331685337522 1.6302962131414138 -0.49209105530033154 -0.16307062813002651 108674.13123192578 0.54071458305514064 1.0786117944235967 44073.4361776972 2.0000824542294144 0.29210989928014369 -1.5700221569900912 -1.4060400571184963 3.4379746074449606 1.183892133460807 -1.856683879360171 2.9997789457811455 1.7583158081995343 0.71173809642072505 -1.5843729991167816 -10.171186788643455 1.2304023496453367 -0.89623692032073909 104739.50000000001 4.6938411086028378 0.056487907416178713 47319.500000000007 3.0005308145191525 -0.70466975736132664 2.9492684138064575 -1.7728697102711692 0.53556067012739328 -0.016309713105337197 1.6719902768835253 1.0898483895759101 -2.0433671414545347
decision_type=2 2 2 2 2 2 2 2 2 2 2 2 2 2 2 2 2 2 2 2 2 2 2 2 2 2 2 2 2 2 2 2 2 2 2 2 2 2 2 2 2 2 2 2 2 2 2 2 2
left_child=1 14 7 4 -3 6 8 -2 9 10 11 27 -5 -14 -1 33 17 19 -11 34 26 -15 -23 -13 41 -8 47 -4 -19 -24 36 -16 -33 38 -17 -28 -18 -38 -7 -12 -31 -20 -35 44 45 -44 -42 -10 -30
right_child=2 3 5 12 -6 15 25 -9 20 18 39 23 13 21 31 16 30 28 24 -21 -22 22 29 -25 -26 -27 35 -29 48 40 -32 32 -34 42 -36 -37 37 -39 -40 -41 46 -43 43 -45 -46 -47 -48 -49 -50
leaf_value=-0.02079144382933415 0.16086936624372836 -0.074276787570849129 -0.044432968937274372 -0.075083202968060966 0.15378270192072921 0.075657199226865327 -0.017612794475233767 -0.055046176095749404 -0.078870407827022565 -0.072860176800979393 -0.068720146541948787 0.18587770151373489 0.14437361180224551 -0.06256890246678444 0.14745345621658831 0.15283560839454363 -0.078532405974094555 0.044875855012110888 0.10587175424483217 -0.040632650462988605 0.067805696192737214 -0.05442134566740555 0.12978170836453221 0.018878161369731503 -0.048351412384023407 0.13359161474417347 0.073831676385103143 0.086187546261559056 0.0050331316013722616 -0.04792759062969075 0.040081680151453802 0.10676474558860183 -0.012189340509737771 -0.079656329262314141 0.0050940530118413034 -0.045499922273380344 -0.055015240267224846 0.10550319954730693 -0.04338439637025452 0.042169519300546909 0 -0.0091045968618504187 -0.011641539847859005 -0.068553301393375718 -0.039934295490104119 0.13101906183710191 0.083443538920204077 0.00074557303523476533 -0.065236504410490753
leaf_weight=16.214778169989586 112.04847259819508 73.996729016304016 25.877146676182747 100.75371063500643 185.84913042932749 5.888225823640826 9.4038732573389989 20.445774063467979 467.08579751849174 148.41625503450632 44.125462837517262 53.170847281813622 40.041884414851665 78.504843294620514 4297.6893251165748 30.411465510725975 314.86008553206921 12.744618654251097 14.777462966740133 8.8491180092096311 7.0926435291767111 28.805142134428024 13.332674309611319 12.90099650621414 17.695229604840279 32.057856693863869 9.8663523644208926 7.7939322963356963 6.6713227704167357 11.696579195559023 7.6354476287960997 49.904242753982544 16.280140787363052 7841.5970164686441 9.416124723851679 13.409944631159304 18.774659939110283 5.2128967344760886 10.573724977672098 4.9704504311084738 15.628589108586313 6.442034311592578 8.3367617651820218 436.33930972963572 8.9808272048830968 9.4829406663775444 9.7708223015069944 5.6107250601053229 86.926353476941586
leaf_count=157 507 835 288 1124 878 59 97 253 6242 1890 569 338 208 859 17311 196 4417 116 109 95 57 300 70 116 232 174 73 40 79 120 77 208 107 115189 88 162 249 44 136 48 148 71 108 6225 114 66 53 71 1160
internal_value=-0.00233975 0.133177 -0.0704425 0.0324913 0.0883726 -0.0732379 -0.0365588 0.125905 -0.0443868 -0.00463914 0.0557164 0.10911 -0.0171249 0.0140982 0.145913 -0.0768548 -0.0480488 0.00121211 -0.053161 0.0933467 -0.0703337 -0.024501 0.0151643 0.159827 0.0206298 0.101301 -0.0735264 -0.00170829 -0.0444322 0.0578088 -0.0697047 0.146582 0.078891 -0.0785339 0.125965 0.0100077 -0.0732428 -4.67684e-05 0.00884494 -0.0520902 0.0113073 0.0769701 -0.0787214 -0.0616265 0.0391041 0.0806352 0.0451305 -0.0778374 -0.0597948
internal_weight=14774.4 4938.47 9835.89 558.38 259.846 9703.4 880.697 132.494 839.235 336.17 148.839 99.7429 298.534 197.781 4380.09 8822.7 501.502 155.019 187.331 48.6767 503.065 157.739 79.2338 66.0718 38.9147 41.4617 495.973 33.6711 106.342 50.4287 346.483 4363.87 66.1844 8321.2 39.8276 23.2763 338.848 23.9876 16.462 49.0959 37.096 21.2195 8304.74 463.14 26.8005 17.8197 25.3994 472.697 93.5977
internal_count=162133 22378 139755 4595 1713 138995 10577 760 10306 3701 1399 782 2882 1758 17783 128418 6521 1734 2302 379 6605 1550 691 454 412 271 6548 328 1355 391 4787 17626 315 121897 284 235 4710 293 195 617 321 180 121702 6513 288 174 201 6313 1239
is_linear=0
shrinkage=0.0758795


Tree=8
num_leaves=50
num_cat=0
split_feature=1 62 62 1 35 29 18 24 35 24 59 29 58 62 35 28 16 1 43 1 38 33 10 1 62 18 16 20 59 24 34 44 18 7 66 11 34 17 53 35 47 20 24 7 71 47 7 33 57
split_gain=19633.9 1260.35 981.187 671.057 422.387 225.984 193.118 151.312 115.906 115.706 110.208 102.982 82.6376 131.378 114.313 81.3521 79.582 84.441 67.9185 64.3071 61.752 60.2894 55.8436 54.9762 165.852 114.703 103.901 70.4086 51.4963 51.2877 48.5617 43.1884 36.3612 33.3318 31.6969 29.4366 28.8771 26.1867 25.6338 19.6757 18.5171 23.733 18.1633 18.1191 15.4276 14.812 46.4817 14.2409 13.5491
threshold=-1.6838401191810177 1.021322452303288 0.0099644420421457509 0.11656291854171157 -0.24447192565325795 -0.62130799781163171 -1.9372777336900142 5120.5000000000009 0.041169499532357205 45405.500000000007 1.0000000180025095e-35 -1.7250087935954663 1.6909813284362014 0.26078925657787938 -0.18183108812089147 1.1548660988650989 -0.31984970216581893 1.0234923851506508 -0.63521616052254182 -0.48202696025493968 -1.4060400571184963 0.11226781072553346 0.77954352859727238 -0.91875266199155448 0.16128191885769874 1.2022842845025628 0.35150704814235822 -0.39341566816038981 0.034780539412167855 54337.500000000007 -1.3129438582521842 0.58328544051164466 3.237427691100931 20.569583333333338 0.46727788015094601 -0.62029253394505723 -1.0846271085527588 1.8302600209821132 -0.63729318878142294 -0.73290772595958387 0.99888359310711905 1.0146785320655407 104739.50000000001 1.580277777777779 0.46687015524776593 1.0330112969062624 21.351228050735561 2.6120512430057894 -0.075377239434279139
decision_type=2 2 2 2 2 2 2 2 2 2 2 2 2 2 2 2 2 2 2 2 2 2 2 2 2 2 2 2 2 2 2 2 2 2 2 2 2 2 2 2 2 2 2 2 2 2 2 2 2
left_child=2 6 30 4 7 9 19 -3 47 37 -9 29 23 -14 21 28 17 18 48 -2 -12 -15 32 24 45 26 27 -26 -11 -6 31 -1 -22 -27 -29 -35 -19 -5 44 -39 41 -30 -16 -24 -13 -8 -47 -4 -7
right_child=1 3 8 5 11 16 12 10 -10 15 20 38 13 14 42 -17 -18 36 -20 -21 22 -23 43 -25 25 33 -28 34 40 -31 -32 -33 -34 35 -36 -37 -38 39 -40 -41 -42 -43 -44 -45 -46 46 -48 -49 -50
leaf_value=0.11159470027652517 0.12980886091813193 -0.050592522977958368 0.13731966338406448 -0.067821871806321515 -0.039031169629141639 0.16004160277156498 -0.078001388563855842 -0.047951670315585414 -0.024193534299308789 -0.019163807612569337 -0.011325011060844735 -0.031789502690322206 -0.069474315186670285 0.14811581070471583 -0.060510372075385621 -0.040872547620114753 -0.077177253257890197 0.055190700593537763 -0.030068710500420183 -0.046849403276847904 0.15934471220301125 -0.0089730207273729899 0.065435510427722623 -0.078109115584633307 -0.037608779924189234 -0.067546019599616328 -0.054822491162465944 0.17777200883053812 -0.018378343124247042 0.14204140219997399 -0.073059280149296177 -0.046916774931055574 0.054187388781230458 0.07604609455204174 0.014785947646805441 -0.047382914402947569 -0.070434669857314475 0.079449354813535558 -0.073616621483725608 -0.037334528465841253 0.17886654206680461 0.10264721549473561 0.040211935503700939 -0.043483493876836005 0.07233467432303467 -0.058037937134441393 0.088676025358629035 0.041083673362686694 0.034347872528546861
leaf_weight=10.567224949598314 28.947459578514099 25.150139197707176 4258.9820142537355 41.614220902323723 8.6136248260736483 15.422662161290647 574.84123559296131 15.419994972646235 22.95915412157774 10.305980660021303 13.958208367228506 9.8477401211857813 201.26923125982285 36.771341226994991 46.834258005023003 17.319514833390713 432.95093057304621 5.1778059825301161 25.294830121099949 11.559500232338904 273.61638683825731 18.271108075976372 7.4686997979879406 7252.495160497725 10.01238242536783 78.253961354494095 21.944163918495178 39.138597086071968 10.374180950224401 17.357706256210804 131.36228292435408 12.706743858754633 34.133570283651352 15.383037529885771 10.689472414553164 12.425401948392389 75.534572213888168 9.057121470570566 111.68512625992298 7.9094675332307807 38.734593167901039 16.456406019628048 5.7727602943778029 10.586877308785914 6.2971352338790885 51.975712113082409 7.3219730183482161 19.187181852757931 15.152070984244345
leaf_count=80 127 332 17303 567 113 97 8799 160 257 120 159 121 2953 252 671 207 6380 30 245 128 1282 207 38 112364 147 1001 328 239 122 103 1880 195 179 121 124 155 1110 53 1582 97 292 70 57 145 52 797 43 126 123
internal_value=-0.00234929 -0.0630214 0.129307 0.00782622 0.0717006 -0.0397028 -0.0735824 0.113902 0.136065 0.040688 0.126598 -0.0328956 -0.0744064 -0.0342426 0.0315187 0.0902533 -0.0614905 -0.00982449 0.0565839 0.0791272 0.135641 0.101149 0.142199 -0.0758993 -0.0557372 0.00648251 0.0703114 0.117973 0.121828 0.0859724 -0.0556452 0.0344203 0.149623 -0.0439443 0.150928 0.0215318 -0.0573147 -0.0389744 -0.0612923 0.0290694 0.144234 0.0615453 -0.0446161 0.00652885 0.0181228 -0.0740758 -0.0302802 0.136982 0.120208
internal_weight=14135.1 9679.35 4455.76 1255.44 534.135 721.304 8423.91 380.334 4301.13 151.771 355.184 153.801 8383.4 308.919 107.649 93.1907 569.533 136.582 55.8696 40.507 339.764 55.0424 325.806 8074.48 821.986 187.847 81.7846 59.8405 75.8712 25.9713 154.636 23.274 307.75 106.062 49.8281 27.8084 80.7124 58.5808 127.83 16.9666 65.5652 26.8306 52.607 18.0556 16.1449 634.139 59.2977 4278.17 30.5747
internal_count=162133 142292 19841 13779 4266 9513 128513 2295 17686 1528 1963 1971 128258 4140 1187 811 7985 1605 465 255 1803 459 1644 124118 11754 2115 838 510 604 216 2155 275 1461 1277 363 276 1140 717 1755 150 484 192 728 183 173 9639 840 17429 220
is_linear=0
shrinkage=0.0758795


Tree=9
num_leaves=50
num_cat=0
split_feature=64 35 18 62 62 64 16 62 61 66 59 23 62 20 17 58 64 62 16 37 59 59 10 1 59 59 57 47 16 28 35 45 18 33 47 59 47 1 61 37 56 20 40 56 24 32 58 52 64
split_gain=18550.9 910.868 708.872 283.711 220.963 225.889 195.453 135.074 125.258 124.215 97.4843 89.6585 89.747 80.2872 71.0067 70.6919 58.687 109.246 55.3276 55.2993 59.9233 89.622 54.6004 43.5234 38.5991 76.6075 34.4284 75.712 35.0065 31.379 80.8442 48.8816 30.1109 44.1326 29.3695 28.4188 27.3691 51.4584 27.1841 26.9151 25.7355 25.1236 25.0145 21.8041 20.8764 19.5376 33.0167 19.0885 18.2562
threshold=-1.9353018588476056 -1.2106752333347528 -1.6635033092423186 0.53008515530770439 0.99641419696837896 -0.83766517895411075 0.54071458305514064 -0.29176768291522287 44073.4361776972 0.040684579148598458 1.0000000180025095e-35 -0.056014353552263647 -0.28249515541600645 -0.24571331685337522 1.4797251802598714 -0.48375430970255334 -1.1421907062873038 0.45735436844607791 -0.70466975736132664 1.4999927437071168 1.0000000180025095e-35 0.99954014038212347 0.71613983663253122 0.45505380787442495 0.99954014038212347 1.0000017270376704 3.3144099066634198 1.066902169535785 -1.4423520216735688 -1.7871439935635063 -0.94115439292253189 0.29602064812176315 1.8532992176395371 0.48489736582112059 1.0737851023485085 1.0179266992126943 1.0341454382342066 -0.38335556933244724 26070.310455424053 1.7998945748840927 0.89237072683080909 1.3783258814976505 -0.27043074811434825 2.2780219951254037 114947.50000000001 1.7319564508529413 1.8513900956563412 -0.29092711600770205 1.2300694908821517
decision_type=2 2 2 2 2 2 2 2 2 2 2 2 2 2 2 2 2 2 2 2 2 2 2 2 2 2 2 2 2 2 2 2 2 2 2 2 2 2 2 2 2 2 2 2 2 2 2 2 2
left_child=1 7 9 11 16 6 13 -1 18 -2 -10 -3 44 -6 29 23 17 36 -5 20 -19 -22 40 -16 -12 -26 45 28 -28 30 31 -7 -9 -34 -29 -23 -4 42 -15 -20 47 -35 -38 -17 -13 -18 -47 -14 -33
right_child=2 3 4 8 5 14 -8 32 10 -11 24 12 22 38 15 43 26 19 39 -21 21 35 -24 -25 25 -27 27 34 -30 -31 -32 48 33 41 -36 -37 37 -39 -40 -41 -42 -43 -44 -45 -46 46 -48 -49 -50
leaf_value=-0.056201008654058117 0.13681198060610314 -0.07465452392252632 -0.075956463016940284 -0.063607083947897478 -0.01679667820856065 -0.040462646956363195 -0.068301810712633249 0.13000395264832312 -0.051642363715155438 -0.0548067604572922 0.1364445030210461 -0.070213545044803233 0.0038665628593273645 0.026582577377030132 0.12315848034374935 -0.057411745187409463 -0.079579808603448349 -0.055335882962913162 0.09526103921438786 -0.049610753140407776 0.1625837385432585 -0.056161840447039868 -0.041436287303462424 -0.027538317604309817 -0.052635431467506828 0.097401812116129971 -0.0086609348731693757 0.16518099220532856 -0.073037348804433008 -0.070835639135413048 -0.069100096260616042 0.16657682571459634 0.10715471014370664 -0.04927240028825354 -0.019583237848513055 0.047872254642965281 -0.023564348445771429 -0.063260549497183211 0.14810473932430165 -0.022993921757316908 -0.012635039702594353 0.055363070462184652 0.11281382430087193 0.03405930209597776 0.042176302383209525 -0.053639577487622922 0.09268632291370088 0.13083639437778394 0.0055604231322401946
leaf_weight=18.026534333825111 104.72076112776995 128.84361190348864 432.58418199792504 42.308245077729225 25.475159361958504 9.536183252930643 55.008462976664305 4164.3692854419351 17.766146026551723 18.236022394150496 144.64974987506866 51.624588709324598 9.3474627360701543 18.353116538375616 24.909239567816257 62.467731520533562 6672.8274506740272 21.374219354242086 20.698589533567429 57.410900250077248 26.42996934056282 19.496571563184261 16.69761748611927 11.804438717663286 19.858639888465405 66.544423557817936 68.98868590220809 4.7589049860835058 198.66330247372389 524.27895309776068 52.36795000731945 11.356004718691112 72.050797663629055 17.406951583921909 4.6585690192878246 23.981860265135765 7.7257344461977508 39.254666559398174 70.143878541886806 12.505692601203917 8.6244882680475694 18.05137474834919 11.63707400113344 12.179595384746788 4.8527011126279822 17.93738599866629 4.6416021734476081 41.663029871881008 6.5899522304534903
leaf_count=201 466 1664 6644 481 298 143 787 17166 185 250 605 703 89 151 167 875 112297 276 116 752 164 254 221 152 193 361 930 66 3184 8307 838 106 318 113 73 233 100 578 388 114 87 84 92 139 41 269 58 275 79
internal_value=-0.0023545 0.115808 -0.0692485 0.02652 -0.0719 -0.0354044 0.0417882 0.127916 0.0731478 0.106321 0.0983906 -0.031606 0.0118592 0.0963537 -0.053978 0.00127517 -0.0760895 -0.0524 -0.0110708 0.0041849 0.0398272 0.0723766 0.0628355 0.0777265 0.11156 0.0608002 -0.0781896 -0.0486579 -0.0573952 -0.064109 -0.0168353 0.0742301 0.128815 0.0761222 0.105752 0 -0.0693928 -0.0167569 0.127973 0.0541274 0.094229 0.00340842 0.0663616 -0.0399687 -0.0555558 -0.0793407 -0.00479033 0.112247 0.130164
internal_weight=13495.7 4875.89 8619.8 585.985 8496.84 884.471 168.981 4289.9 324.331 122.957 248.819 261.654 132.81 113.972 715.49 111.361 7612.37 639.895 75.5125 148.694 91.2826 69.9084 76.3326 36.7137 231.053 86.4031 6972.48 277.069 267.652 604.129 79.8501 27.4821 4271.88 107.509 9.41747 43.4784 491.202 58.6175 88.497 33.2043 59.635 35.4583 19.3628 74.6473 56.4773 6695.41 22.579 51.0105 17.946
internal_count=162133 23017 139116 5135 138400 12430 1624 17882 2055 716 1344 3080 1416 837 10806 1333 125970 9093 711 1679 927 651 672 319 1159 554 116877 4253 4114 9473 1166 328 17681 515 139 487 7414 770 539 230 451 197 192 1014 744 112624 327 364 185
is_linear=0
shrinkage=0.0758795


Tree=10
num_leaves=50
num_cat=0
split_feature=35 62 16 35 47 71 59 62 35 66 47 62 16 47 20 45 59 59 17 65 59 29 45 13 29 16 62 34 28 57 71 34 20 47 44 41 45 47 16 13 47 13 41 47 39 4 34 20 46
split_gain=13785.5 1263.82 1182.99 577.595 410.523 230.745 218.238 165.928 398.326 165.891 159.184 141.997 140.119 101.421 99.629 85.9814 76.3 160.148 73.9491 70.9957 67.2844 48.5644 61.7156 47.5004 44.5809 43.8356 101.353 113.986 32.7925 30.7855 30.5437 29.5591 27.9123 26.7896 23.6577 21.048 33.6253 64.2322 47.4071 36.8742 39.729 20.7494 20.4844 20.1932 64.5464 42.8855 19.8949 19.7742 19.1175
threshold=-2.3036693184678314 0.99641419696837896 -0.3009058506275763 -0.35151460431418263 0.98933425235368466 0.63219190183030538 1.0000000180025095e-35 0.44827246438146778 -0.60849096029477323 0.74531720105130228 0.98278514378777848 -0.039357902196531395 0.54071458305514064 0.99888359310711905 -0.64280369073373855 -0.12243021670948219 0.99954014038212347 1.0000017270376704 2.2679174552835333 -1.882442017517155 1.0000000180025095e-35 -2.1340688277261575 0.82668148254907969 -1.0829814000918254 0.61098021780754397 -1.4423520216735688 0.10775909165974847 -0.87104922334414636 -1.6693577434381517 10.338981786792976 0.49405910410943066 -0.8059165051122924 0.50963855670436498 0.6536712059566272 1.6125574952735664 -0.2457948398610085 -0.92051905962016056 0.99122533248946876 0.051806118410728012 -1.2671185420212769 1.0786117944235967 -0.19159060649902801 0.10324920653295912 1.0708254612118799 3.7343598047991402 -0.57956273132693825 -2.1672183318158318 0.20332315451724722 0.075853727812558613
decision_type=2 2 2 2 2 2 2 2 2 2 2 2 2 2 2 2 2 2 2 2 2 2 2 2 2 2 2 2 2 2 2 2 2 2 2 2 2 2 2 2 2 2 2 2 2 2 2 2 2
left_child=2 7 5 4 18 11 -6 25 10 21 19 -1 16 28 -12 -11 -8 -18 32 -9 -16 22 -5 -22 34 26 -2 48 33 -21 -19 -20 -3 -4 -17 46 37 -37 -39 42 -41 -34 -38 -27 -45 -46 -10 -13 -28
right_child=1 3 13 9 6 -7 12 8 35 15 14 47 -14 -15 20 24 17 30 31 29 23 -23 -24 -25 -26 43 27 -29 -30 -31 -32 -33 41 -35 -36 36 39 38 -40 40 -42 -43 -44 44 45 -47 -48 -49 -50
leaf_value=-0.035825915085444478 -0.073888924989565979 -0.073099947844444471 0.081194224093913983 -0.057238920094624883 -0.066283551277114827 -0.045885233664430106 0.14688273941773083 0.089294513993958435 0.016634136707206516 -0.046836922066188356 -0.048222651133586258 0.017933797389475887 -0.045975863244438059 0.076573521233350123 -0.04264389004692478 0 -0.059165350820213042 0.12003496196114538 0.11507910735974267 -0.074291176784778895 -0.003259977800251666 -0.075108027722523188 0.099128914634985382 0.1232429447182898 -0.041737025070881617 -0.077770079351988403 0.15188491956557632 -0.040494092372111594 -0.075840158454567291 0.04605531316514111 0.0038339980609584309 -0.021867591513170685 0.040098638984914226 -0.045790312460371164 0.11887245107810052 -0.062817602908333575 0.097756240118126614 0.11726412373962276 -0.031962764897764943 -0.071247577660876582 0.057597526790647065 -0.043448873041215988 -0.031955471026106873 -0.061035693425080917 -0.031592666063044977 0.15761351146307859 -0.073902237689178599 0.12285033901696707 0.0087543687948299382
leaf_weight=28.948684986680746 182.83749798685312 114.54292757436633 9.3320006988942641 26.458459995687008 38.885023508220911 43.598898760974407 255.10373654216528 13.279230523854492 10.465341385453938 42.43674947693944 28.214347895234823 14.582192186266182 26.923238385468721 24.867871858179569 14.038789290934799 11.2431498542428 34.977554935961962 132.18971943855286 15.95907272025943 93.166665434837341 18.202941909432411 383.00647542625666 16.109688520431519 131.03269818052649 9.8276144415140134 5386.4942557550967 22.002020582556728 56.490520257502794 201.48639462143183 7.585436336696147 15.862576074898241 9.8768634907901269 23.151417084038258 11.918143115937708 53.616641957312822 40.33730061352253 6.2849501706659776 22.318224005401134 14.689891107380388 261.46584674343467 7.916857734322547 28.234761197119951 6.5308722779154778 146.7764132283628 7.8615747690200806 6.2145996540784818 876.15536606684327 3912.413864325732 8.6825581565499288
leaf_count=448 3092 1722 110 348 556 671 1132 92 158 564 460 121 422 134 218 99 445 735 80 1589 237 6345 103 805 145 95104 140 811 3530 62 157 98 164 175 290 684 65 183 238 4359 80 387 112 2503 129 62 15238 16639 92
internal_value=-0.00235489 -0.0575453 0.109375 0.0132712 0.058748 0.119338 0.0942836 -0.069454 -0.0468472 -0.0449544 0.0300363 0.121267 0.108769 -0.0499773 0.0711977 0.0329284 0.119083 0.0752208 -0.0344552 -0.038872 0.09348 -0.0667197 0.00783234 0.108201 0.0789365 -0.0753978 -0.0428266 0.0226523 -0.0666342 -0.061899 0.108766 0.0691024 -0.0534604 0.0158651 0.100584 -0.0658089 -0.0475467 -0.0022271 0.0622376 -0.0593802 -0.0656261 -0.00471912 0.0433742 -0.076906 -0.0452149 0.0782228 -0.0726338 0.122512 0.123348
internal_weight=12854.6 8607.45 4247.15 1238.41 695.707 3999.54 503.942 7369.04 1551.68 542.699 305.52 3955.94 465.057 247.604 191.489 117.124 438.134 183.03 191.765 114.031 163.274 425.575 42.5681 149.236 74.6874 5817.36 270.013 87.1751 222.737 100.752 148.052 25.8359 165.929 21.2501 64.8598 1246.16 359.544 77.3454 37.0081 282.199 269.383 51.3862 12.8158 5547.35 160.853 14.0762 886.621 3927 30.6846
internal_count=162133 140305 21828 13792 5898 17879 3447 126513 24580 7894 3463 17208 2891 3949 1720 1098 2469 1337 2451 1743 1260 6796 451 1042 534 101933 4135 1043 3815 1651 892 178 2273 285 389 21117 5721 1105 421 4616 4439 551 177 97798 2694 191 15396 16760 232
is_linear=0
shrinkage=0.0758795


Tree=11
num_leaves=50
num_cat=0
split_feature=1 62 62 35 1 18 66 65 24 18 62 35 29 62 65 1 35 18 41 24 34 48 66 17 11 18 33 34 10 4 13 20 12 24 50 19 12 7 1 65 32 24 7 41 24 4 17 1 59
split_gain=13840.9 1052.58 635.933 477.964 232.293 156.784 146.457 141.317 106.893 106.326 86.1456 78.8025 74.8236 73.6151 141.955 105.398 82.9426 68.2796 61.5687 58.1775 43.7659 40.1336 35.0679 34.5559 34.4031 33.0245 29.0943 37.1316 36.7725 27.5122 26.6613 25.7526 24.9097 32.1988 23.3631 20.7164 20.3222 18.6623 18.5563 22.4915 18.2089 18.3332 22.499 17.1581 23.5729 123.291 23.8434 16.9069 13.2621
threshold=-1.6838401191810177 1.021322452303288 0.0099644420421457509 -0.70028767933790825 0.11656291854171157 -1.6635033092423186 0.69091387354061773 -1.5010008779291486 5120.5000000000009 0.74520074615202181 0.073069238940286468 0.041169499532357205 -1.3829714681908174 0.49190488961282286 -1.7572261435796823 -0.77298074068849965 -0.13061992651662052 0.6430038413920165 -0.46143793011150686 45405.500000000007 -1.3129438582521842 0.28651181747511462 -0.048034653393697342 -1.047053925790858 -0.80487221897214922 0.22229850788086303 0.89053619547179641 -0.34593159251021055 0.76379320588972466 0.94374373907537312 -0.0069432664365905493 0.49160999458453253 1.6302962131414138 59441.500000000007 1.0916237819909274 0.069038489225452859 12.485626433303359 14.603472222222225 -0.91875266199155448 -0.14147303341846587 1.7319564508529413 115585.50000000001 22.527916666666673 -0.26065501584283163 24604.500000000004 -0.97115012323514138 -0.40284684417656513 -0.32669966349814666 0.99954014038212347
decision_type=2 2 2 2 2 2 2 2 2 2 2 2 2 2 2 2 2 2 2 2 2 2 2 2 2 2 2 2 2 2 2 2 2 2 2 2 2 2 2 2 2 2 2 2 2 2 2 2 2
left_child=2 5 20 4 8 10 12 30 -3 -8 -2 -4 19 32 16 17 23 21 -11 -5 25 -16 24 -15 35 -1 28 -28 -10 37 -6 -26 40 -34 -20 -9 -24 -21 -35 -40 41 -7 -43 -17 -45 47 -47 -46 -19
right_child=1 3 11 6 7 13 9 22 26 18 -12 -13 -14 14 15 43 -18 48 34 29 -22 -23 36 -25 31 -27 27 -29 -30 -31 -32 -33 33 38 -36 -37 -38 -39 39 -41 -42 42 -44 44 45 46 -48 -49 -50
leaf_value=0.098208634033346842 -0.057776730415817427 -0.046961442648683939 0.11668751856115844 -0.059441885627291899 0.12020968426911932 -0.077783013526437544 -0.053132961934930244 0.12234408679650599 0.12829403521991001 -0.038101481247427758 0.11154131363690126 -0.021104488971776483 -0.069935328293026414 -0.018387888774962849 0.12095458006921923 -0.074137031191290781 -0.056965630846410667 0.0042794083867158028 0.11814341123558206 0.0080946231100775222 -0.070065622808128628 -0.018437281946454206 -0.069965756994487746 0.13031222061026043 -0.060498816317541775 -0.042703660513632953 0.09066216930613806 -0.038428147074964142 0.0057564196987757027 -0.028172357052333914 -0.0023159471684436757 0.042329444421346313 -0.064237538431080876 0.096611200203070541 0 -0.012833512687140272 0.028879318472444074 0.14058546524085588 0.07156663916931362 -0.049505475823779434 0.0013396465406524552 0 -0.062430218487113873 -0.074687413227463875 0.15146257279307637 0.0017838923435561055 -0.066890976152792964 0 -0.054493576478062529
leaf_weight=11.242356523871424 21.137838218361139 21.440824847668409 3980.4202291704714 23.770439334213734 42.864858914166689 5320.8912972100079 52.839394517242908 10.25796424970031 240.96499187126756 17.614873025566339 35.503253694623709 21.033243704587221 410.96916716918349 8.2323778010904771 26.608826108276844 840.85577374324203 21.768200371414423 30.911729279905558 63.039255049079657 10.54914525896311 108.85796619951725 14.119969319552181 97.981092307716608 35.362562954425812 31.005960576236248 10.906007464975117 19.37353390455246 16.276541944593191 16.631825659424067 7.2412804327905169 11.482938054949043 13.74900548160076 39.366948015987873 6.2844760529696968 11.603465147316454 6.8570671007037154 8.090182997286318 16.454921405762434 4.7805196531117025 17.032387156039473 15.764278102666138 43.753050245344639 122.4890358261764 116.7216993458569 13.497069220989944 35.287313241511583 122.0740194991231 4.9334389492869368 51.803441748023033
leaf_count=78 302 318 17429 337 227 100920 821 79 1104 186 183 257 7129 106 168 15655 369 354 322 100 1880 212 1506 227 522 197 96 118 184 88 121 145 665 62 93 95 65 123 44 273 253 670 2259 2157 89 588 2127 88 742
internal_value=-0.00235034 -0.0599911 0.110513 0.00713678 0.0589678 -0.0711115 -0.0383052 -0.000527404 0.100019 0.0269117 0.0483965 0.115908 -0.0586968 -0.0721595 -0.0550824 -0.0608108 0.0486951 0.00512028 0.0738186 0.0189961 -0.0509419 0.0769789 -0.0354985 0.102995 0.00879415 0.0348933 0.11195 0.0347387 0.120993 0.0754775 0.0968626 -0.0263427 -0.0761132 -0.0250529 0.101975 0.0803623 -0.0604315 0.104599 0.0308492 -0.00872556 -0.0766908 -0.0769247 -0.0467108 -0.0680148 -0.0486436 -0.0284169 -0.051936 0.123168 -0.0337234
internal_weight=12232.7 8100.24 4132.46 1151.06 536.977 6949.18 614.082 222.289 314.688 145.097 56.6411 4001.45 468.985 6892.54 1322.18 1256.81 65.3631 123.444 92.2576 58.0158 131.006 40.7288 167.941 43.5949 61.87 22.1484 293.247 35.6501 257.597 34.2453 54.3478 44.755 5570.36 67.4643 74.6427 17.115 106.071 27.0041 28.0974 21.8129 5502.9 5487.13 166.242 1133.37 292.514 175.792 157.361 18.4305 82.7152
internal_count=162133 142292 19841 13779 4580 128513 9199 2760 1820 1422 485 17686 7777 128028 22882 22180 702 1476 601 648 2155 380 2412 333 841 275 1502 214 1288 311 348 667 105146 1044 415 174 1571 223 379 317 104102 103849 2929 20704 5049 2892 2715 177 1096
is_linear=0
shrinkage=0.0758795


Tree=12
num_leaves=50
num_cat=0
split_feature=1 62 62 1 24 20 29 1 62 34 11 58 62 68 20 37 29 11 32 68 24 23 33 7 29 20 34 16 57 48 34 11 34 29 34 41 33 62 1 47 24 24 29 47 58 48 7 24 33
split_gain=12398.6 988.26 565.227 427.961 238.948 133.175 123.565 122.155 280.927 121.98 74.2972 70.2889 88.7808 69.1585 66.3671 65.9386 64.4697 60.6039 55.5558 49.5224 48.7007 47.0436 38.7612 38.4502 34.2424 33.5239 28.8974 28.6182 40.4624 28.1889 26.6116 24.6983 24.0209 23.0247 17.8123 17.0587 27.505 17.0417 37.2766 40.6024 87.6771 100.7 35.5293 17.1515 32.3074 16.4748 16.0466 14.4129 46.4686
threshold=-1.6838401191810177 1.021322452303288 0.11611148943162362 0.43845347204516005 25880.500000000004 -0.24571331685337522 -0.62130799781163171 -0.97310464611157199 0.10775909165974847 -0.13853580637138693 0.94187435160391442 2.0750692291897823 0.50318814657972732 -0.94408079015741497 0.22136731624127401 1.7998945748840927 -0.35956716368984137 0.97305325472302162 1.5212717301824585 0.80875151493630393 61355.500000000007 0.10334742188910927 -0.20745975893848967 20.750694444444452 1.0780166299131582 -0.24571331685337522 -1.755884584188333 -0.32918864526790981 -0.13806154256488967 0.24758649108903052 -1.193341104189346 -0.90704401429146497 0.21849373445398004 -4.0527210596217804 0.39109632146863521 -0.55082987769399583 -1.0447247091435845 0.48001955467507912 -0.3181625160617681 0.9846435933297637 30984.500000000004 24285.500000000004 0.23355236447708788 1.057745699694723 0.79484657112592538 -1.0925135220017472 18.520694444444448 115585.50000000001 -0.78123160419762649
decision_type=2 2 2 2 2 2 2 2 2 2 2 2 2 2 2 2 2 2 2 2 2 2 2 2 2 2 2 2 2 2 2 2 2 2 2 2 2 2 2 2 2 2 2 2 2 2 2 2 2
left_child=2 7 13 4 10 16 14 8 -2 15 26 37 18 30 31 29 32 -12 -13 24 -16 -11 -14 -23 35 -4 -3 28 34 -10 -1 46 -6 -21 -8 36 -7 47 39 -39 41 -41 -43 -40 -45 -37 -5 -9 -49
right_child=1 3 25 6 5 19 27 11 9 21 17 12 22 -15 20 -17 -18 -19 -20 33 -22 23 -24 -25 -26 -27 -28 -29 -30 -31 -32 -33 -34 -35 -36 45 -38 38 43 40 -42 42 -44 44 -46 -47 -48 48 -50
leaf_value=0.10343811487243761 -0.071309690360485456 0.041084590142173437 0 -0.028961613673745903 0.089799993602405315 0.092839421188999668 0.097581511556717612 -0.078491822984375167 0.14660428552806035 -0.062605495637726521 0.13342851201067454 -0.071227415123467058 0.086159099785369897 -0.070180028068900335 -0.019391468059607259 -0.026956371665495856 -0.055850338462297817 -0.046112437955094225 0.095001451672604223 0.059818760246663591 0.10543865412885563 -0.018282573136232695 -0.0374257369549943 0.10319574299552485 0.0032761192612153918 0.11175024637636012 -0.065914703537048869 -0.077282211235607232 -0.050256578356187319 0.016522243963814902 -0.017450042283114208 -0.064577854242620802 -0.029573008459442347 -0.052939548041256307 -0.018991655031833976 0.01390023759911142 -0.020742561285581405 -0.073699524297147906 -0.075543208870241199 -0.053142292810360439 -0.056022546614821769 0.15003912474874995 -0.0086556946089368005 -0.047672853449542044 0.080265360170543032 0.11954059532015722 0.091655577013724454 0.035712278033512575 -0.06703464250527183
leaf_weight=13.813303411006929 424.5311332270503 10.033435292541979 15.193647660315035 5.4801594205200654 29.134415686130524 17.085032153874636 10.993539020419123 4434.6678380705416 59.360935125499964 55.053364954888821 17.548042975366119 122.65181745588779 38.811070147901773 108.07824011519551 22.471174582839012 16.406908962875605 53.382668793201447 12.161102525889872 5.0503484494984141 9.6775518879294413 46.19077168777585 30.651640418916941 14.681647442281244 16.608518075197935 20.03126273304224 3838.0665039382875 118.43621227145195 290.28725737705827 70.479499958455563 14.872247017920015 14.7018761113286 41.195898152887821 7.6728619672358027 15.4135286770761 7.4982669055461875 12.258129224181173 17.605574160814285 97.945918664336205 814.80768939852715 25.897491294890642 97.317095655947924 30.563057109713554 8.4561805687844736 62.572291307151318 5.2349417954683295 276.75458504632115 4.6350239776074886 25.4195152297616 114.36798439174891
leaf_count=87 8403 72 166 82 231 78 111 90562 329 843 127 2279 352 1930 283 244 858 198 56 50 276 399 217 126 207 17427 1873 5457 1142 172 231 617 89 253 110 69 185 1849 16304 466 1647 208 138 1239 82 1355 56 357 2241
internal_value=-0.0023349 -0.058989 0.105923 0.00689393 0.0488753 0.0762524 -0.0448688 -0.0702782 -0.0372201 0.0374056 -0.0301397 -0.0736718 -0.0252286 -0.0432049 0.0208433 0.0975359 -0.00560607 0.0649677 -0.0587133 0.0960555 0.0664194 -0.0189221 0.0510422 0.0329917 0.103398 0.111306 -0.0551695 -0.0657707 -0.0242365 0.125524 0.0503809 -0.040194 0.063053 -0.00395304 0.0577093 0.109215 0.0415523 -0.0751589 -0.0647127 -0.0371288 -0.0121755 0.0518138 0.119398 -0.0723547 -0.0292463 0.115743 0.0407456 -0.0776317 -0.0470603
internal_weight=11622.2 7632.36 3989.85 1116.43 617.194 459.016 499.232 6515.93 617.485 192.954 158.179 5898.44 181.195 136.593 119.973 90.6401 90.1899 29.7091 127.702 368.826 68.6619 102.314 53.4927 47.2602 343.735 3853.26 128.47 379.259 88.9713 74.2332 28.5152 51.3111 36.8073 25.0911 18.4918 323.703 34.6906 5717.25 1142.79 260.18 162.234 64.9167 39.0192 882.615 67.8072 289.013 10.1152 4574.46 139.787
internal_count=162133 142292 19841 13779 5645 3375 8134 128513 10516 2113 2270 117997 2904 2248 1314 745 1178 325 2335 2197 559 1368 569 525 1894 17593 1945 6820 1363 501 318 755 320 303 221 1687 263 115093 21933 4308 2459 812 346 17625 1321 1424 138 93160 2598
is_linear=0
shrinkage=0.0758795


Tree=13
num_leaves=50
num_cat=0
split_feature=1 62 62 1 61 59 18 29 59 59 58 62 1 11 68 61 53 1 62 18 20 24 47 41 20 20 18 59 20 52 66 34 47 71 11 68 47 53 11 29 32 29 47 33 32 32 33 32 43
split_gain=11139.6 928.906 501.879 379.401 216.74 152.398 137.424 114.747 107.938 150.996 81.1856 100.778 69.7475 68.09 65.8955 60.4418 59.237 58.9927 134.098 73.5212 74.9828 58.2096 55.5789 52.4903 42.6864 41.7596 40.8247 35.6505 34.6227 32.4988 25.8554 24.1448 23.84 21.5831 19.7017 18.8492 47.3423 18.1895 16.0154 15.9748 15.6826 14.8606 14.5241 21.2034 21.5004 20.736 14.3165 20.3986 12.7713
threshold=-1.6838401191810177 1.021322452303288 0.12456142993433816 0.43845347204516005 26070.310455424053 1.0000000180025095e-35 -1.6635033092423186 -0.62130799781163171 0.99954014038212347 1.0000017270376704 1.6909813284362014 0.099875111397984412 -0.41361956372295311 0.94187435160391442 -0.87332778105550235 47725.728098654698 -0.42770852370083939 -0.91875266199155448 0.11611148943162362 1.2322991978751789 -0.39341566816038981 61355.500000000007 0.97531644977517118 0.070202202428868807 -0.26336780876266624 0.18577838066735333 -1.1004181080120277 1.0000000180025095e-35 -0.27221073737661394 3.3952338174709564 -0.032237402506508292 -1.5936174726985772 1.0330112969062624 0.63219190183030538 -0.63904875602021682 -0.49533026525288332 1.0341454382342066 1.5871631887971303 -0.91878930236072021 -0.40177260761690542 1.7319564508529413 0.89659513513774769 1.0786117944235967 -0.374552779401291 0.05670512640319441 0.23303447892378584 2.6120512430057894 1.2897278364589362 -1.226931810742838
decision_type=2 2 2 2 2 2 2 2 2 2 2 2 2 2 2 2 2 2 2 2 2 2 2 2 2 2 2 2 2 2 2 2 2 2 2 2 2 2 2 2 2 2 2 2 2 2 2 2 2
left_child=2 6 14 4 13 -6 12 21 -7 -10 17 40 -2 26 30 29 -15 18 35 20 -20 -5 -22 27 39 38 -3 -17 -4 -13 -1 -9 -21 41 -34 36 -8 -30 -23 -11 -12 -26 46 44 -44 -46 -19 -48 -33
right_child=1 3 28 7 5 8 10 31 9 24 11 15 -14 16 -16 23 -18 42 19 32 22 25 -24 -25 33 -27 -28 -29 37 -31 -32 48 34 -35 -36 -37 -38 -39 -40 -41 -42 -43 43 -45 45 -47 47 -49 -50
leaf_value=0.096344611427742713 0.10088508521597496 0.057803698382198287 -0.0080002359237941502 -0.039856460163919555 -0.063035228020182327 0.12599751943409659 -0.056353661314684222 0.032098667135618882 -0.068115392670957217 0.043449392089069311 -0.074704773037790287 -0.063740323851046013 -0.055308563106291085 0.13233468036600476 -0.069450290396669723 -0.029965326243366609 -0.042689951174218185 -0.075797023727643298 -0.052665436460930325 -0.055229360842320892 -0.04060736650464955 0.050345503752060344 0.12387719040774388 -0.040966417384131232 0.11069876331143486 0.096554798356721858 -0.067637332504562109 0.12818569053202419 0.10790744953274108 0.049714166446698203 -0.021055000722378068 -0.03065488364727403 -0.036053721982779459 -0.0011119600261974259 0.081881574610876445 -0.0756762712749703 0.091940576034036103 0.015901650916382095 -0.050559438092751964 -0.044301149924673738 0.023192385516828833 0.012092167198862143 -0.037164309284732626 -0.058887515537105098 0.13254373362021796 -0.021645696325320905 -0.047969914859625269 0.067382795066152149 -0.075351655829416234
leaf_weight=15.682357452809812 34.874354295432568 9.9386380985379201 13.118566438555716 48.224718667566776 37.179032400250435 196.50334306061268 38.363364741206169 9.0236962474882585 45.163231182843447 14.024094291031362 127.73334887251258 38.912796560674906 19.085599508136511 16.623204112052921 101.55681524053216 5.8650910034775725 13.592161878943442 5119.4963127486408 20.474874954670668 74.442067179828882 9.7799487262964231 5.4255185499787357 52.124466069042683 12.905563179403542 117.68763872981071 47.630005717277527 115.31305984780192 41.511531077325344 3676.5864876694977 13.092541582882403 13.923318035900591 65.78352452069521 7.7562037780880955 11.491640854626892 8.8029758445918542 401.0475465580821 8.272227291017769 16.807839769870043 17.399980556219816 16.473048944026232 5.5763091556727877 13.006555177271364 8.387611676007511 29.460765153169632 4.9268496818840486 3.9792227782309055 16.081899464130405 5.0253358818590632 282.81722287461162
leaf_count=104 194 48 153 707 555 939 781 81 650 108 2611 677 291 110 1926 99 215 110913 375 1154 177 65 396 194 609 280 1934 362 17314 102 224 1204 123 89 40 8606 83 120 262 270 85 118 164 609 56 85 289 47 5535
internal_value=-0.00231885 -0.0580152 0.101933 0.00665987 0.046186 0.0724675 -0.0694863 -0.043546 0.0857719 0.0458621 -0.0705761 -0.0263409 0.044927 -0.0296719 -0.0413721 0.0254122 0.0604979 -0.0723969 -0.048738 0.00748608 0.0566614 0.0197534 0.0954719 0.0728782 0.0777443 0.0610082 -0.0542595 0.106215 0.1071 -0.0314313 0.0477122 -0.064643 -0.0376435 0.0943093 0.0314833 -0.070338 -0.018971 0.107539 -0.0179235 -0.00213849 -0.0691342 0.102563 -0.075135 -0.0251764 0.0310412 0.0844378 -0.0755377 -0.00741049 -0.0679881
internal_weight=11029 7191.28 3837.68 1083.3 606.996 451.529 6107.98 476.305 414.35 217.846 6054.02 245.597 53.96 155.467 131.162 112.288 30.2154 5808.42 621.064 173.381 82.3793 118.68 61.9044 60.2822 172.683 70.4555 125.252 47.3766 3706.51 52.0053 29.6057 357.624 91.0012 142.186 16.5592 447.683 46.6356 3693.39 22.8255 30.4971 133.31 130.694 5187.36 46.7544 17.2937 8.90607 5140.6 21.1072 348.601
internal_count=162133 142292 19841 13779 5645 3338 128513 8134 2783 1844 128028 4130 485 2307 2254 1434 325 123898 11735 2265 948 1314 573 655 1194 607 1982 461 17587 779 328 6820 1317 816 163 9470 864 17434 327 378 2696 727 112163 914 305 141 111249 336 6739
is_linear=0
shrinkage=0.0758795


Tree=14
num_leaves=50
num_cat=0
split_feature=64 35 62 29 35 64 61 61 59 59 16 59 58 13 62 49 64 62 13 71 59 59 59 13 14 58 51 59 59 1 20 66 35 1 64 71 59 62 13 37 59 59 37 23 71 1 17 35 29
split_gain=10952.1 483.304 375.643 296.662 145.301 194.951 144.309 130.827 119.48 147.49 104.472 91.0571 80.6788 178.423 75.0484 54.7937 46.2699 65.9022 52.3387 42.8009 42.017 39.5198 36.4521 28.7599 25.3794 34.6308 24.3689 23.81 47.4394 23.6246 21.0084 34.5589 27.7313 18.5419 18.3623 18.2866 17.1917 15.3201 14.054 12.4008 12.3158 11.7053 10.5019 9.83686 9.79608 9.7415 9.59941 9.58815 9.22035
threshold=-1.9353018588476056 -1.2106752333347528 0.9305180745293532 -1.3027766414077722 -0.42266579608756533 -0.22618237557828877 44073.4361776972 48089.793057586947 1.0000000180025095e-35 0.99954014038212347 0.56708074696178634 1.0000017270376704 1.6909813284362014 -0.99129738611068008 -0.29176768291522287 -0.026593287463516448 -1.1421907062873038 0.37877522136612302 -0.19847814509972567 0.51983698307016768 1.9901232371557855 0.0061787482700310014 2.0000824542294144 0.078010188571198055 16.256801507405942 0.039394230534649459 1.3992377655990209 1.0000000180025095e-35 0.99954014038212347 -0.58250543138786959 0.44396767432850298 -0.070834547981892884 -2.074581812385786 -1.6838401191810177 -0.93897138767531196 0.70470663905160447 2.9997789457811455 1.6666125951722104 -0.35787002375485261 0.59803613205913286 3.0005308145191525 1.0179266992126943 2.1810915879228565 1.2143577478319449 -0.96173177327701664 0.64918073262596054 2.6899310876047227 -0.76638834111193987 0.34765546005536224
decision_type=2 2 2 2 2 2 2 2 2 2 2 2 2 2 2 2 2 2 2 2 2 2 2 2 2 2 2 2 2 2 2 2 2 2 2 2 2 2 2 2 2 2 2 2 2 2 2 2 2
left_child=1 14 12 7 5 10 24 34 -8 -10 19 -11 16 15 -1 44 17 39 27 26 -13 -9 -22 -23 25 37 48 -19 -29 -25 -7 32 -32 38 -4 45 -24 -3 -15 43 -38 -30 -43 -2 -14 -16 -35 -48 -5
right_child=2 6 3 4 -6 30 8 21 9 11 -12 20 13 33 35 -17 -18 18 -20 -21 22 23 36 29 -26 -27 -28 28 41 -31 31 -33 -34 46 -36 -37 40 -39 -40 -41 -42 42 -44 -45 -46 -47 47 -49 -50
leaf_value=-0.048643090718452332 -0.035764899219537953 -0.059374661677422676 0.022905177580237825 0.14125961808864212 -0.071680313910679375 -0.06602393232844983 -0.06522362644707777 -0.023398735834783625 0.11087597211876778 -0.06524444781671325 -0.055176758192657778 0.10492802650884687 0.018558525902412464 0.062001258093525025 0.10492450236746226 -0.038897435067706425 -0.076693318326102863 -0.03833814625580409 -0.048129576192021815 -0.029774195977412123 -0.051985512044567167 0.12850600210828256 0.096705210923902635 0.07150867671361355 -0.071733534384979869 0.06250598438191976 0.0068318861977875985 0.13638342101808368 -0.043817561190674682 -0.04044626103055346 0.10526726792723178 -0.056341026829461044 -0.034355746525683052 -0.071392115454076491 -0.064351551182367087 0.010491041345933727 -0.040234051927023173 0.034480644885828485 -0.037727160161732463 -0.069850212787385235 0.035685318812368839 0.054236957399015989 -0.029000864700911073 0.049196136528391082 0.15246499340363823 0.022037275487192871 0.047132679804903321 -0.038467002633589015 0.033691909732524866
leaf_weight=13.522986281663178 9.6427423357963544 37.250078614801168 14.273866295814512 66.799478594213724 395.00094175711274 136.66229957342148 40.456584315747023 10.453794244676827 169.01137774437666 52.550267469137907 25.684398598968983 38.088380869477987 7.1993710659444288 7.07520942762494 3569.4127042628825 8.9539799056947214 4751.9784948118031 10.322757344692944 63.621339540928602 9.2221015095710737 25.350134905427694 101.23610338196158 15.293381955474613 18.054918278008703 68.377536155283451 19.539396107196808 12.46365789324045 19.123502425849438 11.079248096793888 10.513455145061014 12.372691992670299 25.299568597227335 7.3679020144045344 158.73277159407735 34.267968837171793 15.005068495869635 10.334503788501022 6.0283003710210314 8.2283897809684259 314.50707045570016 26.148502036929131 17.844776127487425 5.7159225307404986 5.0656056925654402 27.756060209125284 14.767852108925579 4.4431065283715716 8.9810482636094076 13.054309934377669
leaf_count=201 197 583 112 370 8248 2700 637 120 858 810 474 194 66 67 17480 164 111820 163 1125 132 348 532 76 96 1094 126 105 106 174 133 123 504 136 3241 553 94 140 37 145 6621 232 169 105 61 229 107 52 176 97
internal_value=-0.00230357 0.0938564 -0.0649284 -0.0190179 -0.0417007 -0.00231977 0.0239937 0.0634494 0.0476554 0.0626384 0.0670271 0.0107351 -0.0724119 -0.0269443 0.103595 0.098183 -0.0743749 -0.049191 -0.00224203 0.100246 0.0478846 0.0991545 0.0114504 0.110189 -0.0424645 -0.00515657 0.11511 0.0430134 0.0624914 0.0292998 -0.0519469 -0.00465324 0.0570183 -0.0595198 -0.0383398 0.104295 0.0462374 -0.0418829 0.0122853 -0.0667483 0.00961009 0.00155926 0.0303079 0 0.135059 0.104649 -0.0664292 -0.000766322 0.12919
internal_weight=10454.1 4121.14 6333 892.727 703.927 308.926 508.428 188.8 377.233 336.777 127.224 167.765 5440.27 231.37 3612.71 43.9094 5208.9 456.923 127.708 101.54 115.215 140.258 77.1265 129.804 131.195 62.8178 92.3174 64.0862 53.7634 28.5684 181.702 45.0402 19.7406 187.461 48.5418 3599.19 51.7764 43.2784 15.3036 329.215 36.483 34.6399 23.5607 14.7083 34.9554 3584.18 172.157 13.4242 79.8538
internal_count=162133 23017 139116 14435 12889 4641 5135 1546 3295 2658 1178 1800 124681 4140 17882 459 120541 8721 1842 704 990 881 796 761 1840 746 572 717 554 229 3463 763 259 3681 665 17681 448 620 212 6879 372 448 274 258 295 17587 3469 228 467
is_linear=0
shrinkage=0.0758795


Tree=15
num_leaves=50
num_cat=0
split_feature=1 62 62 35 1 29 1 62 34 66 65 62 35 13 24 68 35 47 20 47 66 52 23 29 50 71 20 19 29 19 32 62 1 14 24 47 29 57 47 68 29 66 61 47 44 40 53 32 24
split_gain=9072.2 813.464 403.014 325.915 185.934 117.689 117.117 234.465 101.332 82.3844 75.732 87.7586 78.2725 74.4697 67.2012 58.6945 56.5831 55.2491 47.8301 43.1056 41.6497 33.9314 33.8197 32.0076 31.1311 30.8605 29.2564 28.7797 25.5105 24.9571 23.3126 23.1186 34.0461 54.3103 132.01 34.1536 29.3028 19.8635 18.6987 48.925 18.0999 17.8319 15.5146 28.6012 14.9941 14.5554 14.4511 13.1394 12.4107
threshold=-1.6838401191810177 1.021322452303288 0.12456142993433816 -0.40177872332690062 0.11656291854171157 -0.51943141293207273 -0.91875266199155448 0.10775909165974847 0.04779564786551415 0.73072397744883011 -2.0429578850566918 0.21748992244746057 -0.18183108812089147 -0.063954868064273432 5120.5000000000009 -0.87332778105550235 0.041169499532357205 0.97531644977517118 -0.39341566816038981 0.99213301629691719 -0.72014991783423121 -1.0404310389529288 0.10334742188910927 0.74471861257494609 -0.082987870009089179 0.75643019781316945 -0.50982194722649643 0.098326465167890814 -1.4832924564381866 0.2947148546280316 1.7319564508529413 0.48001955467507912 -0.35254604861806721 14.848194444444447 24285.500000000004 1.0563846003072868 -0.68861002795515625 60.532720032816094 1.0341454382342066 -0.38769155451553178 0.62574343688836154 1.3326479321659923 114835.83961657165 0.99122533248946876 2.0306542640996743 -0.38048561703807221 -0.48165086809973351 0.24756898944422609 27156.500000000004
decision_type=2 2 2 2 2 2 2 2 2 2 2 2 2 2 2 2 2 2 2 2 2 2 2 2 2 2 2 2 2 2 2 2 2 2 2 2 2 2 2 2 2 2 2 2 2 2 2 2 2
left_child=2 6 15 4 14 13 7 38 17 28 11 30 21 -6 -3 24 37 -9 -19 -11 47 -13 -10 44 -1 26 -16 -24 29 -5 -8 42 33 34 -33 -34 -37 -4 -2 -40 -20 -28 -12 -44 -21 -22 -43 -7 -36
right_child=1 3 16 9 5 20 10 8 22 19 31 12 -14 -15 25 -17 -18 18 40 23 45 -23 27 -25 -26 -27 41 -29 -30 -31 -32 32 35 -35 48 36 -38 -39 39 -41 -42 46 43 -45 -46 -47 -48 -49 -50
leaf_value=-0.040649356503306394 -0.074258435230069558 -0.043408442188578887 0.10146038124578208 0.046829278452242051 0.095374187694585708 -0.015702063528039552 -0.071723209685602335 -0.02625758324115909 -0.065465740888709087 -0.058567805648155336 -0.077879343535834478 -0.022487128450418111 -0.056558438765318235 -0.035232301279071482 -0.0091843286849182647 -0.06780129569673729 -0.020044361777873828 -0.030950926842521306 0.1277431223273392 -0.0083215724106812869 0.023257766142872196 0.12387270258808016 0.085672427317439431 -0.042233518106703685 0.090315847172607697 -0.017675016604084468 0.10471359646406526 -0.024760056548868911 -0.071598556292252369 -0.052511834764603638 0.052862556598906811 -0.062263511999127601 -0.073886057892908155 -0.063818600834822992 0.1310968094730782 0.07927374795240362 -0.034903915033702583 0.0024285672898637632 0.092241727284191541 -0.060430386763864488 0.011785189164623414 0.061540646165766343 -0.062736611098501344 0.018921181563272167 0.086719841460741201 -0.061291251607783287 -0.022459538461152534 0.08197896349146773 0.013218262295949881
leaf_weight=9.9001961350440997 367.9581112191081 18.7931121699512 3360.1067313328385 19.109944857656956 72.399901773780584 8.2540017925202864 93.787766080349684 21.741472039371729 52.198071852326393 22.590177461504936 3532.2849601693451 7.878238793462514 22.434661746025085 30.429287485778332 13.381104275584219 90.383363548666239 19.091473940759897 10.800672091543673 72.77609584107995 8.8999288454651815 7.5293290428817263 35.894774809479713 13.652817681431769 11.725645933300255 18.925376135855913 12.089727450162171 249.7247553281486 26.860301975160837 276.36599457636476 21.84745230525732 2.9058386832475653 50.412965316325426 676.99893715977669 113.51244465261698 27.17618740722537 7.3579539395868769 59.557208932936192 13.048864737153052 8.9770781211554986 29.869652487337589 11.583548229187725 24.257755037397146 87.725412391126156 27.684328980743885 44.946091827005148 145.90021620318294 11.808292079716919 11.068285435438154 9.4887464381754381
leaf_count=193 8967 327 17273 186 535 135 2194 373 934 390 88745 104 467 421 169 1926 221 197 434 111 120 262 92 221 135 105 1312 395 6112 309 33 1133 16559 2336 178 100 1378 93 94 715 138 120 2072 475 274 2764 83 85 138
internal_value=-0.00228941 -0.0561679 0.0955282 0.00618612 0.041248 -0.00473854 -0.0679045 -0.0358734 0.0284085 -0.0458435 -0.0719748 -0.019514 0.0440833 0.0565952 0.0789141 -0.0389328 0.100353 0.0732454 0.0966976 0.017342 -0.042449 0.0973272 -0.0291204 0.0478699 0.0451606 0.0874126 0.0921803 0.0200945 -0.0635279 -0.00518937 -0.0635226 -0.073786 -0.061174 -0.0310293 0.0131603 -0.068793 -0.0141193 0.101098 -0.0690035 -0.0138366 0.114875 0.0972066 -0.0768869 -0.04284 0.0713295 -0.0558491 0.0340295 0.0467324 0.109918
internal_weight=9894.1 6382.64 3511.46 1011.12 605.636 275.581 5371.52 616.418 209.613 405.485 4755.1 162.901 66.2077 102.829 330.055 119.209 3392.25 116.902 95.1603 88.1618 172.752 43.773 92.7112 65.5717 28.8256 311.262 299.172 40.5131 317.323 40.9574 96.6936 4592.2 944.504 200.59 87.0779 743.914 66.9152 3373.16 406.805 38.8467 84.3596 285.791 3647.69 115.41 53.846 153.43 36.066 19.3223 36.6649
internal_count=162133 142292 19841 13779 6176 4060 128513 12339 2563 7603 116174 3060 833 956 2116 2254 17587 1142 769 996 3104 366 1421 606 328 1789 1684 487 6607 495 2227 113114 21822 3785 1449 18037 1478 17366 9776 809 572 1515 91292 2547 385 2884 203 220 316
is_linear=0
shrinkage=0.0758795


Tree=16
num_leaves=50
num_cat=0
split_feature=35 62 16 35 37 16 62 71 16 24 66 62 35 62 37 71 11 58 16 71 20 46 20 4 71 57 48 49 44 20 37 65 19 35 37 58 7 48 24 4 32 61 32 61 20 20 62 66 58
split_gain=7361.61 823.406 602.913 409.363 211.305 126.035 133.972 124.579 104.863 96.6462 94.6113 79.9575 117.811 79.0356 67.2746 62.1561 60.2353 57.569 52.5249 44.9536 44.5339 41.6101 40.6286 34.683 30.7963 30.8649 29.9919 29.9856 27.8224 27.7394 23.2468 22.0122 33.421 21.1019 20.2862 19.6371 24.0799 19.5803 18.7653 18.7617 17.1037 16.6928 16.081 16.2034 94.1637 15.4835 13.7995 27.3832 13.7019
threshold=-2.3036693184678314 0.89762654970664257 -0.3009058506275763 -0.35151460431418263 1.6947835495917392 -1.4423520216735688 0.10775909165974847 0.75643019781316945 0.56708074696178634 75391.500000000015 0.46727788015094601 0.48001955467507912 -0.70028767933790825 -0.039357902196531395 1.8887605764410185 0.80872235439555717 -0.19512598411732571 -0.40603016857968471 -0.34850407622362894 0.85667782798968195 -0.98174025254620501 0.88431300230130683 -0.50100242004713513 1.0000000180025095e-35 0.14068752642601748 -0.031794859135611142 0.21350570073419378 0.99270716736223008 1.8051073509382853 1.3350170038205695 10.246671965946009 -0.89688965359061934 0.39774338300092615 0.19155091537950766 0.29249876737521846 -1.3415924039111602 21.874305555555559 1.7162946027638066 52423.500000000007 -0.14663363740801322 0.39862686750694837 24093.197587445251 1.7319564508529413 114835.83961657165 0.8017980326989842 0.15760444195528814 1.0816279672517173 -0.040337805919906641 1.9608002410809011
decision_type=2 2 2 2 2 2 2 2 2 2 2 2 2 2 2 2 2 2 2 2 2 2 2 2 2 2 2 2 2 2 2 2 2 2 2 2 2 2 2 2 2 2 2 2 2 2 2 2 2
left_child=2 5 7 4 8 6 -2 13 15 -8 35 34 14 -1 22 20 -4 38 23 21 -3 26 -13 28 -19 -26 -11 37 -6 31 45 32 33 -14 -7 36 -5 41 -12 -24 -27 -22 43 -36 -45 -15 -18 -48 -44
right_child=1 3 16 10 18 11 9 -9 -10 19 17 12 29 30 -16 -17 46 24 -20 -21 27 -23 39 -25 25 40 -28 -29 -30 -31 -32 -33 -34 -35 42 -37 -38 -39 -40 -41 -42 -43 48 44 -46 -47 47 -49 -50
leaf_value=-0.031084476624774426 -0.06939263669138597 -0.034349335646894352 0.061946812192162221 -0.046684322073155739 -0.022891842894553364 0.0078064137226823895 -0.055199963360905539 -0.05409952431654412 -0.045771663066362184 0.12944289713277154 -0.021563828894067126 -0.033218534404189988 0.10390505685896062 0.0022520652592508722 -0.053105364458719398 -0.039891145097415752 -0.073545581711990077 -0.062696935591333311 -0.06010323865289173 -0.03099270707095117 0.011335995543756488 -0.030860873198783109 0.090436779241664669 -0.029182850848906306 -0.051070791937785708 0.078538472985860586 0 -0.0044732185339510198 0.091496097453850317 0.026932666040671238 0 -0.06484142326921935 -0.049038379848668823 -0.028275927056631286 -0.075021807699640272 -0.073918819015227025 0.060527002743775114 0 0.07939086962713135 -0.010859224322165495 -0.026979177212410752 0.10161608031827558 -0.03794431822071774 -0.068902750099108373 0.092327482110076381 0.099543648992398787 0.046735563123072282 -0.059221132009035796 0.066147774769851272
leaf_weight=23.027783028781414 124.56383002921939 12.169472292065619 19.151949718594551 26.109615709632635 12.570948950946329 15.083225648850201 40.856331147253513 25.950549174100161 35.123098809272051 64.249182548373938 8.5018137469887716 19.101902924478054 10.150353226810692 10.784136075526474 44.039158750325441 18.195058375597 118.44247796759009 58.663246553391218 96.868712849915028 15.308564513921736 15.715174593031405 9.5254578590393049 63.515911489725113 39.836028147488832 17.762902650982141 24.935306336730722 12.403048012405632 16.432408604770899 31.858442477881908 15.952790457755325 14.534028355032204 642.63568349555135 35.181601855903864 5.6081554964184752 3631.2710629887879 305.85036088526249 9.8023465499281865 12.453759539872406 44.339043773710728 9.4178384579718095 6.3994031846523276 365.91236245632172 8.8209829442203027 104.58704918250442 17.493538301438093 3057.3651562817395 15.588267542421816 25.089597124606371 3.7552943266928187
